{"learner":{"attributes":{"scikit_learn":"{\"_estimator_type\": \"classifier\"}"},"feature_names":["X","Seq","Dur","RunTime","Mean","Sum","Min","Max","sTos","dTos","sTtl","dTtl","sHops","dHops","TotPkts","SrcPkts","DstPkts","TotBytes","SrcBytes","DstBytes","Offset","sMeanPktSz","dMeanPktSz","Load","SrcLoad","DstLoad","Loss","SrcLoss","DstLoss","pLoss","SrcGap","DstGap","Rate","SrcRate","DstRate","SrcWin","DstWin","SrcTCPBase","DstTCPBase","TcpRtt","SynAck","AckDat","UniqueID"],"feature_types":["float","float","float","float","float","float","float","float","int","int","int","int","int","int","float","float","float","float","float","float","float","float","float","float","float","float","float","float","float","float","int","int","float","float","float","int","int","int","int","float","float","float","float"],"gradient_booster":{"model":{"cats":{"enc":[],"feature_segments":[],"sorted_idx":[]},"gbtree_model_param":{"num_parallel_tree":"1","num_trees":"100"},"iteration_indptr":[0,1,2,3,4,5,6,7,8,9,10,11,12,13,14,15,16,17,18,19,20,21,22,23,24,25,26,27,28,29,30,31,32,33,34,35,36,37,38,39,40,41,42,43,44,45,46,47,48,49,50,51,52,53,54,55,56,57,58,59,60,61,62,63,64,65,66,67,68,69,70,71,72,73,74,75,76,77,78,79,80,81,82,83,84,85,86,87,88,89,90,91,92,93,94,95,96,97,98,99,100],"tree_info":[0,0,0,0,0,0,0,0,0,0,0,0,0,0,0,0,0,0,0,0,0,0,0,0,0,0,0,0,0,0,0,0,0,0,0,0,0,0,0,0,0,0,0,0,0,0,0,0,0,0,0,0,0,0,0,0,0,0,0,0,0,0,0,0,0,0,0,0,0,0,0,0,0,0,0,0,0,0,0,0,0,0,0,0,0,0,0,0,0,0,0,0,0,0,0,0,0,0,0,0],"trees":[{"base_weights":[7.4315935E-8,-1.8861719E0,1.468145E0,-1.90944E-1,-1.0071136E0,-1.8958466E-1,1.9020668E0,7.338719E-1,-1.7464818E-1,2.0811968E-1,5.5083174E-1,1.202716E-1,-1.2990772E-2,-1.8159725E-1,1.3709282E0,2.0346434E-1,-1.0757523E-1],"categories":[],"categories_nodes":[],"categories_segments":[],"categories_sizes":[],"default_left":[0,0,0,0,0,0,0,0,0,0,0,0,0,0,0,0,0],"id":0,"left_children":[1,3,5,-1,7,-1,9,11,-1,-1,13,-1,-1,-1,15,-1,-1],"loss_changes":[3.2165544E3,8.476074E0,9.5702625E2,0E0,2.0881262E1,0E0,1.390061E2,2.2794976E0,0E0,0E0,1.366828E2,0E0,0E0,0E0,8.649303E1,0E0,0E0],"parents":[2147483647,0,0,1,1,2,2,4,4,6,6,7,7,10,10,14,14],"right_children":[2,4,6,-1,8,-1,10,12,-1,-1,14,-1,-1,-1,16,-1,-1],"split_conditions":[1.4904911E4,4.287946E9,9.992E-1,-1.90944E-1,1.9654522E5,-1.8958466E-1,1.4803719E7,4.0534363E1,-1.7464818E-1,2.0811968E-1,5.6448E4,1.202716E-1,-1.2990772E-2,-1.8159725E-1,2.3E1,2.0346434E-1,-1.0757523E-1],"split_indices":[1,38,28,0,42,0,20,16,0,0,35,0,0,0,14,0,0],"split_type":[0,0,0,0,0,0,0,0,0,0,0,0,0,0,0,0,0],"sum_hessian":[1.1595575E3,5.0740002E2,6.5215753E2,4.9317383E2,1.4226169E1,7.4125824E1,5.780317E2,4.2428923E0,9.983276E0,5.0989584E2,6.813586E1,2.495819E0,1.7470733E0,1.7221151E1,5.0914707E1,4.0182686E1,1.0732022E1],"tree_param":{"num_deleted":"0","num_feature":"43","num_nodes":"17","size_leaf_vector":"1"}},{"base_weights":[-1.0265376E-3,-1.7278907E0,1.3266772E0,-1.7494036E-1,-9.2023194E-1,-1.7384483E-1,1.7166532E0,6.8058074E-1,-1.6100948E-1,1.8776743E-1,4.9714512E-1,1.1543832E-1,-1.7007727E-2,-1.6699126E-1,1.2392966E0,1.8396042E-1,-9.841891E-2],"categories":[],"categories_nodes":[],"categories_segments":[],"categories_sizes":[],"default_left":[0,0,0,0,0,0,0,0,0,0,0,0,0,0,0,0,0],"id":1,"left_children":[1,3,5,-1,7,-1,9,11,-1,-1,13,-1,-1,-1,15,-1,-1],"loss_changes":[2.6374436E3,7.077759E0,7.803379E2,0E0,1.7751999E1,0E0,1.124541E2,2.3103595E0,0E0,0E0,1.1257448E2,0E0,0E0,0E0,7.08927E1,0E0,0E0],"parents":[2147483647,0,0,1,1,2,2,4,4,6,6,7,7,10,10,14,14],"right_children":[2,4,6,-1,8,-1,10,12,-1,-1,14,-1,-1,-1,16,-1,-1],"split_conditions":[1.4904911E4,4.287946E9,9.992E-1,-1.7494036E-1,1.9654522E5,-1.7384483E-1,1.4803719E7,4.166136E4,-1.6100948E-1,1.8776743E-1,5.6448E4,1.1543832E-1,-1.7007727E-2,-1.6699126E-1,2.3E1,1.8396042E-1,-9.841891E-2],"split_indices":[1,38,28,0,42,0,20,17,0,0,35,0,0,0,14,0,0],"split_type":[0,0,0,0,0,0,0,0,0,0,0,0,0,0,0,0,0],"sum_hessian":[1.1483337E3,4.990057E2,6.4932806E2,4.8492322E2,1.4082475E1,7.289913E1,5.7642896E2,4.2451487E0,9.837326E0,5.0871912E2,6.7709816E1,2.4972014E0,1.7479472E0,1.6954153E1,5.0755665E1,4.010151E1,1.0654155E1],"tree_param":{"num_deleted":"0","num_feature":"43","num_nodes":"17","size_leaf_vector":"1"}},{"base_weights":[-1.706485E-3,-1.6066821E0,1.221143E0,-1.6271118E0,-8.4867376E-1,-1.617768E-1,1.5787497E0,-5.5182E-2,-1.6292048E0,6.321153E-1,-1.5018685E-1,1.7270164E-1,4.5566732E-1,-5.5182E-2,-1.6313104E-1,1.236676E-1,-2.45291E-2,-1.5557992E-1,1.1378967E0,6.269664E-2,-6.644869E-2,1.6936223E-1,-9.043067E-2],"categories":[],"categories_nodes":[],"categories_segments":[],"categories_sizes":[],"default_left":[0,0,0,0,0,0,0,0,0,0,0,0,0,0,0,0,0,0,0,0,0,0,0],"id":2,"left_children":[1,3,5,7,9,-1,11,-1,13,15,-1,-1,17,-1,-1,-1,19,-1,21,-1,-1,-1,-1],"loss_changes":[2.2005981E3,6.1275635E0,6.4861444E2,1.6125488E-1,1.5279256E1,0E0,9.3409546E1,0E0,1.652832E-1,2.1099594E0,0E0,0E0,9.416636E1,0E0,0E0,0E0,1.8723959E0,0E0,5.924729E1,0E0,0E0,0E0,0E0],"parents":[2147483647,0,0,1,1,2,2,3,3,4,4,6,6,8,8,9,9,12,12,16,16,18,18],"right_children":[2,4,6,8,10,-1,12,-1,14,16,-1,-1,18,-1,-1,-1,20,-1,22,-1,-1,-1,-1],"split_conditions":[1.4904911E4,4.287946E9,9.992E-1,2.06525E-1,1.9654522E5,-1.617768E-1,1.4803719E7,-5.5182E-2,6.760878E1,2.40576E0,-1.5018685E-1,1.7270164E-1,5.6448E4,-5.5182E-2,-1.6313104E-1,1.236676E-1,1.0468467E3,-1.5557992E-1,2.3E1,6.269664E-2,-6.644869E-2,1.6936223E-1,-9.043067E-2],"split_indices":[1,38,28,2,42,0,20,0,21,2,0,0,35,0,0,0,18,0,14,0,0,0,0],"split_type":[0,0,0,0,0,0,0,0,0,0,0,0,0,0,0,0,0,0,0,0,0,0,0],"sum_hessian":[1.1192422E3,4.8386334E2,6.353789E2,4.7004816E2,1.3815195E1,7.068804E1,5.6469086E2,1.4272717E0,4.6862088E2,4.238595E0,9.5766E0,4.9836063E2,6.633022E1,1.4272717E0,4.671936E2,1.746915E0,2.49168E0,1.6475079E1,4.9855145E1,1.2447692E0,1.2469106E0,3.9324757E1,1.0530389E1],"tree_param":{"num_deleted":"0","num_feature":"43","num_nodes":"23","size_leaf_vector":"1"}},{"base_weights":[-2.2695693E-3,-1.5111601E0,1.1394995E0,-1.5310037E0,-7.8653896E-1,-1.5225072E-1,1.4723152E0,-4.7836956E-2,-1.5331557E0,5.940475E-1,-1.4137629E-1,1.6112739E-1,4.224735E-1,-5.2351326E-2,-1.5351585E-1,1.0339812E-1,-1.8067045E-2,-1.4641692E-1,1.0569594E0,1.5658376E-1,-8.8766694E-2],"categories":[],"categories_nodes":[],"categories_segments":[],"categories_sizes":[],"default_left":[0,0,0,0,0,0,0,0,0,0,0,0,0,0,0,0,0,0,0,0,0],"id":3,"left_children":[1,3,5,7,9,-1,11,-1,13,15,-1,-1,17,-1,-1,-1,-1,-1,19,-1,-1],"loss_changes":[1.8604984E3,5.484497E0,5.4688306E2,2.8979492E-1,1.3357563E1,0E0,7.910962E1,0E0,1.07055664E-1,1.9659055E0,0E0,0E0,7.9699455E1,0E0,0E0,0E0,0E0,0E0,5.0311966E1,0E0,0E0],"parents":[2147483647,0,0,1,1,2,2,3,3,4,4,6,6,8,8,9,9,12,12,18,18],"right_children":[2,4,6,8,10,-1,12,-1,14,16,-1,-1,18,-1,-1,-1,-1,-1,20,-1,-1],"split_conditions":[1.4904911E4,4.287946E9,9.992E-1,2.0276E-1,1.9654522E5,-1.5225072E-1,1.4803719E7,-4.7836956E-2,6.760878E1,4.0534363E1,-1.4137629E-1,1.6112739E-1,5.6448E4,-5.2351326E-2,-1.5351585E-1,1.0339812E-1,-1.8067045E-2,-1.4641692E-1,3.92074E-1,1.5658376E-1,-8.8766694E-2],"split_indices":[1,38,28,3,42,0,20,0,21,16,0,0,35,0,0,0,0,0,4,0,0],"split_type":[0,0,0,0,0,0,0,0,0,0,0,0,0,0,0,0,0,0,0,0,0],"sum_hessian":[1.0779247E3,4.641757E2,6.13749E2,4.5072E2,1.3455698E1,6.780888E1,5.459402E2,1.3751161E0,4.4934488E2,4.219976E0,9.235723E0,4.8165298E2,6.428716E1,1.4090174E0,4.4793585E2,2.4780998E0,1.7418761E0,1.5849893E1,4.8437267E1,3.8545345E1,9.891922E0],"tree_param":{"num_deleted":"0","num_feature":"43","num_nodes":"21","size_leaf_vector":"1"}},{"base_weights":[-2.747709E-3,-1.4340842E0,1.0745081E0,-1.4535881E0,-7.3498005E-1,-1.4455844E-1,1.3877519E0,-4.2085484E-2,-1.4557984E0,5.541194E-1,-1.340492E-1,1.5198547E-1,3.9482105E-1,-4.9700413E-2,-1.4577566E-1,9.9705204E-2,-2.0852335E-2,-1.3889356E-1,9.8975986E-1,1.4763944E-1,-8.2620025E-2],"categories":[],"categories_nodes":[],"categories_segments":[],"categories_sizes":[],"default_left":[0,0,0,0,0,0,0,0,0,0,0,0,0,0,0,0,0,0,0,0,0],"id":4,"left_children":[1,3,5,7,9,-1,11,-1,13,15,-1,-1,17,-1,-1,-1,-1,-1,19,-1,-1],"loss_changes":[1.5890383E3,4.9660034E0,4.6618524E2,3.6773682E-1,1.1697392E1,0E0,6.8068665E1,0E0,7.946777E-2,1.9620372E0,0E0,0E0,6.80437E1,0E0,0E0,0E0,0E0,0E0,4.336728E1,0E0,0E0],"parents":[2147483647,0,0,1,1,2,2,3,3,4,4,6,6,8,8,9,9,12,12,18,18],"right_children":[2,4,6,8,10,-1,12,-1,14,16,-1,-1,18,-1,-1,-1,-1,-1,20,-1,-1],"split_conditions":[1.4904911E4,4.287946E9,9.992E-1,7.046583E0,1.9654522E5,-1.4455844E-1,1.4803719E7,-4.2085484E-2,6.760878E1,4.166136E4,-1.340492E-1,1.5198547E-1,5.6448E4,-4.9700413E-2,-1.4577566E-1,9.9705204E-2,-2.0852335E-2,-1.3889356E-1,6.12976E-1,1.4763944E-1,-8.2620025E-2],"split_indices":[1,38,28,15,42,0,20,0,21,17,0,0,35,0,0,0,0,0,5,0,0],"split_type":[0,0,0,0,0,0,0,0,0,0,0,0,0,0,0,0,0,0,0,0,0],"sum_hessian":[1.028562E3,4.4154947E2,5.870126E2,4.2851526E2,1.303419E1,6.4498436E1,5.2251416E2,1.3239186E0,4.2719135E2,4.192813E0,8.841377E0,4.6069153E2,6.1822598E1,1.3900762E0,4.2580127E2,2.4579213E0,1.7348918E0,1.5128741E1,4.669386E1,3.6972965E1,9.720893E0],"tree_param":{"num_deleted":"0","num_feature":"43","num_nodes":"21","size_leaf_vector":"1"}},{"base_weights":[-3.152248E-3,-1.3706732E0,1.0216668E0,-1.3900772E0,-6.898906E-1,-1.3823213E-1,1.3191164E0,-3.924018E-2,-1.392307E0,5.1738006E-1,-1.2784317E-1,1.4460808E-1,3.7144506E-1,-4.721211E-2,-1.3942656E-1,1.10193275E-1,-9.0336E-2,-1.3259953E-1,9.331011E-1,5.4322448E-2,-6.756883E-2,1.4179339E-1,-7.228212E-2],"categories":[],"categories_nodes":[],"categories_segments":[],"categories_sizes":[],"default_left":[0,0,0,0,0,0,0,0,0,0,0,0,0,0,0,0,0,0,0,0,0,0,0],"id":5,"left_children":[1,3,5,7,9,-1,11,-1,13,15,-1,-1,17,-1,-1,-1,19,-1,21,-1,-1,-1,-1],"loss_changes":[1.368182E3,4.5653076E0,4.0086743E2,3.560791E-1,1.03067465E1,0E0,5.927643E1,0E0,7.043457E-2,1.9328693E0,0E0,0E0,5.8514725E1,0E0,0E0,0E0,1.6481684E0,0E0,3.7737984E1,0E0,0E0,0E0,0E0],"parents":[2147483647,0,0,1,1,2,2,3,3,4,4,6,6,8,8,9,9,12,12,16,16,18,18],"right_children":[2,4,6,8,10,-1,12,-1,14,16,-1,-1,18,-1,-1,-1,20,-1,22,-1,-1,-1,-1],"split_conditions":[1.4904911E4,4.287946E9,9.992E-1,2.0276E-1,1.9654522E5,-1.3823213E-1,1.4803719E7,-3.924018E-2,6.760878E1,2.40576E0,-1.2784317E-1,1.4460808E-1,5.6448E4,-4.721211E-2,-1.3942656E-1,1.10193275E-1,1.6077E-2,-1.3259953E-1,2.3E1,5.4322448E-2,-6.756883E-2,1.4179339E-1,-7.228212E-2],"split_indices":[1,38,28,3,42,0,20,0,21,2,0,0,35,0,0,0,41,0,14,0,0,0,0],"split_type":[0,0,0,0,0,0,0,0,0,0,0,0,0,0,0,0,0,0,0,0,0,0,0],"sum_hessian":[9.7425446E2,4.1720184E2,5.570526E2,4.04627E2,1.25748415E1,6.09343E1,4.9611832E2,1.2969915E0,4.0333002E2,4.160777E0,8.414064E0,4.370399E2,5.9078434E1,1.3707179E0,4.019593E2,1.7062882E0,2.4544888E0,1.4349729E1,4.4728703E1,1.2132685E0,1.2412202E0,3.470983E1,1.0018872E1],"tree_param":{"num_deleted":"0","num_feature":"43","num_nodes":"23","size_leaf_vector":"1"}},{"base_weights":[-3.4771035E-3,-1.3176526E0,9.779897E-1,-1.3397366E0,-7.1231866E-1,-1.329496E-1,1.262478E0,-3.4229707E-2,-1.3421192E0,6.349663E-1,-1.0911727E0,1.3855204E-1,3.515864E-1,-5.130704E-2,-1.3446455E-1,-2.741808E-2,1.1071646E-1,-1.6817836E-3,-1.2713715E-1,-1.2724747E-1,8.850156E-1,1.343375E-1,-7.185448E-2],"categories":[],"categories_nodes":[],"categories_segments":[],"categories_sizes":[],"default_left":[0,0,0,0,0,0,0,0,0,0,0,0,0,0,0,0,0,0,0,0,0,0,0],"id":6,"left_children":[1,3,5,7,9,-1,11,-1,13,15,17,-1,19,-1,-1,-1,-1,-1,-1,-1,21,-1,-1],"loss_changes":[1.1857361E3,4.2998047E0,3.4715082E2,4.390869E-1,8.844056E0,0E0,5.208008E1,0E0,9.93042E-2,2.0796251E0,2.462924E0,0E0,5.0641308E1,0E0,0E0,0E0,0E0,0E0,0E0,0E0,3.302184E1,0E0,0E0],"parents":[2147483647,0,0,1,1,2,2,3,3,4,4,6,6,8,8,9,9,10,10,12,12,20,20],"right_children":[2,4,6,8,10,-1,12,-1,14,16,18,-1,20,-1,-1,-1,-1,-1,-1,-1,22,-1,-1],"split_conditions":[1.4904911E4,9.395037E6,9.992E-1,7.046583E0,1.7876052E5,-1.329496E-1,1.4803719E7,-3.4229707E-2,5.4200745E2,1.9483318E1,1.8041716E1,1.3855204E-1,5.6448E4,-5.130704E-2,-1.3446455E-1,-2.741808E-2,1.1071646E-1,-1.6817836E-3,-1.2713715E-1,-1.2724747E-1,1.815421E4,1.343375E-1,-7.185448E-2],"split_indices":[1,20,28,15,42,0,20,0,18,15,16,0,35,0,0,0,0,0,0,0,17,0,0],"split_type":[0,0,0,0,0,0,0,0,0,0,0,0,0,0,0,0,0,0,0,0,0,0,0],"sum_hessian":[9.1730475E2,3.920332E2,5.2527155E2,3.7706375E2,1.4969456E1,5.724928E1,4.680223E2,1.2432851E0,3.7582047E2,3.137133E0,1.1832323E1,4.1186667E2,5.6155624E1,1.7617319E0,3.7405872E2,1.2157469E0,1.921386E0,1.8565854E0,9.975738E0,1.3541663E1,4.2613964E1,3.3267178E1,9.3467865E0],"tree_param":{"num_deleted":"0","num_feature":"43","num_nodes":"23","size_leaf_vector":"1"}},{"base_weights":[-3.810847E-3,-1.2726647E0,9.4124126E-1,-1.2951667E0,-6.7188114E-1,-1.2848122E-1,1.2148974E0,-2.972479E-2,-1.2976958E0,4.1014618E-1,-1.1229066E0,1.3351113E-1,3.338561E-1,-3.8995907E-2,-1.299938E-1,8.212307E-1,-5.5838913E-2,-1.2017628E-1,-2.089415E-2,-1.2262974E-1,8.422884E-1,1.0832784E-1,1.0023583E-2,1.3057435E-1,-6.256538E-2],"categories":[],"categories_nodes":[],"categories_segments":[],"categories_sizes":[],"default_left":[0,0,0,0,0,0,0,0,0,0,0,0,0,0,0,0,0,0,0,0,0,0,0,0,0],"id":7,"left_children":[1,3,5,7,9,-1,11,-1,13,15,17,-1,19,-1,-1,21,-1,-1,-1,-1,23,-1,-1,-1,-1],"loss_changes":[1.0330942E3,4.1015015E0,3.0235406E2,5.0616455E-1,7.9541616E0,0E0,4.6180603E1,0E0,2.0996094E-1,2.5488281E0,5.492697E-1,0E0,4.40173E1,0E0,0E0,6.642287E-1,0E0,0E0,0E0,0E0,2.9025116E1,0E0,0E0,0E0,0E0],"parents":[2147483647,0,0,1,1,2,2,3,3,4,4,6,6,8,8,9,9,10,10,12,12,15,15,20,20],"right_children":[2,4,6,8,10,-1,12,-1,14,16,18,-1,20,-1,-1,22,-1,-1,-1,-1,24,-1,-1,-1,-1],"split_conditions":[1.4904911E4,9.395037E6,9.992E-1,2.06525E-1,1.9654522E5,-1.2848122E-1,1.4803719E7,-2.972479E-2,6.760878E1,4.6683178E1,9.364016E4,1.3351113E-1,5.6448E4,-3.8995907E-2,-1.299938E-1,3.497131E1,-5.5838913E-2,-1.2017628E-1,-2.089415E-2,-1.2262974E-1,2.3E1,1.0832784E-1,1.0023583E-2,1.3057435E-1,-6.256538E-2],"split_indices":[1,20,28,2,42,0,20,0,21,16,17,0,35,0,0,34,0,0,0,0,14,0,0,0,0],"split_type":[0,0,0,0,0,0,0,0,0,0,0,0,0,0,0,0,0,0,0,0,0,0,0,0,0],"sum_hessian":[8.595354E2,3.6676273E2,4.9277267E2,3.5240765E2,1.4355064E1,5.3541874E1,4.392308E2,1.190502E0,3.5121716E2,4.249937E0,1.0105127E1,3.860419E2,5.3188915E1,1.2964072E0,3.4992075E2,3.0903575E0,1.1595793E0,9.012634E0,1.0924933E0,1.2726131E1,4.0462784E1,1.8980343E0,1.1923233E0,3.0837378E1,9.625405E0],"tree_param":{"num_deleted":"0","num_feature":"43","num_nodes":"25","size_leaf_vector":"1"}},{"base_weights":[-4.146625E-3,-1.2342505E0,9.1002095E-1,-1.2572385E0,-6.3731295E-1,-1.24658585E-1,1.1745417E0,-2.662439E-2,-1.2599171E0,5.792226E-1,-1.0043931E0,1.2926657E-1,3.183413E-1,-3.7115704E-2,-1.262257E-1,-2.5435714E-2,1.02248095E-1,6.788046E-3,-1.1828338E-1,-1.1859228E-1,8.049117E-1,1.2617548E-1,-5.8033366E-2],"categories":[],"categories_nodes":[],"categories_segments":[],"categories_sizes":[],"default_left":[0,0,0,0,0,0,0,0,0,0,0,0,0,0,0,0,0,0,0,0,0,0,0],"id":8,"left_children":[1,3,5,7,9,-1,11,-1,13,15,17,-1,19,-1,-1,-1,-1,-1,-1,-1,21,-1,-1],"loss_changes":[9.042397E2,3.902954E0,2.6461884E2,5.38147E-1,7.164251E0,0E0,4.1197876E1,0E0,2.1331787E-1,1.756886E0,2.3168726E0,0E0,3.8433136E1,0E0,0E0,0E0,0E0,0E0,0E0,0E0,2.5593987E1,0E0,0E0],"parents":[2147483647,0,0,1,1,2,2,3,3,4,4,6,6,8,8,9,9,10,10,12,12,20,20],"right_children":[2,4,6,8,10,-1,12,-1,14,16,18,-1,20,-1,-1,-1,-1,-1,-1,-1,22,-1,-1],"split_conditions":[1.4904911E4,9.395037E6,9.992E-1,2.0276E-1,1.7876052E5,-1.24658585E-1,1.4803719E7,-2.662439E-2,6.760878E1,1.9483318E1,1.346E3,1.2926657E-1,5.6448E4,-3.7115704E-2,-1.262257E-1,-2.5435714E-2,1.02248095E-1,6.788046E-3,-1.1828338E-1,-1.1859228E-1,2.3E1,1.2617548E-1,-5.8033366E-2],"split_indices":[1,20,28,3,42,0,20,0,21,15,18,0,35,0,0,0,0,0,0,0,14,0,0],"split_type":[0,0,0,0,0,0,0,0,0,0,0,0,0,0,0,0,0,0,0,0,0,0,0],"sum_hessian":[8.02112E2,3.4181525E2,4.6029675E2,3.28075E2,1.3740222E1,4.9884174E1,4.1041257E2,1.1550269E0,3.2691998E2,3.0510056E0,1.0689217E1,3.6020746E2,5.0205116E1,1.2775177E0,3.256425E2,1.2071106E0,1.843895E0,1.6134387E0,9.075778E0,1.1919107E1,3.828601E1,2.885801E1,9.4279995E0],"tree_param":{"num_deleted":"0","num_feature":"43","num_nodes":"23","size_leaf_vector":"1"}},{"base_weights":[-4.422669E-3,-1.2009463E0,8.8314515E-1,-1.2246311E0,-6.035002E-1,-1.2135517E-1,1.1398604E0,-2.3230586E-2,-1.2274928E0,3.6923522E-1,-1.0418727E0,1.2565778E-1,3.0430716E-1,-3.781217E-2,-1.2305021E-1,7.5572026E-1,-5.3507246E-2,-1.47271175E-2,-1.12654544E-1,-1.15018144E-1,7.711912E-1,8.959931E-3,1.003566E-1,1.2095808E-1,-5.8323372E-2],"categories":[],"categories_nodes":[],"categories_segments":[],"categories_sizes":[],"default_left":[0,0,0,0,0,0,0,0,0,0,0,0,0,0,0,0,0,0,0,0,0,0,0,0,0],"id":9,"left_children":[1,3,5,7,9,-1,11,-1,13,15,17,-1,19,-1,-1,21,-1,-1,-1,-1,23,-1,-1,-1,-1],"loss_changes":[7.9435004E2,3.7684326E0,2.325278E2,5.8218384E-1,6.4050107E0,0E0,3.697946E1,0E0,3.1256104E-1,2.1953123E0,5.911188E-1,0E0,3.3670086E1,0E0,0E0,5.7120895E-1,0E0,0E0,0E0,0E0,2.2760138E1,0E0,0E0,0E0,0E0],"parents":[2147483647,0,0,1,1,2,2,3,3,4,4,6,6,8,8,9,9,10,10,12,12,15,15,20,20],"right_children":[2,4,6,8,10,-1,12,-1,14,16,18,-1,20,-1,-1,22,-1,-1,-1,-1,24,-1,-1,-1,-1],"split_conditions":[1.4904911E4,9.395037E6,9.992E-1,7.046583E0,1.9654522E5,-1.2135517E-1,1.4803719E7,-2.3230586E-2,5.4200745E2,5.743666E4,7.372014E1,1.2565778E-1,5.6448E4,-3.781217E-2,-1.2305021E-1,2.929128E0,-5.3507246E-2,-1.47271175E-2,-1.12654544E-1,-1.15018144E-1,1.815421E4,8.959931E-3,1.003566E-1,1.2095808E-1,-5.8323372E-2],"split_indices":[1,20,28,15,42,0,20,0,18,17,21,0,35,0,0,6,0,0,0,0,17,0,0,0,0],"split_type":[0,0,0,0,0,0,0,0,0,0,0,0,0,0,0,0,0,0,0,0,0,0,0,0,0],"sum_hessian":[7.459797E2,3.1754562E2,4.2843402E2,3.0442737E2,1.3118256E1,4.6327927E1,3.821061E2,1.1117163E0,3.0331567E2,4.124292E0,8.993964E0,3.348302E2,4.72759E1,1.5179989E0,3.0179767E2,3.0045228E0,1.1197691E0,1.0145134E0,7.97945E0,1.113218E1,3.614372E1,1.1839635E0,1.8205591E0,2.7386436E1,8.757283E0],"tree_param":{"num_deleted":"0","num_feature":"43","num_nodes":"25","size_leaf_vector":"1"}},{"base_weights":[-4.7640703E-3,-1.1718458E0,8.596954E-1,-1.1962947E0,-5.7419E-1,-1.1847378E-1,1.1096528E0,-1.9438727E-2,-1.1993827E0,5.2357394E-1,-9.2930496E-1,1.2256392E-1,2.910954E-1,-3.0201677E-2,-1.2021518E-1,-2.4256336E-2,9.456184E-2,9.878526E-3,-1.1283369E-1,-1.1181684E-1,7.396547E-1,1.1756142E-1,-5.4569542E-2],"categories":[],"categories_nodes":[],"categories_segments":[],"categories_sizes":[],"default_left":[0,0,0,0,0,0,0,0,0,0,0,0,0,0,0,0,0,0,0,0,0,0,0],"id":10,"left_children":[1,3,5,7,9,-1,11,-1,13,15,17,-1,19,-1,-1,-1,-1,-1,-1,-1,21,-1,-1],"loss_changes":[7.000248E2,3.6272278E0,2.05012E2,6.4160156E-1,5.7595263E0,0E0,3.341388E1,0E0,3.3676147E-1,1.5052019E0,2.2764778E0,0E0,2.9562447E1,0E0,0E0,0E0,0E0,0E0,0E0,0E0,2.0301167E1,0E0,0E0],"parents":[2147483647,0,0,1,1,2,2,3,3,4,4,6,6,8,8,9,9,10,10,12,12,20,20],"right_children":[2,4,6,8,10,-1,12,-1,14,16,18,-1,20,-1,-1,-1,-1,-1,-1,-1,22,-1,-1],"split_conditions":[1.4904911E4,9.395037E6,9.992E-1,2.06525E-1,1.7876052E5,-1.1847378E-1,1.4803719E7,-1.9438727E-2,6.760878E1,1.9483318E1,1.8041716E1,1.2256392E-1,5.6448E4,-3.0201677E-2,-1.2021518E-1,-2.4256336E-2,9.456184E-2,9.878526E-3,-1.1283369E-1,-1.1181684E-1,6.12976E-1,1.1756142E-1,-5.4569542E-2],"split_indices":[1,20,28,2,42,0,20,0,21,15,16,0,35,0,0,0,0,0,0,0,5,0,0],"split_type":[0,0,0,0,0,0,0,0,0,0,0,0,0,0,0,0,0,0,0,0,0,0,0],"sum_hessian":[6.918545E2,2.9424597E2,3.9760855E2,2.8171973E2,1.2526241E1,4.290917E1,3.5469937E2,1.0621146E0,2.806576E2,2.9457352E0,9.580506E0,3.1024194E2,4.445743E1,1.2019823E0,2.7945563E2,1.1973861E0,1.7483491E0,1.6355939E0,7.9449124E0,1.0373531E1,3.40839E1,2.5515154E1,8.568747E0],"tree_param":{"num_deleted":"0","num_feature":"43","num_nodes":"23","size_leaf_vector":"1"}},{"base_weights":[-5.046473E-3,-1.1461158E0,8.3908015E-1,-1.1715739E0,-5.443606E-1,-1.1593844E-1,1.0831487E0,-1.6039573E-2,-1.1749257E0,3.4051582E-1,-9.746864E-1,1.1989243E-1,2.788052E-1,-3.0998135E-2,-1.178381E-1,7.214627E-1,-5.264898E-2,-1.5183615E-2,-1.0658746E-1,-1.0891714E-1,7.1041626E-1,7.1608596E-3,9.624576E-2,1.16213076E-1,-4.723523E-2],"categories":[],"categories_nodes":[],"categories_segments":[],"categories_sizes":[],"default_left":[0,0,0,0,0,0,0,0,0,0,0,0,0,0,0,0,0,0,0,0,0,0,0,0,0],"id":11,"left_children":[1,3,5,7,9,-1,11,-1,13,15,17,-1,19,-1,-1,21,-1,-1,-1,-1,23,-1,-1,-1,-1],"loss_changes":[6.184767E2,3.5448608E0,1.8127744E2,6.9644165E-1,5.2629967E0,0E0,3.0342896E1,0E0,4.1192627E-1,2.0240557E0,5.113411E-1,0E0,2.601684E1,0E0,0E0,5.388019E-1,0E0,0E0,0E0,0E0,1.8235922E1,0E0,0E0,0E0,0E0],"parents":[2147483647,0,0,1,1,2,2,3,3,4,4,6,6,8,8,9,9,10,10,12,12,15,15,20,20],"right_children":[2,4,6,8,10,-1,12,-1,14,16,18,-1,20,-1,-1,22,-1,-1,-1,-1,24,-1,-1,-1,-1],"split_conditions":[1.4904911E4,9.395037E6,9.992E-1,2.0276E-1,1.9654522E5,-1.1593844E-1,1.4803719E7,-1.6039573E-2,5.4200745E2,4.6683178E1,1.5097182E7,1.1989243E-1,5.6448E4,-3.0998135E-2,-1.178381E-1,5.3656806E5,-5.264898E-2,-1.5183615E-2,-1.0658746E-1,-1.0891714E-1,2.3E1,7.1608596E-3,9.624576E-2,1.16213076E-1,-4.723523E-2],"split_indices":[1,20,28,3,42,0,20,0,18,16,20,0,35,0,0,0,0,0,0,0,14,0,0,0,0],"split_type":[0,0,0,0,0,0,0,0,0,0,0,0,0,0,0,0,0,0,0,0,0,0,0,0,0],"sum_hessian":[6.401031E2,2.7202658E2,3.680765E2,2.6007675E2,1.1949824E1,3.9651863E1,3.2842465E2,1.0206485E0,2.590561E2,3.9781923E0,7.971632E0,2.866712E2,4.1753437E1,1.3916996E0,2.576644E2,2.8804443E0,1.0977479E0,1.0611625E0,6.9104695E0,9.648702E0,3.2104733E1,1.1301304E0,1.7503139E0,2.3244724E1,8.860009E0],"tree_param":{"num_deleted":"0","num_feature":"43","num_nodes":"25","size_leaf_vector":"1"}},{"base_weights":[-5.383581E-3,-1.1232531E0,8.2085526E-1,-1.1497468E0,-5.1889163E-1,-1.1368876E-1,1.0597724E0,-1.2782534E-2,-1.1534885E0,3.214923E-1,-9.4363934E-1,1.1757096E-1,2.676078E-1,-2.3997966E-2,-1.1568039E-1,6.871448E-1,-5.008803E-2,-1.3544395E-2,-1.0377922E-1,-1.0626226E-1,6.8373525E-1,9.248497E-2,6.136548E-3,1.1198061E-1,-4.7765076E-2],"categories":[],"categories_nodes":[],"categories_segments":[],"categories_sizes":[],"default_left":[0,0,0,0,0,0,0,0,0,0,0,0,0,0,0,0,0,0,0,0,0,0,0,0,0],"id":12,"left_children":[1,3,5,7,9,-1,11,-1,13,15,17,-1,19,-1,-1,21,-1,-1,-1,-1,23,-1,-1,-1,-1],"loss_changes":[5.4773914E2,3.4389343E0,1.6070287E2,7.7264404E-1,4.7320714E0,0E0,2.7644379E1,0E0,4.480896E-1,1.8210297E0,5.0590754E-1,0E0,2.295745E1,0E0,0E0,5.1167154E-1,0E0,0E0,0E0,0E0,1.633588E1,0E0,0E0,0E0,0E0],"parents":[2147483647,0,0,1,1,2,2,3,3,4,4,6,6,8,8,9,9,10,10,12,12,15,15,20,20],"right_children":[2,4,6,8,10,-1,12,-1,14,16,18,-1,20,-1,-1,22,-1,-1,-1,-1,24,-1,-1,-1,-1],"split_conditions":[1.4904911E4,9.395037E6,9.992E-1,2.05103E-1,1.9654522E5,-1.1368876E-1,1.4803719E7,-1.2782534E-2,6.760878E1,4.6683178E1,4.4683825E5,1.1757096E-1,5.6448E4,-2.3997966E-2,-1.1568039E-1,3.497131E1,-5.008803E-2,-1.3544395E-2,-1.0377922E-1,-1.0626226E-1,3.92074E-1,9.248497E-2,6.136548E-3,1.1198061E-1,-4.7765076E-2],"split_indices":[1,20,28,7,42,0,20,0,21,16,0,0,35,0,0,34,0,0,0,0,4,0,0,0,0],"split_type":[0,0,0,0,0,0,0,0,0,0,0,0,0,0,0,0,0,0,0,0,0,0,0,0,0],"sum_hessian":[5.9103217E2,2.510337E2,3.3999847E2,2.396267E2,1.1407015E1,3.6570744E1,3.0342773E2,1.0024506E0,2.3862424E2,3.9113393E0,7.4956756E0,2.642668E2,3.916093E1,1.1282666E0,2.3749597E2,2.821326E0,1.0900133E0,1.036558E0,6.4591174E0,8.961189E0,3.0199741E1,1.698302E0,1.1230239E0,2.19819E1,8.217841E0],"tree_param":{"num_deleted":"0","num_feature":"43","num_nodes":"25","size_leaf_vector":"1"}},{"base_weights":[-5.7362616E-3,-1.1027629E0,8.04462E-1,-1.1304176E0,-4.949423E-1,-1.1167593E-1,1.0387933E0,-1.1544133E-2,-1.1345646E0,4.6810806E-1,-8.397788E-1,1.1554225E-1,2.5663087E-1,-2.4789862E-2,-1.1386045E-1,-2.2954013E-2,8.673882E-2,1.4516219E-2,-1.0544016E-1,-1.0380626E-1,6.5780175E-1,1.0548631E-1,-5.6224238E-2],"categories":[],"categories_nodes":[],"categories_segments":[],"categories_sizes":[],"default_left":[0,0,0,0,0,0,0,0,0,0,0,0,0,0,0,0,0,0,0,0,0,0,0],"id":13,"left_children":[1,3,5,7,9,-1,11,-1,13,15,17,-1,19,-1,-1,-1,-1,-1,-1,-1,21,-1,-1],"loss_changes":[4.8599902E2,3.3448792E0,1.427575E2,8.0093384E-1,4.340788E0,0E0,2.532309E1,0E0,5.071411E-1,1.2510045E0,2.0790296E0,0E0,2.0278893E1,0E0,0E0,0E0,0E0,0E0,0E0,0E0,1.4843054E1,0E0,0E0],"parents":[2147483647,0,0,1,1,2,2,3,3,4,4,6,6,8,8,9,9,10,10,12,12,20,20],"right_children":[2,4,6,8,10,-1,12,-1,14,16,18,-1,20,-1,-1,-1,-1,-1,-1,-1,22,-1,-1],"split_conditions":[1.4904911E4,9.395037E6,9.992E-1,2.05209E-1,1.7876052E5,-1.1167593E-1,1.4803719E7,-1.1544133E-2,5.4200745E2,1.9483318E1,1.8041716E1,1.1554225E-1,5.6448E4,-2.4789862E-2,-1.1386045E-1,-2.2954013E-2,8.673882E-2,1.4516219E-2,-1.0544016E-1,-1.0380626E-1,1.355976E0,1.0548631E-1,-5.6224238E-2],"split_indices":[1,20,28,4,42,0,20,0,18,15,16,0,35,0,0,0,0,0,0,0,7,0,0],"split_type":[0,0,0,0,0,0,0,0,0,0,0,0,0,0,0,0,0,0,0,0,0,0,0],"sum_hessian":[5.447998E2,2.3128015E2,3.1351965E2,2.2039294E2,1.0887207E1,3.367351E1,2.7984613E2,1.0141797E0,2.1937877E2,2.7762604E0,8.110947E0,2.431174E2,3.6728733E1,1.2778633E0,2.181009E2,1.1652955E0,1.6109649E0,1.5090946E0,6.601852E0,8.312932E0,2.8415798E1,2.1540777E1,6.8750215E0],"tree_param":{"num_deleted":"0","num_feature":"43","num_nodes":"23","size_leaf_vector":"1"}},{"base_weights":[-6.083056E-3,-1.0840337E0,7.892821E-1,-1.1130803E0,-4.695705E-1,-1.09860025E-1,1.019388E0,-1.1007274E-2,-1.1175237E0,2.9830965E-1,-8.8740766E-1,1.1376019E-1,2.4472363E-1,-1.8379763E-2,-1.121518E-1,6.4969206E-1,-4.7597364E-2,-1.2761474E-2,-9.896891E-2,-1.0151171E-1,6.299262E-1,5.3358944E-3,8.779002E-2,-8.876196E-2,9.36499E-2],"categories":[],"categories_nodes":[],"categories_segments":[],"categories_sizes":[],"default_left":[0,0,0,0,0,0,0,0,0,0,0,0,0,0,0,0,0,0,0,0,0,0,0,0,0],"id":14,"left_children":[1,3,5,7,9,-1,11,-1,13,15,17,-1,19,-1,-1,21,-1,-1,-1,-1,23,-1,-1,-1,-1],"loss_changes":[4.317372E2,3.293213E0,1.2699832E2,7.835846E-1,3.9160013E0,0E0,2.3421844E1,0E0,5.4878235E-1,1.6039214E0,4.6598148E-1,0E0,1.7886225E1,0E0,0E0,4.5614493E-1,0E0,0E0,0E0,0E0,1.3780767E1,0E0,0E0,0E0,0E0],"parents":[2147483647,0,0,1,1,2,2,3,3,4,4,6,6,8,8,9,9,10,10,12,12,15,15,20,20],"right_children":[2,4,6,8,10,-1,12,-1,14,16,18,-1,20,-1,-1,22,-1,-1,-1,-1,24,-1,-1,-1,-1],"split_conditions":[1.4904911E4,9.395037E6,9.992E-1,2.05209E-1,1.9654522E5,-1.09860025E-1,1.4803719E7,-1.1007274E-2,6.760878E1,4.6683178E1,7.8602905E1,1.1376019E-1,5.6448E4,-1.8379763E-2,-1.121518E-1,5.3656806E5,-4.7597364E-2,-1.2761474E-2,-9.896891E-2,-1.0151171E-1,2.150372E1,5.3358944E-3,8.779002E-2,-8.876196E-2,9.36499E-2],"split_indices":[1,20,28,4,42,0,20,0,21,16,21,0,35,0,0,0,0,0,0,0,34,0,0,0,0],"split_type":[0,0,0,0,0,0,0,0,0,0,0,0,0,0,0,0,0,0,0,0,0,0,0,0,0],"sum_hessian":[5.015653E2,2.1279855E2,2.8876675E2,2.0241849E2,1.038006E1,3.09626E1,2.5780414E2,1.006459E0,2.0141203E2,3.758655E0,6.6214046E0,2.2326532E2,3.4538834E1,1.0582131E0,2.0035382E2,2.6960535E0,1.0626014E0,1.052279E0,5.5691257E0,7.70468E0,2.6834152E1,1.0876695E0,1.6083841E0,4.1913795E0,2.2642773E1],"tree_param":{"num_deleted":"0","num_feature":"43","num_nodes":"25","size_leaf_vector":"1"}},{"base_weights":[-6.655737E-3,-1.0670637E0,7.743464E-1,-1.0975386E0,-4.4819286E-1,-1.0820794E-1,1.000249E0,-1.5439314E-2,-1.1023765E0,4.32465E-1,-7.837064E-1,1.1218732E-1,2.2942662E-1,-1.9105343E-2,-1.10715404E-1,-2.219498E-2,8.191182E-2,1.961283E-2,-1.0018168E-1,-9.934782E-2,5.945747E-1,1.07601576E-1,-3.9947536E-2],"categories":[],"categories_nodes":[],"categories_segments":[],"categories_sizes":[],"default_left":[0,0,0,0,0,0,0,0,0,0,0,0,0,0,0,0,0,0,0,0,0,0,0],"id":15,"left_children":[1,3,5,7,9,-1,11,-1,13,15,17,-1,19,-1,-1,-1,-1,-1,-1,-1,21,-1,-1],"loss_changes":[3.838519E2,3.2155457E0,1.1301784E2,6.815033E-1,3.5642896E0,0E0,2.2099854E1,0E0,5.963135E-1,1.1068516E0,1.9617639E0,0E0,1.5664581E1,0E0,0E0,0E0,0E0,0E0,0E0,0E0,1.3169874E1,0E0,0E0],"parents":[2147483647,0,0,1,1,2,2,3,3,4,4,6,6,8,8,9,9,10,10,12,12,20,20],"right_children":[2,4,6,8,10,-1,12,-1,14,16,18,-1,20,-1,-1,-1,-1,-1,-1,-1,22,-1,-1],"split_conditions":[1.4904911E4,9.395037E6,9.992E-1,2.08228E-1,1.7876052E5,-1.0820794E-1,1.4803719E7,-1.5439314E-2,5.4200745E2,1.9483318E1,1.346E3,1.1218732E-1,5.6448E4,-1.9105343E-2,-1.10715404E-1,-2.219498E-2,8.191182E-2,1.961283E-2,-1.0018168E-1,-9.934782E-2,2.3E1,1.07601576E-1,-3.9947536E-2],"split_indices":[1,20,28,5,42,0,20,0,18,15,18,0,35,0,0,0,0,0,0,0,14,0,0],"split_type":[0,0,0,0,0,0,0,0,0,0,0,0,0,0,0,0,0,0,0,0,0,0,0],"sum_hessian":[4.6149023E2,1.9557771E2,2.659125E2,1.8566177E2,9.915947E0,2.8436512E1,2.37476E2,1.1154579E0,1.8454631E2,2.655862E0,7.260085E0,2.0471902E2,3.2756977E1,1.1761954E0,1.8337012E2,1.1445947E0,1.5112674E0,1.340196E0,5.919889E0,7.1362963E0,2.562068E1,1.7205303E1,8.415377E0],"tree_param":{"num_deleted":"0","num_feature":"43","num_nodes":"23","size_leaf_vector":"1"}},{"base_weights":[-6.959247E-3,-1.0513146E0,7.619552E-1,-1.0833906E0,-4.2526147E-1,-1.0669189E-1,9.845357E-1,-1.4712894E-2,-1.0886018E0,4.1300005E-1,-7.5502056E-1,1.1079279E-1,2.2019929E-1,-1.8204702E-2,-1.0937579E-1,8.077727E-2,-1.902557E-2,1.9852359E-2,-9.923255E-2,-9.72892E-2,5.7293224E-1,1.0158769E-1,-4.6006437E-2],"categories":[],"categories_nodes":[],"categories_segments":[],"categories_sizes":[],"default_left":[0,0,0,0,0,0,0,0,0,0,0,0,0,0,0,0,0,0,0,0,0,0,0],"id":16,"left_children":[1,3,5,7,9,-1,11,-1,13,15,17,-1,19,-1,-1,-1,-1,-1,-1,-1,21,-1,-1],"loss_changes":[3.4195328E2,3.16539E0,1.00890854E2,6.747284E-1,3.1996002E0,0E0,2.0427032E1,0E0,5.956116E-1,1.0100212E0,1.9735494E0,0E0,1.3903478E1,0E0,0E0,0E0,0E0,0E0,0E0,0E0,1.1954769E1,0E0,0E0],"parents":[2147483647,0,0,1,1,2,2,3,3,4,4,6,6,8,8,9,9,10,10,12,12,20,20],"right_children":[2,4,6,8,10,-1,12,-1,14,16,18,-1,20,-1,-1,-1,-1,-1,-1,-1,22,-1,-1],"split_conditions":[1.4904911E4,9.395037E6,9.992E-1,2.08228E-1,1.7876052E5,-1.0669189E-1,1.4803719E7,-1.4712894E-2,5.4200745E2,2.40576E0,1.8041716E1,1.1079279E-1,5.6448E4,-1.8204702E-2,-1.0937579E-1,8.077727E-2,-1.902557E-2,1.9852359E-2,-9.923255E-2,-9.72892E-2,9.35161E-1,1.0158769E-1,-4.6006437E-2],"split_indices":[1,20,28,5,42,0,20,0,18,2,16,0,35,0,0,0,0,0,0,0,4,0,0],"split_type":[0,0,0,0,0,0,0,0,0,0,0,0,0,0,0,0,0,0,0,0,0,0,0],"sum_hessian":[4.2383655E2,1.7957153E2,2.44265E2,1.7012463E2,9.4468975E0,2.6090893E1,2.1817412E2,1.1034805E0,1.6902116E2,2.5958102E0,6.8510876E0,1.8746136E2,3.071275E1,1.1612071E0,1.6785995E2,1.3641099E0,1.2317003E0,1.3978074E0,5.4532804E0,6.606987E0,2.4105762E1,1.6882982E1,7.22278E0],"tree_param":{"num_deleted":"0","num_feature":"43","num_nodes":"23","size_leaf_vector":"1"}},{"base_weights":[-7.326137E-3,-1.0365033E0,7.501339E-1,-1.0704764E0,-4.0216243E-1,-1.05288304E-1,9.6957386E-1,-1.4020669E-2,-1.0761029E0,2.674808E-1,-8.0895203E-1,1.0955099E-1,2.1009299E-1,-1.3028865E-2,-1.0814849E-1,6.0454124E-1,-4.5373317E-2,-9.255247E-2,-1.0026015E-2,-9.531479E-2,5.4964316E-1,8.182042E-2,4.5169624E-3,1.04119435E-1,-3.510199E-2],"categories":[],"categories_nodes":[],"categories_segments":[],"categories_sizes":[],"default_left":[0,0,0,0,0,0,0,0,0,0,0,0,0,0,0,0,0,0,0,0,0,0,0,0,0],"id":17,"left_children":[1,3,5,7,9,-1,11,-1,13,15,17,-1,19,-1,-1,21,-1,-1,-1,-1,23,-1,-1,-1,-1],"loss_changes":[3.0482425E2,3.141983E0,9.014181E1,6.6955566E-1,2.9482324E0,0E0,1.902626E1,0E0,6.514435E-1,1.3782829E0,4.4314718E-1,0E0,1.2323171E1,0E0,0E0,3.8418567E-1,0E0,0E0,0E0,0E0,1.0883543E1,0E0,0E0,0E0,0E0],"parents":[2147483647,0,0,1,1,2,2,3,3,4,4,6,6,8,8,9,9,10,10,12,12,15,15,20,20],"right_children":[2,4,6,8,10,-1,12,-1,14,16,18,-1,20,-1,-1,22,-1,-1,-1,-1,24,-1,-1,-1,-1],"split_conditions":[1.4904911E4,9.395037E6,9.992E-1,2.08228E-1,1.9654522E5,-1.05288304E-1,1.4803719E7,-1.4020669E-2,6.765304E1,4.6683178E1,8.621058E4,1.0955099E-1,5.6448E4,-1.3028865E-2,-1.0814849E-1,3.824969E0,-4.5373317E-2,-9.255247E-2,-1.0026015E-2,-9.531479E-2,2.3E1,8.182042E-2,4.5169624E-3,1.04119435E-1,-3.510199E-2],"split_indices":[1,20,28,5,42,0,20,0,21,16,19,0,35,0,0,3,0,0,0,0,14,0,0,0,0],"split_type":[0,0,0,0,0,0,0,0,0,0,0,0,0,0,0,0,0,0,0,0,0,0,0,0,0],"sum_hessian":[3.8902325E2,1.6477353E2,2.2424973E2,1.5574484E2,9.028687E0,2.3919382E1,2.0033034E2,1.092133E0,1.5465271E2,3.5414047E0,5.4872813E0,1.7145714E2,2.887321E1,1.0176938E0,1.5363501E2,2.5237153E0,1.0176895E0,4.449433E0,1.0378487E0,6.1154914E0,2.2757719E1,1.4913461E0,1.0323691E0,1.4621676E1,8.136043E0],"tree_param":{"num_deleted":"0","num_feature":"43","num_nodes":"25","size_leaf_vector":"1"}},{"base_weights":[-7.7634705E-3,-1.0228016E0,7.393144E-1,-1.0586247E0,-3.8396633E-1,-1.0397699E-1,9.5595413E-1,-1.3108692E-2,-1.0647651E0,2.540055E-1,-7.8421956E-1,1.0844036E-1,2.0138665E-1,-1.3082105E-2,-1.0709318E-1,5.789374E-1,-4.327766E-2,-8.900417E-3,-9.0204604E-2,-9.3407184E-2,5.2934897E-1,7.912516E-2,3.7507904E-3,-8.095419E-2,8.449905E-2],"categories":[],"categories_nodes":[],"categories_segments":[],"categories_sizes":[],"default_left":[0,0,0,0,0,0,0,0,0,0,0,0,0,0,0,0,0,0,0,0,0,0,0,0,0],"id":18,"left_children":[1,3,5,7,9,-1,11,-1,13,15,17,-1,19,-1,-1,21,-1,-1,-1,-1,23,-1,-1,-1,-1],"loss_changes":[2.7206976E2,3.0745544E0,8.06516E1,6.775055E-1,2.66226E0,0E0,1.768956E1,0E0,6.799164E-1,1.248951E0,4.2527938E-1,0E0,1.0960373E1,0E0,0E0,3.686155E-1,0E0,0E0,0E0,0E0,1.0169401E1,0E0,0E0,0E0,0E0],"parents":[2147483647,0,0,1,1,2,2,3,3,4,4,6,6,8,8,9,9,10,10,12,12,15,15,20,20],"right_children":[2,4,6,8,10,-1,12,-1,14,16,18,-1,20,-1,-1,22,-1,-1,-1,-1,24,-1,-1,-1,-1],"split_conditions":[1.4904911E4,9.395037E6,9.992E-1,2.08528E-1,1.9654522E5,-1.0397699E-1,1.4803719E7,-1.3108692E-2,5.4200745E2,4.6683178E1,4.489618E5,1.0844036E-1,5.6448E4,-1.3082105E-2,-1.0709318E-1,3.497131E1,-4.327766E-2,-8.900417E-3,-9.0204604E-2,-9.3407184E-2,2.150372E1,7.912516E-2,3.7507904E-3,-8.095419E-2,8.449905E-2],"split_indices":[1,20,28,7,42,0,20,0,18,16,0,0,35,0,0,34,0,0,0,0,34,0,0,0,0],"split_type":[0,0,0,0,0,0,0,0,0,0,0,0,0,0,0,0,0,0,0,0,0,0,0,0,0],"sum_hessian":[3.56786E2,1.5110878E2,2.0567723E2,1.4246295E2,8.6458235E0,2.1914223E1,1.83763E2,1.0838915E0,1.4137906E2,3.4739738E0,5.1718497E0,1.5665808E2,2.7104918E1,1.0730869E0,1.4030597E2,2.4648345E0,1.0091393E0,1.0038983E0,4.1679516E0,5.660219E0,2.1444698E1,1.4390992E0,1.0257353E0,3.7925744E0,1.7652124E1],"tree_param":{"num_deleted":"0","num_feature":"43","num_nodes":"25","size_leaf_vector":"1"}},{"base_weights":[-8.506664E-3,-1.009774E0,7.2726774E-1,-1.0475749E0,-3.666496E-1,-1.0274049E-1,9.4067097E-1,-1.0121896E-2,-1.0542413E0,3.7684685E-1,-6.8690866E-1,1.0744274E-1,1.8690886E-1,-1.2466686E-2,-1.0609295E-1,-2.21839E-2,7.490697E-2,2.2802657E-2,-9.419933E-2,-9.155201E-2,4.9723405E-1,9.3568824E-2,-4.7489624E-2],"categories":[],"categories_nodes":[],"categories_segments":[],"categories_sizes":[],"default_left":[0,0,0,0,0,0,0,0,0,0,0,0,0,0,0,0,0,0,0,0,0,0,0],"id":19,"left_children":[1,3,5,7,9,-1,11,-1,13,15,17,-1,19,-1,-1,-1,-1,-1,-1,-1,21,-1,-1],"loss_changes":[2.4266771E2,3.0077667E0,7.206642E1,7.212372E-1,2.469449E0,0E0,1.6919525E1,0E0,6.773071E-1,9.329309E-1,1.8118753E0,0E0,9.624638E0,0E0,0E0,0E0,0E0,0E0,0E0,0E0,9.635263E0,0E0,0E0],"parents":[2147483647,0,0,1,1,2,2,3,3,4,4,6,6,8,8,9,9,10,10,12,12,20,20],"right_children":[2,4,6,8,10,-1,12,-1,14,16,18,-1,20,-1,-1,-1,-1,-1,-1,-1,22,-1,-1],"split_conditions":[1.4904911E4,9.395037E6,9.992E-1,2.08228E-1,1.7876052E5,-1.0274049E-1,1.4803719E7,-1.0121896E-2,5.4200745E2,1.9483318E1,1.8041716E1,1.0744274E-1,5.6448E4,-1.2466686E-2,-1.0609295E-1,-2.21839E-2,7.490697E-2,2.2802657E-2,-9.419933E-2,-9.155201E-2,1.355976E0,9.3568824E-2,-4.7489624E-2],"split_indices":[1,20,28,5,42,0,20,0,18,15,16,0,35,0,0,0,0,0,0,0,7,0,0],"split_type":[0,0,0,0,0,0,0,0,0,0,0,0,0,0,0,0,0,0,0,0,0,0,0],"sum_hessian":[3.2739832E2,1.3852132E2,1.8887701E2,1.3023747E2,8.283843E0,2.0066788E1,1.6881023E2,1.0242187E0,1.2921326E2,2.4407752E0,5.843068E0,1.4300783E2,2.5802402E1,1.0633309E0,1.2814992E2,1.0906239E0,1.3501513E0,1.2970165E0,4.5460515E0,5.2393694E0,2.0563032E1,1.4197228E1,6.3658047E0],"tree_param":{"num_deleted":"0","num_feature":"43","num_nodes":"23","size_leaf_vector":"1"}},{"base_weights":[-8.976358E-3,-9.971982E-1,7.168272E-1,-1.037231E0,-3.4695625E-1,-1.0156355E-1,9.27577E-1,-8.282387E-3,-1.0446632E0,5.2981373E-2,-6.0631627E-1,1.0654254E-1,1.7674959E-1,-3.955304E-1,-1.05977945E-1,1.1844697E-2,-8.471636E-2,-8.973751E-2,4.744528E-1,-4.872491E-3,-4.8579063E-2,9.9888116E-2,-3.2090757E-2],"categories":[],"categories_nodes":[],"categories_segments":[],"categories_sizes":[],"default_left":[0,0,0,0,0,0,0,0,0,0,0,0,0,0,0,0,0,0,0,0,0,0,0],"id":20,"left_children":[1,3,5,7,9,-1,11,-1,13,-1,15,-1,17,19,-1,-1,-1,-1,21,-1,-1,-1,-1],"loss_changes":[2.1667938E2,2.9699554E0,6.453815E1,7.646637E-1,2.349931E0,0E0,1.5938324E1,0E0,7.4835205E-1,0E0,1.3835225E0,0E0,8.537688E0,1.1103052E-1,0E0,0E0,0E0,0E0,8.87837E0,0E0,0E0,0E0,0E0],"parents":[2147483647,0,0,1,1,2,2,3,3,4,4,6,6,8,8,10,10,12,12,13,13,18,18],"right_children":[2,4,6,8,10,-1,12,-1,14,-1,16,-1,18,20,-1,-1,-1,-1,22,-1,-1,-1,-1],"split_conditions":[1.4904911E4,9.395037E6,9.992E-1,2.06679E-1,1.5097182E7,-1.0156355E-1,1.4803719E7,-8.282387E-3,5.5351526E2,5.2981373E-2,1.7876052E5,1.0654254E-1,5.6448E4,1.2216582E4,-1.05977945E-1,1.1844697E-2,-8.471636E-2,-8.973751E-2,2.3E1,-4.872491E-3,-4.8579063E-2,9.9888116E-2,-3.2090757E-2],"split_indices":[1,20,28,6,20,0,20,0,18,0,42,0,35,24,0,0,0,0,14,0,0,0,0],"split_type":[0,0,0,0,0,0,0,0,0,0,0,0,0,0,0,0,0,0,0,0,0,0,0],"sum_hessian":[3.0009875E2,1.2691839E2,1.7318036E2,1.18997086E2,7.921305E0,1.8367952E1,1.5481241E2,1.0133418E0,1.1798374E2,1.5702573E0,6.351048E0,1.3044443E2,2.4367977E1,3.303157E0,1.1468059E2,1.7108688E0,4.640179E0,4.8510113E0,1.9516966E1,1.0001444E0,2.3030126E0,1.1607539E1,7.9094257E0],"tree_param":{"num_deleted":"0","num_feature":"43","num_nodes":"23","size_leaf_vector":"1"}},{"base_weights":[-9.510999E-3,-9.845151E-1,7.0731866E-1,-1.0274642E0,-3.2577503E-1,1.0532661E-1,-3.3563107E-1,-7.891707E-3,-1.0355244E0,4.966689E-2,-5.789867E-1,-1.0167016E-1,4.0497747E-1,-3.7674513E-1,-1.0520189E-1,1.1115163E-2,-8.1913985E-2,-7.993252E-1,7.723446E-1,-4.624756E-2,-5.339707E-3,-2.1474988E-3,-9.823917E-2,9.61062E-2,-7.5591885E-2],"categories":[],"categories_nodes":[],"categories_segments":[],"categories_sizes":[],"default_left":[0,0,0,0,0,0,0,0,0,0,0,0,0,0,0,0,0,0,0,0,0,0,0,0,0],"id":21,"left_children":[1,3,5,7,9,-1,11,-1,13,-1,15,-1,17,19,-1,-1,-1,21,23,-1,-1,-1,-1,-1,-1],"loss_changes":[1.9361284E2,2.9859238E0,5.7957817E1,7.571564E-1,2.0885801E0,0E0,2.085293E1,0E0,7.849655E-1,0E0,1.2635107E0,0E0,9.522931E0,9.210402E-2,0E0,0E0,0E0,7.1887255E-1,5.3216343E0,0E0,0E0,0E0,0E0,0E0,0E0],"parents":[2147483647,0,0,1,1,2,2,3,3,4,4,6,6,8,8,10,10,12,12,13,13,17,17,18,18],"right_children":[2,4,6,8,10,-1,12,-1,14,-1,16,-1,18,20,-1,-1,-1,22,24,-1,-1,-1,-1,-1,-1],"split_conditions":[1.4904911E4,9.395037E6,1.4803719E7,2.06679E-1,1.5097182E7,1.0532661E-1,2.629526E9,-7.891707E-3,5.5351526E2,4.966689E-2,1.7876052E5,-1.0167016E-1,2.150372E1,4.172593E3,-1.0520189E-1,1.1115163E-2,-8.1913985E-2,1.5616579E7,3.6305725E3,-4.624756E-2,-5.339707E-3,-2.1474988E-3,-9.823917E-2,9.61062E-2,-7.5591885E-2],"split_indices":[1,20,20,6,20,0,38,0,18,0,42,0,34,1,0,0,0,20,18,0,0,0,0,0,0],"split_type":[0,0,0,0,0,0,0,0,0,0,0,0,0,0,0,0,0,0,0,0,0,0,0,0,0],"sum_hessian":[2.7502402E2,1.1636941E2,1.586546E2,1.08721176E2,7.6482315E0,1.1912939E2,3.952522E1,1.0069953E0,1.0771418E2,1.5740769E0,6.0741544E0,2.039604E1,1.9129179E1,3.2134047E0,1.0450078E2,1.7067001E0,4.3674545E0,4.1964755E0,1.4932705E1,2.199873E0,1.0135318E0,1.0123408E0,3.1841347E0,1.3621764E1,1.3109403E0],"tree_param":{"num_deleted":"0","num_feature":"43","num_nodes":"25","size_leaf_vector":"1"}},{"base_weights":[-1.0423687E-2,-9.72064E-1,6.969865E-1,-1.0181494E0,-3.0575377E-1,1.0450501E0,-3.3024332E-1,-3.5881725E-1,-1.0356969E0,2.4158414E-1,-6.9816345E-1,1.04978204E-1,2.8236223E-2,-1.0061654E-1,3.79849E-1,-4.8015597E-3,-4.435948E-1,-7.5194906E-3,-1.044912E-1,6.4271405E-2,-2.9385855E-2,-8.29628E-2,-7.933373E-3,8.8034755E-1,-4.7730052E-1,-6.713991E-3,-5.897048E-2,-1.6643189E-2,9.930613E-2,6.6101596E-2,-1.02772824E-1],"categories":[],"categories_nodes":[],"categories_segments":[],"categories_sizes":[],"default_left":[0,0,0,0,0,0,0,0,0,0,0,0,0,0,0,0,0,0,0,0,0,0,0,0,0,0,0,0,0,0,0],"id":22,"left_children":[1,3,5,7,9,11,13,15,17,19,21,-1,-1,-1,23,-1,25,-1,-1,-1,-1,-1,-1,27,29,-1,-1,-1,-1,-1,-1],"loss_changes":[1.7287004E2,2.9958801E0,5.2696793E1,7.8886414E-1,1.9720559E0,9.915161E-2,1.8532944E1,8.753282E-2,7.8152466E-1,1.1014796E0,3.529458E-1,0E0,0E0,0E0,8.643351E0,0E0,1.3223004E-1,0E0,0E0,0E0,0E0,0E0,0E0,1.6345997E0,5.513126E0,0E0,0E0,0E0,0E0,0E0,0E0],"parents":[2147483647,0,0,1,1,2,2,3,3,4,4,5,5,6,6,7,7,8,8,9,9,10,10,14,14,16,16,23,23,24,24],"right_children":[2,4,6,8,10,12,14,16,18,20,22,-1,-1,-1,24,-1,26,-1,-1,-1,-1,-1,-1,28,30,-1,-1,-1,-1,-1,-1],"split_conditions":[1.4904911E4,9.395037E6,1.4803719E7,5.5351526E2,1.9654522E5,1.4013492E2,2.629526E9,2.5651474E1,2.06679E-1,4.0534363E1,6.56969E5,1.04978204E-1,2.8236223E-2,-1.0061654E-1,1.184068E0,-4.8015597E-3,5.711041E5,-7.5194906E-3,-1.044912E-1,6.4271405E-2,-2.9385855E-2,-8.29628E-2,-7.933373E-3,2.2087881E1,1.8630702E5,-6.713991E-3,-5.897048E-2,-1.6643189E-2,9.930613E-2,6.6101596E-2,-1.02772824E-1],"split_indices":[1,20,20,18,42,14,38,34,6,16,42,0,0,0,4,0,0,0,0,0,0,0,0,34,42,0,0,0,0,0,0],"split_type":[0,0,0,0,0,0,0,0,0,0,0,0,0,0,0,0,0,0,0,0,0,0,0,0,0,0,0,0,0,0,0],"sum_hessian":[2.5212224E2,1.0670089E2,1.4542134E2,9.930447E1,7.396428E0,1.0860469E2,3.6816658E1,3.1304147E0,9.617405E1,3.2490168E0,4.1474113E0,1.0756093E2,1.0437576E0,1.8648546E1,1.8168112E1,1.0065798E0,2.1238348E0,1.0009747E0,9.517307E1,1.7429413E0,1.5060755E0,3.139759E0,1.0076523E0,1.1453329E1,6.714783E0,1.0019108E0,1.121924E0,1.0670425E0,1.0386287E1,2.1231246E0,4.5916586E0],"tree_param":{"num_deleted":"0","num_feature":"43","num_nodes":"31","size_leaf_vector":"1"}},{"base_weights":[-1.09648025E-2,-9.604314E-1,6.882469E-1,-1.00923E0,-2.9195613E-1,1.0376906E0,-3.220823E-1,-3.454851E-1,-1.0283177E0,4.8533477E-2,-5.479335E-1,1.0429926E-1,2.6696457E-2,-9.959475E-2,3.6353502E-1,-4.322275E-1,-4.141927E-3,-1.038652E-1,-7.1927966E-3,-4.6801627E-2,-8.948842E-2,9.580106E-2,-3.2881293E-1,-5.699361E-2,-7.541792E-3,5.364675E-2,-6.274607E-2,8.32315E-2,-1.0638221E-1],"categories":[],"categories_nodes":[],"categories_segments":[],"categories_sizes":[],"default_left":[0,0,0,0,0,0,0,0,0,0,0,0,0,0,0,0,0,0,0,0,0,0,0,0,0,0,0,0,0],"id":23,"left_children":[1,3,5,7,9,11,13,15,17,-1,19,-1,-1,-1,21,23,-1,-1,-1,25,-1,-1,27,-1,-1,-1,-1,-1,-1],"loss_changes":[1.5471759E2,2.9293594E0,4.7721832E1,8.065262E-1,1.8837487E0,1.3004303E-1,1.6651041E1,8.942869E-2,8.013077E-1,0E0,1.103278E0,0E0,0E0,0E0,7.809313E0,1.0737997E-1,0E0,0E0,0E0,1.6065533E0,0E0,0E0,8.699752E0,0E0,0E0,0E0,0E0,0E0,0E0],"parents":[2147483647,0,0,1,1,2,2,3,3,4,4,5,5,6,6,7,7,8,8,10,10,14,14,15,15,19,19,22,22],"right_children":[2,4,6,8,10,12,14,16,18,-1,20,-1,-1,-1,22,24,-1,-1,-1,26,-1,-1,28,-1,-1,-1,-1,-1,-1],"split_conditions":[1.4904911E4,9.395037E6,1.4803719E7,5.5351526E2,1.5097182E7,2.4211977E1,2.629526E9,5.4667236E2,3.6544E-2,4.8533477E-2,4.0534363E1,1.0429926E-1,2.6696457E-2,-9.959475E-2,2.3E1,2.8486116E5,-4.141927E-3,-1.038652E-1,-7.1927966E-3,1.9654522E5,-8.948842E-2,9.580106E-2,1.9654522E5,-5.699361E-2,-7.541792E-3,5.364675E-2,-6.274607E-2,8.32315E-2,-1.0638221E-1],"split_indices":[1,20,20,18,20,15,38,18,41,0,16,0,0,0,14,23,0,0,0,42,0,0,42,0,0,0,0,0,0],"split_type":[0,0,0,0,0,0,0,0,0,0,0,0,0,0,0,0,0,0,0,0,0,0,0,0,0,0,0,0,0],"sum_hessian":[2.3105548E2,9.78332E1,1.3322227E2,9.0702194E1,7.131007E0,9.896578E1,3.4256496E1,3.0693693E0,8.763283E1,1.5446321E0,5.586375E0,9.793879E1,1.0269947E0,1.7048044E1,1.7208452E1,2.0601628E0,1.0092065E0,8.661094E1,1.0218862E0,2.749672E0,2.8367033E0,9.052192E0,8.1562605E0,1.0554906E0,1.0046722E0,1.4097208E0,1.3399513E0,3.1103346E0,5.0459256E0],"tree_param":{"num_deleted":"0","num_feature":"43","num_nodes":"29","size_leaf_vector":"1"}},{"base_weights":[-1.1426989E-2,-9.490099E-1,6.8019193E-1,-1.0005147E0,-2.7921587E-1,1.030797E0,-3.1390488E-1,-3.3280498E-1,-1.0212828E0,4.5520723E-2,-5.3131425E-1,2.534972E-2,1.0367272E-1,-9.859488E-2,3.504762E-1,-4.17816E-2,-3.9413264E-3,-1.0325525E-1,-6.8504014E-3,-4.6113316E-2,-8.698573E-2,8.451077E-1,-4.387038E-1,5.117638E-2,-6.1020654E-2,-3.60699E-2,1.0054697E-1,3.8940836E-2,-9.482796E-2],"categories":[],"categories_nodes":[],"categories_segments":[],"categories_sizes":[],"default_left":[0,0,0,0,0,0,0,0,0,0,0,0,0,0,0,0,0,0,0,0,0,0,0,0,0,0,0,0,0],"id":24,"left_children":[1,3,5,7,9,11,13,15,17,-1,19,-1,-1,-1,21,-1,-1,-1,-1,23,-1,25,27,-1,-1,-1,-1,-1,-1],"loss_changes":[1.385629E2,2.8498E0,4.3186905E1,8.227539E-1,1.6978627E0,1.5735626E-1,1.5004623E1,8.361071E-2,7.9717255E-1,0E0,9.9734294E-1,0E0,0E0,0E0,7.1034317E0,0E0,0E0,0E0,0E0,1.4614478E0,0E0,2.4788914E0,3.4512506E0,0E0,0E0,0E0,0E0,0E0,0E0],"parents":[2147483647,0,0,1,1,2,2,3,3,4,4,5,5,6,6,7,7,8,8,10,10,14,14,19,19,21,21,22,22],"right_children":[2,4,6,8,10,12,14,16,18,-1,20,-1,-1,-1,22,-1,-1,-1,-1,24,-1,26,28,-1,-1,-1,-1,-1,-1],"split_conditions":[1.4904911E4,9.395037E6,1.4803719E7,5.5351526E2,1.5097182E7,4.1729934E5,2.629526E9,5.4667236E2,3.6544E-2,4.5520723E-2,4.0534363E1,2.534972E-2,1.0367272E-1,-9.859488E-2,1.355976E0,-4.17816E-2,-3.9413264E-3,-1.0325525E-1,-6.8504014E-3,1.9654522E5,-8.698573E-2,2.192038E1,1.9654522E5,5.117638E-2,-6.1020654E-2,-3.60699E-2,1.0054697E-1,3.8940836E-2,-9.482796E-2],"split_indices":[1,20,20,18,20,0,38,18,41,0,16,0,0,0,7,0,0,0,0,42,0,34,42,0,0,0,0,0,0],"split_type":[0,0,0,0,0,0,0,0,0,0,0,0,0,0,0,0,0,0,0,0,0,0,0,0,0,0,0,0,0],"sum_hessian":[2.1168774E2,8.970642E1,1.2198132E2,8.284236E1,6.8640537E0,9.014976E1,3.1831564E1,3.0125122E0,7.982985E1,1.5481747E0,5.315879E0,1.0137968E0,8.913596E1,1.5583905E1,1.6247658E1,2.0069144E0,1.005598E0,7.8813896E1,1.0159577E0,2.6516857E0,2.6641932E0,9.944139E0,6.3035192E0,1.3798292E0,1.2718564E0,1.0206102E0,8.923529E0,2.4910803E0,3.8124392E0],"tree_param":{"num_deleted":"0","num_feature":"43","num_nodes":"29","size_leaf_vector":"1"}},{"base_weights":[-1.2104284E-2,-9.3753994E-1,6.7163527E-1,-9.9188673E-1,-2.6736024E-1,1.0242838E0,-3.0734074E-1,-3.1666934E-1,-1.0145605E0,4.201303E-2,-5.3217477E-1,1.0309082E-1,2.4155147E-2,-9.760803E-2,3.341395E-1,-3.990224E-2,-3.7504495E-3,-1.0268569E-1,-6.5243104E-3,3.1999554E-2,-8.434473E-2,9.310155E-2,-2.9406574E-1,7.0266806E-2,-1.0133394E-1],"categories":[],"categories_nodes":[],"categories_segments":[],"categories_sizes":[],"default_left":[0,0,0,0,0,0,0,0,0,0,0,0,0,0,0,0,0,0,0,0,0,0,0,0,0],"id":25,"left_children":[1,3,5,7,9,11,13,15,17,-1,19,-1,-1,-1,21,-1,-1,-1,-1,-1,-1,-1,23,-1,-1],"loss_changes":[1.2400311E2,2.7674332E0,3.92276E1,8.5219574E-1,1.6098802E0,1.8183899E-1,1.3461098E1,7.5707495E-2,7.9338074E-1,0E0,1.845085E0,0E0,0E0,0E0,6.412968E0,0E0,0E0,0E0,0E0,0E0,0E0,0E0,6.9758472E0,0E0,0E0],"parents":[2147483647,0,0,1,1,2,2,3,3,4,4,5,5,6,6,7,7,8,8,10,10,14,14,22,22],"right_children":[2,4,6,8,10,12,14,16,18,-1,20,-1,-1,-1,22,-1,-1,-1,-1,-1,-1,-1,24,-1,-1],"split_conditions":[1.4904911E4,9.395037E6,1.4803719E7,5.5351526E2,1.4424764E3,1.564976E2,2.629526E9,5.4667236E2,3.6544E-2,4.201303E-2,1.461989E0,1.0309082E-1,2.4155147E-2,-9.760803E-2,2.3E1,-3.990224E-2,-3.7504495E-3,-1.0268569E-1,-6.5243104E-3,3.1999554E-2,-8.434473E-2,9.310155E-2,1.9654522E5,7.0266806E-2,-1.0133394E-1],"split_indices":[1,20,20,18,18,21,38,18,41,0,2,0,0,0,14,0,0,0,0,0,0,0,42,0,0],"split_type":[0,0,0,0,0,0,0,0,0,0,0,0,0,0,0,0,0,0,0,0,0,0,0,0,0],"sum_hessian":[1.9397758E2,8.226347E1,1.117141E2,7.5648865E1,6.614614E0,8.209531E1,2.96188E1,2.9439895E0,7.270487E1,1.6762803E0,4.938334E0,8.109194E1,1.0033627E0,1.4245911E1,1.5372889E1,1.9418153E0,1.0021744E0,7.1694534E1,1.0103376E0,1.3137255E0,3.6246085E0,7.635835E0,7.737053E0,3.252704E0,4.484349E0],"tree_param":{"num_deleted":"0","num_feature":"43","num_nodes":"25","size_leaf_vector":"1"}},{"base_weights":[-1.2349992E-2,-9.251753E-1,6.636489E-1,-9.8332924E-1,-2.4995637E-1,9.008663E-1,-7.629897E-1,-3.0126688E-1,-1.0080757E0,4.309017E-2,-5.033538E-1,9.489341E-1,-7.1231335E-2,4.9458813E-2,-8.9391994E-1,-3.7705176E-2,-4.375617E-3,-1.0214978E-1,-6.213756E-3,2.010044E-2,-8.4506996E-2,1.0256188E-1,4.0641236E-1,3.279843E-2,-1.0120753E-1,-7.164483E-2,7.14901E-2],"categories":[],"categories_nodes":[],"categories_segments":[],"categories_sizes":[],"default_left":[0,0,0,0,0,0,0,0,0,0,0,0,0,0,0,0,0,0,0,0,0,0,0,0,0,0,0],"id":26,"left_children":[1,3,5,7,9,11,13,15,17,-1,19,21,-1,-1,23,-1,-1,-1,-1,-1,-1,-1,25,-1,-1,-1,-1],"loss_changes":[1.1094508E2,2.757759E0,3.5648975E1,8.7924194E-1,1.4946926E0,7.5800476E0,2.9564123E0,5.9221864E-2,7.897949E-1,0E0,1.5800062E0,3.198059E0,0E0,0E0,2.3800926E0,0E0,0E0,0E0,0E0,0E0,0E0,0E0,4.8133373E0,0E0,0E0,0E0,0E0],"parents":[2147483647,0,0,1,1,2,2,3,3,4,4,5,5,6,6,7,7,8,8,10,10,11,11,14,14,22,22],"right_children":[2,4,6,8,10,12,14,16,18,-1,20,22,-1,-1,24,-1,-1,-1,-1,-1,-1,-1,26,-1,-1,-1,-1],"split_conditions":[1.4904911E4,9.395037E6,1.5729905E7,5.5351526E2,1.9236656E1,5.499E-3,1.2716562E1,1.2370595E4,3.6544E-2,4.309017E-2,1.7876052E5,1.4803719E7,-7.1231335E-2,4.9458813E-2,2.4058132E1,-3.7705176E-2,-4.375617E-3,-1.0214978E-1,-6.213756E-3,2.010044E-2,-8.4506996E-2,1.0256188E-1,5.6448E4,3.279843E-2,-1.0120753E-1,-7.164483E-2,7.14901E-2],"split_indices":[1,20,20,18,16,27,15,17,41,0,42,20,0,0,32,0,0,0,0,0,0,0,35,0,0,0,0],"split_type":[0,0,0,0,0,0,0,0,0,0,0,0,0,0,0,0,0,0,0,0,0,0,0,0,0,0,0],"sum_hessian":[1.7779866E2,7.549137E1,1.0230729E2,6.9085045E1,6.4063287E0,8.803724E1,1.4270048E1,2.88002E0,6.6205025E1,1.5475881E0,4.8587403E0,8.5889755E1,2.147485E0,1.0836976E0,1.318635E1,1.8664962E0,1.0135237E0,6.520001E1,1.0050087E0,1.721696E0,3.1370444E0,7.447268E1,1.1417077E1,1.0060817E0,1.2180268E1,2.1756246E0,9.241452E0],"tree_param":{"num_deleted":"0","num_feature":"43","num_nodes":"27","size_leaf_vector":"1"}},{"base_weights":[-1.3142088E-2,-9.130063E-1,6.5267545E-1,-9.747658E-1,-2.358026E-1,1.0127249E0,-2.8922853E-1,-2.8665596E-1,-1.0017592E0,4.3617588E-2,-4.8677662E-1,2.6263317E-2,1.02029614E-1,-9.5751815E-2,3.087299E-1,-3.6375467E-2,-3.5248648E-3,-6.8528056E-3,-1.0164614E-1,9.878233E-3,-7.227208E-2,6.7237693E-1,-6.3002527E-1,8.824991E-2,-4.1336354E-2,-9.198721E-2,9.244057E-3],"categories":[],"categories_nodes":[],"categories_segments":[],"categories_sizes":[],"default_left":[0,0,0,0,0,0,0,0,0,0,0,0,0,0,0,0,0,0,0,0,0,0,0,0,0,0,0],"id":27,"left_children":[1,3,5,7,9,11,13,15,17,-1,19,-1,-1,-1,21,-1,-1,-1,-1,-1,-1,23,25,-1,-1,-1,-1],"loss_changes":[9.904712E1,2.7101479E0,3.2518772E1,9.034729E-1,1.4255909E0,1.2371826E-1,1.1107632E1,6.1231762E-2,7.7114487E-1,0E0,8.6033535E-1,0E0,0E0,0E0,5.556474E0,0E0,0E0,0E0,0E0,0E0,0E0,2.947627E0,1.0722594E0,0E0,0E0,0E0,0E0],"parents":[2147483647,0,0,1,1,2,2,3,3,4,4,5,5,6,6,7,7,8,8,10,10,14,14,21,21,22,22],"right_children":[2,4,6,8,10,12,14,16,18,-1,20,-1,-1,-1,22,-1,-1,-1,-1,-1,-1,24,26,-1,-1,-1,-1],"split_conditions":[1.4904911E4,9.395037E6,1.4803719E7,5.5351526E2,1.5097182E7,1.048104E0,2.629526E9,6.848706E1,2.14289E-1,4.3617588E-2,1.7876052E5,2.6263317E-2,1.02029614E-1,-9.5751815E-2,2.897661E0,-3.6375467E-2,-3.5248648E-3,-6.8528056E-3,-1.0164614E-1,9.878233E-3,-7.227208E-2,2.747138E0,4.374928E0,8.824991E-2,-4.1336354E-2,-9.198721E-2,9.244057E-3],"split_indices":[1,20,20,18,20,29,38,21,4,0,42,0,0,0,3,0,0,0,0,0,0,6,3,0,0,0,0],"split_type":[0,0,0,0,0,0,0,0,0,0,0,0,0,0,0,0,0,0,0,0,0,0,0,0,0,0,0],"sum_hessian":[1.6331943E2,6.929489E1,9.4024536E1,6.310084E1,6.1940503E0,6.796807E1,2.6056463E1,2.8205109E0,6.028033E1,1.4836558E0,4.7103944E0,1.0358311E0,6.693224E1,1.2020649E1,1.4035815E1,1.8165565E0,1.0039544E0,1.0227345E0,5.9257595E1,1.519838E0,3.1905565E0,1.0321367E1,3.7144475E0,8.804613E0,1.5167546E0,2.4559164E0,1.258531E0],"tree_param":{"num_deleted":"0","num_feature":"43","num_nodes":"27","size_leaf_vector":"1"}},{"base_weights":[-1.4045245E-2,-9.0007186E-1,6.424731E-1,-9.6610254E-1,-2.2082411E-1,1.0069585E0,-2.8344756E-1,-2.7263835E-1,-9.9553555E-1,2.5696522E-1,-6.0318273E-1,1.01542965E-1,2.4713708E-2,-9.475961E-2,2.8761572E-1,-3.4707755E-2,-3.3537291E-3,-6.525797E-3,-1.0115891E-1,7.988026E-2,-2.5613269E-2,2.0543325E-3,-8.089927E-2,8.9459896E-2,-2.625332E-1,6.35896E-2,-9.724501E-2],"categories":[],"categories_nodes":[],"categories_segments":[],"categories_sizes":[],"default_left":[0,0,0,0,0,0,0,0,0,0,0,0,0,0,0,0,0,0,0,0,0,0,0,0,0,0,0],"id":28,"left_children":[1,3,5,7,9,11,13,15,17,19,21,-1,-1,-1,23,-1,-1,-1,-1,-1,-1,-1,-1,-1,25,-1,-1],"loss_changes":[8.8405396E1,2.6875038E0,2.9750664E1,9.2567825E-1,1.4386635E0,1.5369797E-1,9.921687E0,5.537334E-2,7.6859283E-1,1.2679431E0,5.560045E-1,0E0,0E0,0E0,5.0589743E0,0E0,0E0,0E0,0E0,0E0,0E0,0E0,0E0,0E0,5.944799E0,0E0,0E0],"parents":[2147483647,0,0,1,1,2,2,3,3,4,4,5,5,6,6,7,7,8,8,9,9,10,10,14,14,24,24],"right_children":[2,4,6,8,10,12,14,16,18,20,22,-1,-1,-1,24,-1,-1,-1,-1,-1,-1,-1,-1,-1,26,-1,-1],"split_conditions":[1.4904911E4,9.395037E6,1.4803719E7,5.5351526E2,4.0534363E1,3.7343525E3,2.629526E9,6.848706E1,2.14289E-1,1.4424764E3,1.5097182E7,1.01542965E-1,2.4713708E-2,-9.475961E-2,2.3E1,-3.4707755E-2,-3.3537291E-3,-6.525797E-3,-1.0115891E-1,7.988026E-2,-2.5613269E-2,2.0543325E-3,-8.089927E-2,8.9459896E-2,1.9654522E5,6.35896E-2,-9.724501E-2],"split_indices":[1,20,20,18,16,18,38,21,4,18,20,0,0,0,14,0,0,0,0,0,0,0,0,0,42,0,0],"split_type":[0,0,0,0,0,0,0,0,0,0,0,0,0,0,0,0,0,0,0,0,0,0,0,0,0,0,0],"sum_hessian":[1.4998543E2,6.3677E1,8.630843E1,5.7650402E1,6.026594E0,6.1867134E1,2.4441298E1,2.7651172E0,5.4885284E1,2.8247626E0,3.2018318E0,6.085229E1,1.0148433E0,1.0994871E1,1.3446426E1,1.7642583E0,1.0008588E0,1.0169961E0,5.386829E1,1.103077E0,1.7216854E0,1.0177202E0,2.1841116E0,6.095317E0,7.35111E0,3.2907705E0,4.0603395E0],"tree_param":{"num_deleted":"0","num_feature":"43","num_nodes":"27","size_leaf_vector":"1"}},{"base_weights":[-1.4424674E-2,-8.8702726E-1,6.3422805E-1,-9.572869E-1,-2.0779459E-1,1.0013015E0,-2.7572253E-1,-2.5927618E-1,-9.893552E-1,2.483715E-1,-5.802219E-1,1.0107409E-1,2.3612404E-2,-9.3753584E-2,2.7642462E-1,-3.2503676E-2,-4.0636007E-3,-5.620938E-3,-1.0069513E-1,6.255343E-2,-3.899035E-2,1.9503983E-3,-7.862537E-2,7.995022E-1,-3.329084E-1,-2.005817E-2,9.827022E-2,3.4742456E-2,-8.8007554E-2],"categories":[],"categories_nodes":[],"categories_segments":[],"categories_sizes":[],"default_left":[0,0,0,0,0,0,0,0,0,0,0,0,0,0,0,0,0,0,0,0,0,0,0,0,0,0,0,0,0],"id":29,"left_children":[1,3,5,7,9,11,13,15,17,19,21,-1,-1,-1,23,-1,-1,-1,-1,-1,-1,-1,-1,25,27,-1,-1,-1,-1],"loss_changes":[7.905496E1,2.642826E0,2.7040382E1,9.452324E-1,1.3094387E0,1.7528534E-1,8.962135E0,4.018183E-2,7.8038406E-1,1.1546702E0,5.189811E-1,0E0,0E0,0E0,4.6506834E0,0E0,0E0,0E0,0E0,0E0,0E0,0E0,0E0,1.6071448E0,2.933982E0,0E0,0E0,0E0,0E0],"parents":[2147483647,0,0,1,1,2,2,3,3,4,4,5,5,6,6,7,7,8,8,9,9,10,10,14,14,23,23,24,24],"right_children":[2,4,6,8,10,12,14,16,18,20,22,-1,-1,-1,24,-1,-1,-1,-1,-1,-1,-1,-1,26,28,-1,-1,-1,-1],"split_conditions":[1.4904911E4,9.395037E6,1.4803719E7,5.5351526E2,4.0534363E1,3.7343525E3,2.629526E9,3.14316E-1,2.14957E-1,1.3653E-2,1.5097182E7,1.0107409E-1,2.3612404E-2,-9.3753584E-2,2.1134746E4,-3.2503676E-2,-4.0636007E-3,-5.620938E-3,-1.0069513E-1,6.255343E-2,-3.899035E-2,1.9503983E-3,-7.862537E-2,2.218432E1,1.8630702E5,-2.005817E-2,9.827022E-2,3.4742456E-2,-8.8007554E-2],"split_indices":[1,20,20,18,16,18,38,7,2,40,20,0,0,0,17,0,0,0,0,0,0,0,0,34,42,0,0,0,0],"split_type":[0,0,0,0,0,0,0,0,0,0,0,0,0,0,0,0,0,0,0,0,0,0,0,0,0,0,0,0,0],"sum_hessian":[1.376752E2,5.8547054E1,7.912814E1,5.268769E1,5.859361E0,5.6311665E1,2.2816479E1,2.71334E0,4.997435E1,2.7833216E0,3.0760396E0,5.5308445E1,1.0032172E0,1.0060184E1,1.2756294E1,1.7118403E0,1.0014999E0,1.0025402E0,4.897181E1,1.7620631E0,1.0212585E0,1.0180353E0,2.0580041E0,6.6960363E0,6.0602584E0,1.0220138E0,5.674022E0,2.8641276E0,3.1961308E0],"tree_param":{"num_deleted":"0","num_feature":"43","num_nodes":"29","size_leaf_vector":"1"}},{"base_weights":[-1.5239578E-2,-8.741921E-1,6.253484E-1,-9.48258E-1,-2.0007618E-1,9.956965E-1,-2.6883912E-1,-2.4664512E-1,-9.831512E-1,2.4357645E-1,-5.718891E-1,1.00626305E-1,2.2876522E-2,-9.272855E-2,2.6345757E-1,-4.284975E-3,-3.07501E-2,-8.024575E-3,-1.0024186E-1,6.415614E-2,-1.464356E-2,-9.146877E-3,-7.0444785E-2,7.4939704E-1,-3.5803032E-1,-1.914794E-2,9.2290655E-2,-9.318458E-2,3.428476E-2],"categories":[],"categories_nodes":[],"categories_segments":[],"categories_sizes":[],"default_left":[0,0,0,0,0,0,0,0,0,0,0,0,0,0,0,0,0,0,0,0,0,0,0,0,0,0,0,0,0],"id":30,"left_children":[1,3,5,7,9,11,13,15,17,19,21,-1,-1,-1,23,-1,-1,-1,-1,-1,-1,-1,-1,25,27,-1,-1,-1,-1],"loss_changes":[7.0684326E1,2.5498924E0,2.4640549E1,9.612961E-1,1.244382E0,1.9327164E-1,8.075045E0,3.227064E-2,7.286186E-1,6.769259E-1,1.8669748E-1,0E0,0E0,0E0,4.2346706E0,0E0,0E0,0E0,0E0,0E0,0E0,0E0,0E0,1.4327335E0,2.9093442E0,0E0,0E0,0E0,0E0],"parents":[2147483647,0,0,1,1,2,2,3,3,4,4,5,5,6,6,7,7,8,8,9,9,10,10,14,14,23,23,24,24],"right_children":[2,4,6,8,10,12,14,16,18,20,22,-1,-1,-1,24,-1,-1,-1,-1,-1,-1,-1,-1,26,28,-1,-1,-1,-1],"split_conditions":[1.4904911E4,9.395037E6,1.4803719E7,5.5351526E2,1.9654522E5,3.7594E-2,2.629526E9,5.2012066E1,7.330137E0,2.40576E0,2.8628594E3,1.00626305E-1,2.2876522E-2,-9.272855E-2,1.355976E0,-4.284975E-3,-3.07501E-2,-8.024575E-3,-1.0024186E-1,6.415614E-2,-1.464356E-2,-9.146877E-3,-7.0444785E-2,2.218432E1,3.848043E4,-1.914794E-2,9.2290655E-2,-9.318458E-2,3.428476E-2],"split_indices":[1,20,20,18,42,39,38,32,15,2,18,0,0,0,7,0,0,0,0,0,0,0,0,34,19,0,0,0,0],"split_type":[0,0,0,0,0,0,0,0,0,0,0,0,0,0,0,0,0,0,0,0,0,0,0,0,0,0,0,0,0],"sum_hessian":[1.2646861E2,5.3870277E1,7.259833E1,4.817101E1,5.6992702E0,5.125598E1,2.134235E1,2.6644464E0,4.550656E1,2.7558475E0,2.9434228E0,5.0251568E1,1.0044115E0,9.208933E0,1.2133416E1,1.0045402E0,1.6599061E0,1.0587044E0,4.4447857E1,1.0447559E0,1.7110916E0,1.0019981E0,1.9414246E0,6.6937685E0,5.4396477E0,1.0260922E0,5.6676764E0,2.8097432E0,2.6299047E0],"tree_param":{"num_deleted":"0","num_feature":"43","num_nodes":"29","size_leaf_vector":"1"}},{"base_weights":[-1.6009383E-2,-8.6072093E-1,6.1532736E-1,-9.3893677E-1,-1.8963751E-1,9.900775E-1,-2.6155138E-1,-2.3464403E-1,-9.7686017E-1,2.4604605E-1,-5.5538714E-1,1.00179635E-1,2.2555957E-2,-9.167998E-2,2.4836947E-1,-4.078084E-3,-2.9318435E-2,-5.8689388E-3,-9.978785E-2,7.432324E-2,-2.3738628E-2,-6.673082E-5,-7.524871E-2,5.9972966E-1,-5.742107E-1,8.197318E-2,-3.7733506E-2,-8.57026E-2,9.707552E-3],"categories":[],"categories_nodes":[],"categories_segments":[],"categories_sizes":[],"default_left":[0,0,0,0,0,0,0,0,0,0,0,0,0,0,0,0,0,0,0,0,0,0,0,0,0,0,0,0,0],"id":31,"left_children":[1,3,5,7,9,11,13,15,17,19,21,-1,-1,-1,23,-1,-1,-1,-1,-1,-1,-1,-1,25,27,-1,-1,-1,-1],"loss_changes":[6.3101295E1,2.4779701E0,2.2515247E1,9.7446823E-1,1.1780286E0,2.010231E-1,7.267588E0,2.9112637E-2,7.6060104E-1,1.0598418E0,4.2149854E-1,0E0,0E0,0E0,3.9963422E0,0E0,0E0,0E0,0E0,0E0,0E0,0E0,0E0,2.3176312E0,8.98167E-1,0E0,0E0,0E0,0E0],"parents":[2147483647,0,0,1,1,2,2,3,3,4,4,5,5,6,6,7,7,8,8,9,9,10,10,14,14,23,23,24,24],"right_children":[2,4,6,8,10,12,14,16,18,20,22,-1,-1,-1,24,-1,-1,-1,-1,-1,-1,-1,-1,26,28,-1,-1,-1,-1],"split_conditions":[1.4904911E4,9.395037E6,1.4803719E7,5.5351526E2,4.0534363E1,3.680157E3,2.629526E9,5.2012066E1,2.1909E-1,1.4424764E3,1.5153964E7,1.00179635E-1,2.2555957E-2,-9.167998E-2,2.897661E0,-4.078084E-3,-2.9318435E-2,-5.8689388E-3,-9.978785E-2,7.432324E-2,-2.3738628E-2,-6.673082E-5,-7.524871E-2,2.747138E0,4.374928E0,8.197318E-2,-3.7733506E-2,-8.57026E-2,9.707552E-3],"split_indices":[1,20,20,18,16,18,38,32,5,18,20,0,0,0,3,0,0,0,0,0,0,0,0,6,3,0,0,0,0],"split_type":[0,0,0,0,0,0,0,0,0,0,0,0,0,0,0,0,0,0,0,0,0,0,0,0,0,0,0,0,0],"sum_hessian":[1.1632978E2,4.9601276E1,6.672851E1,4.4066162E1,5.5351133E0,4.6658886E1,2.006962E1,2.6187885E0,4.1447372E1,2.6754186E0,2.8596947E0,4.5648796E1,1.0100896E0,8.434E0,1.1635619E1,1.000881E0,1.6179076E0,1.012428E0,4.0434944E1,1.0540121E0,1.6214067E0,1.0127598E0,1.8469349E0,8.342911E0,3.2927082E0,6.9410467E0,1.4018642E0,2.1220067E0,1.1707015E0],"tree_param":{"num_deleted":"0","num_feature":"43","num_nodes":"29","size_leaf_vector":"1"}},{"base_weights":[-1.7190447E-2,-8.385774E-1,6.105459E-1,-9.3032795E-1,-1.3865413E-1,9.978082E-2,-2.55425E-1,-3.8687888E-1,-9.930774E-2,4.363799E-2,-4.1983446E-1,-9.0575926E-2,2.2931415E-1,-5.89119E-1,8.615927E-3,1.1481173E-2,-6.573506E-2,8.399993E-2,-2.2579682E-1,-3.8669554E-3,-7.468394E-2,5.4199614E-2,-9.181058E-2],"categories":[],"categories_nodes":[],"categories_segments":[],"categories_sizes":[],"default_left":[0,0,0,0,0,0,0,0,0,0,0,0,0,0,0,0,0,0,0,0,0,0,0],"id":32,"left_children":[1,3,5,7,9,-1,11,13,-1,-1,15,-1,17,19,-1,-1,-1,-1,21,-1,-1,-1,-1],"loss_changes":[5.6273674E1,2.9065094E0,2.100603E1,1.0349236E0,1.258965E0,0E0,6.4864006E0,6.1958784E-1,0E0,0E0,7.0761466E-1,0E0,3.5830038E0,3.438046E-1,0E0,0E0,0E0,0E0,4.635146E0,0E0,0E0,0E0,0E0],"parents":[2147483647,0,0,1,1,2,2,3,3,4,4,6,6,7,7,10,10,12,12,13,13,18,18],"right_children":[2,4,6,8,10,-1,12,14,-1,-1,16,-1,18,20,-1,-1,-1,-1,22,-1,-1,-1,-1],"split_conditions":[1.5013741E4,9.395037E6,1.4803719E7,8.003707E0,1.5097182E7,9.978082E-2,2.629526E9,4.7040967E3,-9.930774E-2,4.363799E-2,1.7876052E5,-9.0575926E-2,2.3E1,2.81153E-1,8.615927E-3,1.1481173E-2,-6.573506E-2,8.399993E-2,1.9654522E5,-3.8669554E-3,-7.468394E-2,5.4199614E-2,-9.181058E-2],"split_indices":[1,20,20,15,20,0,38,1,0,0,42,0,14,4,0,0,0,0,42,0,0,0,0],"split_type":[0,0,0,0,0,0,0,0,0,0,0,0,0,0,0,0,0,0,0,0,0,0,0],"sum_hessian":[1.07146095E2,4.626843E1,6.087767E1,4.0615143E1,5.6532836E0,4.196063E1,1.891704E1,4.945917E0,3.5669228E1,1.6752727E0,3.978011E0,7.7077045E0,1.1209336E1,3.292756E0,1.653161E0,1.3825408E0,2.59547E0,4.4254274E0,6.7839084E0,1.010668E0,2.282088E0,3.3195446E0,3.4643638E0],"tree_param":{"num_deleted":"0","num_feature":"43","num_nodes":"23","size_leaf_vector":"1"}},{"base_weights":[-1.8095106E-2,-8.23452E-1,6.016669E-1,-9.2018205E-1,-1.296292E-1,9.934819E-2,-2.4790257E-1,-1.8431288E-1,-9.65057E-1,3.0341396E-1,-4.9307722E-1,-8.946777E-2,2.1984772E-1,-2.2889793E-2,-3.9130454E-3,-9.900165E-2,-5.00089E-3,-1.6344456E-2,7.4039355E-2,9.235135E-3,-7.405465E-2,7.3044163E-1,-2.9462874E-1,-1.49594415E-2,9.395832E-2,2.521354E-2,-8.60182E-2],"categories":[],"categories_nodes":[],"categories_segments":[],"categories_sizes":[],"default_left":[0,0,0,0,0,0,0,0,0,0,0,0,0,0,0,0,0,0,0,0,0,0,0,0,0,0,0],"id":33,"left_children":[1,3,5,7,9,-1,11,13,15,17,19,-1,21,-1,-1,-1,-1,-1,-1,-1,-1,23,25,-1,-1,-1,-1],"loss_changes":[5.0225914E1,2.8170433E0,1.9181076E1,1.0847092E0,1.1753573E0,0E0,5.8703437E0,1.3269179E-2,7.681465E-1,8.540097E-1,6.369296E-1,0E0,3.2849855E0,0E0,0E0,0E0,0E0,0E0,0E0,0E0,0E0,1.2729464E0,2.2371812E0,0E0,0E0,0E0,0E0],"parents":[2147483647,0,0,1,1,2,2,3,3,4,4,6,6,7,7,8,8,9,9,10,10,12,12,21,21,22,22],"right_children":[2,4,6,8,10,-1,12,14,16,18,20,-1,22,-1,-1,-1,-1,-1,-1,-1,-1,24,26,-1,-1,-1,-1],"split_conditions":[1.5013741E4,9.395037E6,1.4803719E7,5.5351526E2,2.6905798E3,9.934819E-2,2.629526E9,1.4767539E6,3.5613E-2,8.768766E1,1.737009E0,-8.946777E-2,2.1134746E4,-2.2889793E-2,-3.9130454E-3,-9.900165E-2,-5.00089E-3,-1.6344456E-2,7.4039355E-2,9.235135E-3,-7.405465E-2,2.2532513E1,2.747138E0,-1.49594415E-2,9.395832E-2,2.521354E-2,-8.60182E-2],"split_indices":[1,20,20,18,18,0,38,20,41,14,2,0,17,0,0,0,0,0,0,0,0,34,6,0,0,0,0],"split_type":[0,0,0,0,0,0,0,0,0,0,0,0,0,0,0,0,0,0,0,0,0,0,0,0,0,0,0],"sum_hessian":[9.863438E1,4.275163E1,5.588275E1,3.7234318E1,5.517311E0,3.8128696E1,1.7754057E1,2.4336743E0,3.480064E1,2.5929852E0,2.924326E0,7.068065E0,1.0685992E1,1.4207453E0,1.0129291E0,3.379685E1,1.0037949E0,1.5562705E0,1.0367147E0,1.0551099E0,1.8692161E0,5.1525497E0,5.5334425E0,1.0440534E0,4.1084967E0,3.0952263E0,2.438216E0],"tree_param":{"num_deleted":"0","num_feature":"43","num_nodes":"27","size_leaf_vector":"1"}},{"base_weights":[-1.8855464E-2,-8.1628585E-1,5.850408E-1,-9.0856534E-1,-1.5891735E-1,8.429961E-1,-6.557747E-1,-3.4254926E-1,-9.832474E-2,2.5726402E-1,-5.183895E-1,8.946747E-1,-5.5860776E-2,-3.849519E-2,-9.113362E-2,-5.555371E-1,1.2750392E-2,6.943046E-2,-1.9712294E-2,-1.1225188E-3,-7.088154E-2,9.893366E-2,3.6906284E-1,4.6304163E-2,-4.2882893E-2,-7.164904E-2,-3.6481644E-3,-5.3727724E-2,5.8756746E-2],"categories":[],"categories_nodes":[],"categories_segments":[],"categories_sizes":[],"default_left":[0,0,0,0,0,0,0,0,0,0,0,0,0,0,0,0,0,0,0,0,0,0,0,0,0,0,0,0,0],"id":34,"left_children":[1,3,5,7,9,11,13,15,-1,17,19,21,-1,23,-1,25,-1,-1,-1,-1,-1,-1,27,-1,-1,-1,-1,-1,-1],"loss_changes":[4.4735794E1,2.2835083E0,1.7478825E1,1.1378155E0,1.0517585E0,3.70257E0,1.4894319E0,6.315754E-1,0E0,8.345553E-1,3.421811E-1,1.7758217E0,0E0,9.568943E-1,0E0,3.114705E-1,0E0,0E0,0E0,0E0,0E0,0E0,1.9320556E0,0E0,0E0,0E0,0E0,0E0,0E0],"parents":[2147483647,0,0,1,1,2,2,3,3,4,4,5,5,6,6,7,7,9,9,10,10,11,11,13,13,15,15,22,22],"right_children":[2,4,6,8,10,12,14,16,-1,18,20,22,-1,24,-1,26,-1,-1,-1,-1,-1,-1,28,-1,-1,-1,-1,-1,-1],"split_conditions":[1.4904911E4,9.395037E6,1.5729905E7,8.003707E0,4.0534363E1,5.499E-3,2.8628594E3,4.7040967E3,-9.832474E-2,1.4424764E3,1.5153964E7,1.4803719E7,-5.5860776E-2,1.9654522E5,-9.113362E-2,5.6562096E1,1.2750392E-2,6.943046E-2,-1.9712294E-2,-1.1225188E-3,-7.088154E-2,9.893366E-2,5.6448E4,4.6304163E-2,-4.2882893E-2,-7.164904E-2,-3.6481644E-3,-5.3727724E-2,5.8756746E-2],"split_indices":[1,20,20,15,16,27,18,1,0,18,20,20,0,42,0,32,0,0,0,0,0,0,35,0,0,0,0,0,0],"split_type":[0,0,0,0,0,0,0,0,0,0,0,0,0,0,0,0,0,0,0,0,0,0,0,0,0,0,0,0,0],"sum_hessian":[9.090496E1,3.902358E1,5.1881386E1,3.3884804E1,5.1387773E0,4.3217445E1,8.6639385E0,4.600945E0,2.9283857E1,2.513307E0,2.62547E0,4.2029453E1,1.1879926E0,2.873634E0,5.7903047E0,3.0411127E0,1.5598322E0,1.0119681E0,1.5013388E0,1.00576E0,1.6197101E0,3.48676E1,7.1618533E0,1.1761442E0,1.6974899E0,2.030961E0,1.0101516E0,1.1078197E0,6.0540338E0],"tree_param":{"num_deleted":"0","num_feature":"43","num_nodes":"29","size_leaf_vector":"1"}},{"base_weights":[-2.0949017E-2,-8.262522E-1,5.52947E-1,-2.677336E-1,-9.0976894E-1,8.0388415E-1,-6.7297256E-1,6.04344E-2,-6.210953E-1,-9.784555E-2,-3.0695653E-1,9.941301E-2,1.5903592E-1,2.3552159E-2,-8.2279253E-1,-7.695089E-2,-2.9682447E-3,1.9636054E-2,-6.0510155E-2,4.3029177E-1,-6.823053E-2,-2.0660749E-2,-8.9820646E-2,-6.280551E-2,6.7592494E-2],"categories":[],"categories_nodes":[],"categories_segments":[],"categories_sizes":[],"default_left":[0,0,0,0,0,0,0,0,0,0,0,0,0,0,0,0,0,0,0,0,0,0,0,0,0],"id":35,"left_children":[1,3,5,7,9,11,13,-1,15,-1,17,-1,19,-1,21,-1,-1,-1,-1,23,-1,-1,-1,-1,-1],"loss_changes":[3.9797966E1,1.4273567E0,1.6015484E1,2.2479618E0,9.7266006E-1,5.0203457E0,1.4312167E0,0E0,4.0002263E-1,0E0,8.093989E-1,0E0,2.7598855E0,0E0,1.8742514E-1,0E0,0E0,0E0,0E0,2.7083762E0,0E0,0E0,0E0,0E0,0E0],"parents":[2147483647,0,0,1,1,2,2,3,3,4,4,5,5,6,6,8,8,10,10,12,12,14,14,19,19],"right_children":[2,4,6,8,10,12,14,-1,16,-1,18,-1,20,-1,22,-1,-1,-1,-1,24,-1,-1,-1,-1,-1],"split_conditions":[1.4224263E4,8.2791284E2,3.680157E3,5.6832E4,4.287946E9,1.4803719E7,2.3809E-2,6.04344E-2,3.15939E-1,-9.784555E-2,1.7876052E5,9.941301E-2,2.5753797E9,2.3552159E-2,4.1064146E3,-7.695089E-2,-2.9682447E-3,1.9636054E-2,-6.0510155E-2,2.150372E1,-6.823053E-2,-2.0660749E-2,-8.9820646E-2,-6.280551E-2,6.7592494E-2],"split_indices":[1,18,18,35,38,20,39,0,6,0,42,0,37,0,18,0,0,0,0,34,0,0,0,0,0],"split_type":[0,0,0,0,0,0,0,0,0,0,0,0,0,0,0,0,0,0,0,0,0,0,0,0,0],"sum_hessian":[8.4124344E1,3.482185E1,4.930249E1,5.0767574E0,2.9745092E1,4.1211124E1,8.091368E0,1.2590991E0,3.8176584E0,2.6143106E1,3.6019866E0,3.1404408E1,9.806717E0,1.0644729E0,7.0268946E0,2.811087E0,1.0065715E0,1.4669424E0,2.135044E0,7.7852483E0,2.0214684E0,1.1740148E0,5.85288E0,1.1732491E0,6.611999E0],"tree_param":{"num_deleted":"0","num_feature":"43","num_nodes":"25","size_leaf_vector":"1"}},{"base_weights":[-2.3075802E-2,-8.8697946E-1,4.892839E-1,-2.9599395E-1,-9.7444616E-2,9.794014E-2,-2.4431917E-1,-5.1546043E-1,1.5357571E-2,-8.738865E-2,7.160387E-2,-6.781789E-2,-3.2639143E-3,7.079598E-1,-2.9120466E-1,-1.1742144E-2,9.123055E-2,2.5715841E-2,-8.808261E-2],"categories":[],"categories_nodes":[],"categories_segments":[],"categories_sizes":[],"default_left":[0,0,0,0,0,0,0,0,0,0,0,0,0,0,0,0,0,0,0],"id":36,"left_children":[1,3,5,7,-1,-1,9,11,-1,-1,13,-1,-1,15,17,-1,-1,-1,-1],"loss_changes":[3.5322674E1,1.2467785E0,1.8260748E1,5.9865123E-1,0E0,0E0,4.214489E0,2.7385867E-1,0E0,0E0,3.6286852E0,0E0,0E0,1.064163E0,3.508231E0,0E0,0E0,0E0,0E0],"parents":[2147483647,0,0,1,1,2,2,3,3,6,6,7,7,10,10,13,13,14,14],"right_children":[2,4,6,8,-1,-1,10,12,-1,-1,14,-1,-1,16,18,-1,-1,-1,-1],"split_conditions":[2.8285442E6,8.003707E0,1.4803719E7,4.7040967E3,-9.7444616E-2,9.794014E-2,2.629526E9,2.8248955E1,1.5357571E-2,-8.738865E-2,2.1134746E4,-6.781789E-2,-3.2639143E-3,2.264092E1,1.9654522E5,-1.1742144E-2,9.123055E-2,2.5715841E-2,-8.808261E-2],"split_indices":[20,15,20,1,0,0,38,34,0,0,17,0,0,34,42,0,0,0,0],"split_type":[0,0,0,0,0,0,0,0,0,0,0,0,0,0,0,0,0,0,0],"sum_hessian":[7.782144E1,2.8699413E1,4.9122032E1,4.265155E0,2.443426E1,2.9247097E1,1.9874933E1,2.7675533E0,1.4976014E0,6.050814E0,1.382412E1,1.7673215E0,1.000232E0,4.674263E0,9.149857E0,1.012006E0,3.6622572E0,5.032946E0,4.1169105E0],"tree_param":{"num_deleted":"0","num_feature":"43","num_nodes":"19","size_leaf_vector":"1"}},{"base_weights":[-2.4268426E-2,-7.9701954E-1,5.2884984E-1,-2.7879104E-1,-9.035295E-1,9.0100133E-1,-2.8847456E-1,-5.166734E-1,5.052478E-2,-9.66976E-2,-3.4617284E-1,9.8409764E-2,3.7612793E-1,2.5453773E-1,-7.5911736E-1,1.8408835E-2,-7.941132E-2,1.6506227E-2,-6.823608E-2,6.888784E-1,-5.1998224E-2,5.9983987E-1,-6.2131416E-2,-1.6016467E-3,-8.786037E-2,8.117223E-2,1.25372885E-2,-1.5166879E-2,9.504712E-2],"categories":[],"categories_nodes":[],"categories_segments":[],"categories_sizes":[],"default_left":[0,0,0,0,0,0,0,0,0,0,0,0,0,0,0,0,0,0,0,0,0,0,0,0,0,0,0,0,0],"id":37,"left_children":[1,3,5,7,9,11,13,15,-1,-1,17,-1,19,21,23,-1,-1,-1,-1,25,-1,27,-1,-1,-1,-1,-1,-1,-1],"loss_changes":[3.157337E1,1.4483643E0,1.3363268E1,1.5102675E0,5.5306053E-1,9.314842E-1,3.831365E0,1.2413853E0,0E0,0E0,8.2133496E-1,0E0,1.9550169E0,2.598164E0,6.8534136E-1,0E0,0E0,0E0,0E0,2.2037673E-1,0E0,1.6689384E0,0E0,0E0,0E0,0E0,0E0,0E0,0E0],"parents":[2147483647,0,0,1,1,2,2,3,3,4,4,5,5,6,6,7,7,10,10,12,12,13,13,14,14,19,19,21,21],"right_children":[2,4,6,8,10,12,14,16,-1,-1,18,-1,20,22,24,-1,-1,-1,-1,26,-1,28,-1,-1,-1,-1,-1,-1,-1],"split_conditions":[1.4224263E4,1.00357776E3,1.3837094E1,1.9039205E6,4.287946E9,1.4803719E7,2.000061E4,5.6704E4,5.052478E-2,-9.66976E-2,1.7876052E5,9.8409764E-2,2.5753797E9,2.0464E-2,1.7876052E5,1.8408835E-2,-7.941132E-2,1.6506227E-2,-6.823608E-2,3.8178722E1,-5.1998224E-2,3.848043E4,-6.2131416E-2,-1.6016467E-3,-8.786037E-2,8.117223E-2,1.25372885E-2,-1.5166879E-2,9.504712E-2],"split_indices":[1,18,15,20,38,20,1,35,0,0,42,0,37,40,42,0,0,0,0,34,0,19,0,0,0,0,0,0,0],"split_type":[0,0,0,0,0,0,0,0,0,0,0,0,0,0,0,0,0,0,0,0,0,0,0,0,0,0,0,0,0],"sum_hessian":[7.1883026E1,2.9803776E1,4.207925E1,5.697905E0,2.4105871E1,2.8843563E1,1.3235688E1,4.6331797E0,1.0647256E0,2.0982416E1,3.1234555E0,2.414593E1,4.697633E0,6.35856E0,6.8771286E0,1.4095052E0,3.2236743E0,1.4410677E0,1.682388E0,3.6537116E0,1.0439211E0,4.7865944E0,1.5719657E0,1.1097144E0,5.767414E0,2.6381168E0,1.0155945E0,1.7033159E0,3.0832784E0],"tree_param":{"num_deleted":"0","num_feature":"43","num_nodes":"29","size_leaf_vector":"1"}},{"base_weights":[-2.4942333E-2,4.0957844E-1,-9.723019E-2,7.563574E-1,-2.9157054E-1,9.262764E-1,-5.556875E-1,2.1702112E-1,-7.716716E-1,9.74878E-1,-5.209899E-3,-7.182758E-2,-1.5632063E-3,8.554828E-2,-1.5643585E-1,-1.17303515E-2,-8.438562E-2,1.0332513E-1,3.7254125E-2,6.9424294E-2,-7.932665E-2],"categories":[],"categories_nodes":[],"categories_segments":[],"categories_sizes":[],"default_left":[0,0,0,0,0,0,0,0,0,0,0,0,0,0,0,0,0,0,0,0,0],"id":38,"left_children":[1,3,-1,5,7,9,11,13,15,17,-1,-1,-1,-1,19,-1,-1,-1,-1,-1,-1],"loss_changes":[2.8227125E1,1.1660418E1,0E0,7.5949917E0,4.1454415E0,1.4056015E0,3.6338985E-1,2.2062101E0,3.072338E-1,5.712395E-1,0E0,0E0,0E0,0E0,3.9795074E0,0E0,0E0,0E0,0E0,0E0,0E0],"parents":[2147483647,0,0,1,1,3,3,4,4,5,5,6,6,7,7,8,8,9,9,14,14],"right_children":[2,4,-1,6,8,10,12,14,16,18,-1,-1,-1,-1,20,-1,-1,-1,-1,-1,-1],"split_conditions":[6.4E1,1.8578375E1,-9.723019E-2,5.696E4,2.2382782E1,1.5676288E7,3.13599E-1,1.9654522E5,1.0410828E4,2.5338736E4,-5.209899E-3,-7.182758E-2,-1.5632063E-3,8.554828E-2,1.9479278E9,-1.17303515E-2,-8.438562E-2,1.0332513E-1,3.7254125E-2,6.9424294E-2,-7.932665E-2],"split_indices":[10,16,0,35,33,20,2,42,24,1,0,0,0,0,37,0,0,0,0,0,0],"split_type":[0,0,0,0,0,0,0,0,0,0,0,0,0,0,0,0,0,0,0,0,0],"sum_hessian":[6.6603714E1,4.6049892E1,2.0553818E1,3.0758438E1,1.5291454E1,2.7492046E1,3.2663915E0,7.6914935E0,7.5999613E0,2.6194393E1,1.2976543E0,2.2569215E0,1.0094701E0,2.362261E0,5.3292327E0,1.0158763E0,6.584085E0,2.3227938E1,2.9664552E0,2.242948E0,3.0862846E0],"tree_param":{"num_deleted":"0","num_feature":"43","num_nodes":"21","size_leaf_vector":"1"}},{"base_weights":[-2.516579E-2,3.9713705E-1,-9.665402E-2,7.390732E-1,-2.780299E-1,9.1045773E-1,-5.3715485E-1,2.1335219E-1,-7.4065775E-1,9.620936E-1,-4.916537E-3,-7.016369E-2,-1.485769E-3,8.03002E-1,-1.5154032E-1,-1.5634762E-2,-8.3448565E-1,1.0304912E-1,3.6514305E-2,9.423789E-2,2.4399223E-2,6.781653E-2,-7.763253E-2,-2.1801017E-2,-9.0571254E-2],"categories":[],"categories_nodes":[],"categories_segments":[],"categories_sizes":[],"default_left":[0,0,0,0,0,0,0,0,0,0,0,0,0,0,0,0,0,0,0,0,0,0,0,0,0],"id":39,"left_children":[1,3,-1,5,7,9,11,13,15,17,-1,-1,-1,19,21,-1,23,-1,-1,-1,-1,-1,-1,-1,-1],"loss_changes":[2.5310898E1,1.0362014E1,0E0,6.936409E0,3.685381E0,1.3533745E0,3.4341002E-1,1.9076909E0,3.1995964E-1,6.469593E-1,0E0,0E0,0E0,2.9667139E-2,3.6207006E0,0E0,1.0326052E-1,0E0,0E0,0E0,0E0,0E0,0E0,0E0,0E0],"parents":[2147483647,0,0,1,1,3,3,4,4,5,5,6,6,7,7,8,8,9,9,13,13,14,14,16,16],"right_children":[2,4,-1,6,8,10,12,14,16,18,-1,-1,-1,20,22,-1,24,-1,-1,-1,-1,-1,-1,-1,-1],"split_conditions":[6.4E1,1.8578375E1,-9.665402E-2,5.696E4,2.2382782E1,1.5676288E7,3.13599E-1,1.9654522E5,1.114459E0,2.5279805E4,-4.916537E-3,-7.016369E-2,-1.485769E-3,2.52014E0,1.9479278E9,-1.5634762E-2,1.8915657E9,1.0304912E-1,3.6514305E-2,9.423789E-2,2.4399223E-2,6.781653E-2,-7.763253E-2,-2.1801017E-2,-9.0571254E-2],"split_indices":[10,16,0,35,33,20,2,42,29,1,0,0,0,5,37,0,37,0,0,0,0,0,0,0,0],"split_type":[0,0,0,0,0,0,0,0,0,0,0,0,0,0,0,0,0,0,0,0,0,0,0,0,0],"sum_hessian":[6.1702446E1,4.299356E1,1.8708885E1,2.8476883E1,1.451668E1,2.5358143E1,3.1187394E0,7.3008633E0,7.2158165E0,2.4060886E1,1.2972554E0,2.110677E0,1.0080624E0,2.3319244E0,4.9689384E0,1.3673033E0,5.848513E0,2.0935837E1,3.1250515E0,1.3176076E0,1.0143169E0,2.0977364E0,2.8712022E0,1.0263286E0,4.8221846E0],"tree_param":{"num_deleted":"0","num_feature":"43","num_nodes":"25","size_leaf_vector":"1"}},{"base_weights":[-2.532953E-2,3.842448E-1,-9.60513E-2,9.4077027E-1,-2.8660111E-2,9.745654E-2,2.0377418E-2,2.4465716E-1,-8.5727E-2,1.04929365E-1,-6.2501654E-2,2.6614517E-2,-5.2893646E-2],"categories":[],"categories_nodes":[],"categories_segments":[],"categories_sizes":[],"default_left":[0,0,0,0,0,0,0,0,0,0,0,0,0],"id":40,"left_children":[1,3,-1,5,7,-1,-1,9,-1,-1,11,-1,-1],"loss_changes":[2.269098E1,9.504095E0,0E0,2.3966217E-1,5.791524E0,0E0,0E0,4.838392E0,0E0,0E0,2.4278789E0,0E0,0E0],"parents":[2147483647,0,0,1,1,3,3,4,4,7,7,10,10],"right_children":[2,4,-1,6,8,-1,-1,10,-1,-1,12,-1,-1],"split_conditions":[6.4E1,2.067E-3,-9.60513E-2,1.4790928E7,5.696E4,9.745654E-2,2.0377418E-2,1.4803719E7,-8.5727E-2,1.04929365E-1,3.1678076E3,2.6614517E-2,-5.2893646E-2],"split_indices":[10,40,0,20,35,0,0,20,0,0,18,0,0],"split_type":[0,0,0,0,0,0,0,0,0,0,0,0,0],"sum_hessian":[5.7277622E1,4.024221E1,1.7035414E1,1.6595663E1,2.3646545E1,1.5559816E1,1.0358473E0,1.8311296E1,5.33525E0,4.3914027E0,1.3919892E1,8.418018E0,5.501874E0],"tree_param":{"num_deleted":"0","num_feature":"43","num_nodes":"13","size_leaf_vector":"1"}},{"base_weights":[-2.4325922E-2,3.7116945E-1,-9.541906E-2,9.3012875E-1,-2.730611E-2,9.6706435E-2,1.943334E-2,2.3157904E-1,-8.437487E-2,5.693783E-1,-4.4239998E-1,7.2169915E-2,-2.7624173E-2,2.1270936E-2,-6.795487E-2],"categories":[],"categories_nodes":[],"categories_segments":[],"categories_sizes":[],"default_left":[0,0,0,0,0,0,0,0,0,0,0,0,0,0,0],"id":41,"left_children":[1,3,-1,5,7,-1,-1,9,-1,11,13,-1,-1,-1,-1],"loss_changes":[2.036546E1,8.688942E0,0E0,2.5279617E-1,5.200468E0,0E0,0E0,4.523775E0,0E0,1.8656244E0,1.2052194E0,0E0,0E0,0E0,0E0],"parents":[2147483647,0,0,1,1,3,3,4,4,7,7,9,9,10,10],"right_children":[2,4,-1,6,8,-1,-1,10,-1,12,14,-1,-1,-1,-1],"split_conditions":[6.4E1,2.067E-3,-9.541906E-2,1.4790928E7,5.696E4,9.6706435E-2,1.943334E-2,1.5788673E7,-8.437487E-2,2.5753797E9,1.5347912E1,7.2169915E-2,-2.7624173E-2,2.1270936E-2,-6.795487E-2],"split_indices":[10,40,0,20,35,0,0,20,0,37,33,0,0,0,0],"split_type":[0,0,0,0,0,0,0,0,0,0,0,0,0,0,0],"sum_hessian":[5.341442E1,3.7896782E1,1.5517642E1,1.5217001E1,2.267978E1,1.419036E1,1.0266404E0,1.7763515E1,4.9162636E0,1.193625E1,5.8272667E0,1.0238535E1,1.6977143E0,1.5761899E0,4.2510767E0],"tree_param":{"num_deleted":"0","num_feature":"43","num_nodes":"15","size_leaf_vector":"1"}},{"base_weights":[-2.5021672E-2,3.5541013E-1,-9.475444E-2,7.032333E-1,-2.705077E-1,8.700265E-1,-4.6666673E-1,2.0310731E-1,-7.05907E-1,1.0123255E-1,3.445266E-1,-6.4235725E-2,-8.9553295E-4,7.576511E-2,-1.8717957E-1,-1.01589E-2,-8.102551E-2,6.829393E-2,-5.5707186E-2,6.2110215E-2,-7.4578576E-2],"categories":[],"categories_nodes":[],"categories_segments":[],"categories_sizes":[],"default_left":[0,0,0,0,0,0,0,0,0,0,0,0,0,0,0,0,0,0,0,0,0],"id":42,"left_children":[1,3,-1,5,7,9,11,13,15,-1,17,-1,-1,-1,19,-1,-1,-1,-1,-1,-1],"loss_changes":[1.8208702E1,8.198041E0,0E0,5.0738115E0,3.001658E0,1.242918E0,2.8662157E-1,1.7467966E0,3.871808E-1,0E0,2.2268555E0,0E0,0E0,0E0,2.7904418E0,0E0,0E0,0E0,0E0,0E0,0E0],"parents":[2147483647,0,0,1,1,3,3,4,4,5,5,6,6,7,7,8,8,10,10,14,14],"right_children":[2,4,-1,6,8,10,12,14,16,-1,18,-1,-1,-1,20,-1,-1,-1,-1,-1,-1],"split_conditions":[6.4E1,1.8578375E1,-9.475444E-2,5.696E4,2.2382782E1,1.4803719E7,4.464007E3,1.9654522E5,1.114459E0,1.0123255E-1,2.5753797E9,-6.4235725E-2,-8.9553295E-4,7.576511E-2,1.9479278E9,-1.01589E-2,-8.102551E-2,6.829393E-2,-5.5707186E-2,6.2110215E-2,-7.4578576E-2],"split_indices":[10,16,0,35,33,20,1,42,29,0,37,0,0,0,37,0,0,0,0,0,0],"split_type":[0,0,0,0,0,0,0,0,0,0,0,0,0,0,0,0,0,0,0,0,0],"sum_hessian":[4.9923435E1,3.5782227E1,1.4141207E1,2.2921309E1,1.2860919E1,2.0285517E1,2.6357915E0,6.4156604E0,6.4452586E0,1.5233945E1,5.051572E0,1.6131718E0,1.0226198E0,2.2613406E0,4.15432E0,1.2396355E0,5.205623E0,3.849279E0,1.2022929E0,1.6520247E0,2.502295E0],"tree_param":{"num_deleted":"0","num_feature":"43","num_nodes":"21","size_leaf_vector":"1"}},{"base_weights":[-2.5779063E-2,3.432216E-1,-9.405475E-2,9.140807E-1,-3.0354422E-2,9.546667E-2,2.2202097E-2,2.1097276E-1,-8.210086E-2,1.0068438E-1,-7.29737E-2,1.285649E-2,-7.573027E-2],"categories":[],"categories_nodes":[],"categories_segments":[],"categories_sizes":[],"default_left":[0,0,0,0,0,0,0,0,0,0,0,0,0],"id":43,"left_children":[1,3,-1,5,7,-1,-1,9,-1,-1,11,-1,-1],"loss_changes":[1.6324148E1,7.3875966E0,0E0,1.7237854E-1,4.338137E0,0E0,0E0,4.032533E0,0E0,0E0,2.006815E0,0E0,0E0],"parents":[2147483647,0,0,1,1,3,3,4,4,7,7,10,10],"right_children":[2,4,-1,6,8,-1,-1,10,-1,-1,12,-1,-1],"split_conditions":[6.4E1,2.067E-3,-9.405475E-2,1.4790787E7,5.696E4,9.546667E-2,2.2202097E-2,1.4803719E7,-8.210086E-2,1.0068438E-1,5.368707E3,1.285649E-2,-7.573027E-2],"split_indices":[10,40,0,20,35,0,0,20,0,0,18,0,0],"split_type":[0,0,0,0,0,0,0,0,0,0,0,0,0],"sum_hessian":[4.640431E1,3.351128E1,1.289303E1,1.26832485E1,2.082803E1,1.1622204E1,1.0610446E0,1.6519146E1,4.3088846E0,3.674376E0,1.28447695E1,1.0549897E1,2.294872E0],"tree_param":{"num_deleted":"0","num_feature":"43","num_nodes":"13","size_leaf_vector":"1"}},{"base_weights":[-2.5412412E-2,3.2885563E-1,-9.331744E-2,6.755976E-1,-2.6114073E-1,8.415255E-1,-4.2577463E-1,1.907284E-1,-6.7216444E-1,9.5973986E-1,1.8586805E-1,-5.9852373E-2,-7.642284E-4,7.1194315E-1,-2.075049E-1,-7.608468E-3,-7.8032665E-2,1.0076801E-1,1.7576812E-2,6.616E-2,-5.4564018E-2,2.3507148E-2,8.573877E-2,5.812605E-2,-7.241651E-2],"categories":[],"categories_nodes":[],"categories_segments":[],"categories_sizes":[],"default_left":[0,0,0,0,0,0,0,0,0,0,0,0,0,0,0,0,0,0,0,0,0,0,0,0,0],"id":44,"left_children":[1,3,-1,5,7,9,11,13,15,17,19,-1,-1,21,23,-1,-1,-1,-1,-1,-1,-1,-1,-1,-1],"loss_changes":[1.4627887E1,6.8805056E0,0E0,4.1812143E0,2.5151005E0,1.2567587E0,2.412284E-1,1.5800474E0,3.887806E-1,4.0345383E-1,1.7768875E0,0E0,0E0,2.1402955E-2,2.3306217E0,0E0,0E0,0E0,0E0,0E0,0E0,0E0,0E0,0E0,0E0],"parents":[2147483647,0,0,1,1,3,3,4,4,5,5,6,6,7,7,8,8,9,9,10,10,13,13,14,14],"right_children":[2,4,-1,6,8,10,12,14,16,18,20,-1,-1,22,24,-1,-1,-1,-1,-1,-1,-1,-1,-1,-1],"split_conditions":[6.4E1,1.8578375E1,-9.331744E-2,5.696E4,2.2382782E1,2.5753797E9,3.048E-1,1.9654522E5,1.114459E0,1.267223E0,1.4791002E7,-5.9852373E-2,-7.642284E-4,1.867088E0,1.9479278E9,-7.608468E-3,-7.8032665E-2,1.0076801E-1,1.7576812E-2,6.616E-2,-5.4564018E-2,2.3507148E-2,8.573877E-2,5.812605E-2,-7.241651E-2],"split_indices":[10,16,0,35,33,37,4,42,29,7,20,0,0,3,37,0,0,0,0,0,0,0,0,0,0],"split_type":[0,0,0,0,0,0,0,0,0,0,0,0,0,0,0,0,0,0,0,0,0,0,0,0,0],"sum_hessian":[4.3531734E1,3.1770527E1,1.1761207E1,1.9919004E1,1.1851523E1,1.7516043E1,2.4029605E0,5.900562E0,5.9509616E0,1.4447409E1,3.0686345E0,1.3951429E0,1.0078175E0,2.2144701E0,3.6860917E0,1.1756126E0,4.775349E0,1.3345946E1,1.1014627E0,1.9172984E0,1.1513361E0,1.1290058E0,1.0854644E0,1.4093921E0,2.2766998E0],"tree_param":{"num_deleted":"0","num_feature":"43","num_nodes":"25","size_leaf_vector":"1"}},{"base_weights":[-2.4840046E-2,3.187001E-1,-9.2540145E-2,8.957478E-1,-3.064727E-2,9.7366944E-2,3.1502865E-2,1.9587195E-1,-7.980059E-2,9.7398005E-2,-7.291967E-2,3.4370113E-2,-3.797252E-2],"categories":[],"categories_nodes":[],"categories_segments":[],"categories_sizes":[],"default_left":[0,0,0,0,0,0,0,0,0,0,0,0,0],"id":45,"left_children":[1,3,-1,5,7,-1,-1,9,-1,-1,11,-1,-1],"loss_changes":[1.3155596E1,6.2433615E0,0E0,2.2092533E-1,3.662901E0,0E0,0E0,3.496592E0,0E0,0E0,1.805454E0,0E0,0E0],"parents":[2147483647,0,0,1,1,3,3,4,4,7,7,10,10],"right_children":[2,4,-1,6,8,-1,-1,10,-1,-1,12,-1,-1],"split_conditions":[6.4E1,2.067E-3,-9.2540145E-2,4.2322322E9,5.696E4,9.7366944E-2,3.1502865E-2,1.4803719E7,-7.980059E-2,9.7398005E-2,1.9654522E5,3.4370113E-2,-3.797252E-2],"split_indices":[10,40,0,38,35,0,0,20,0,0,42,0,0],"split_type":[0,0,0,0,0,0,0,0,0,0,0,0,0],"sum_hessian":[4.0569305E1,2.9834393E1,1.0734915E1,1.0660857E1,1.9173534E1,8.8029995E0,1.8578583E0,1.5378614E1,3.7949207E0,3.274864E0,1.210375E1,5.0822067E0,7.0215435E0],"tree_param":{"num_deleted":"0","num_feature":"43","num_nodes":"13","size_leaf_vector":"1"}},{"base_weights":[-2.256506E-2,3.068788E-1,-9.172074E-2,5.5553424E-1,-4.7023973E-1,7.012464E-1,-4.4121048E-1,-6.7896193E-1,3.0270878E-2,9.889654E-2,1.9370963E-1,-6.1759926E-2,-6.276782E-5,-9.892445E-3,-7.7600247E-1,4.0087212E-2,-4.717115E-2,-8.534782E-2,-2.256596E-2],"categories":[],"categories_nodes":[],"categories_segments":[],"categories_sizes":[],"default_left":[0,0,0,0,0,0,0,0,0,0,0,0,0,0,0,0,0,0,0],"id":46,"left_children":[1,3,-1,5,7,9,11,13,-1,-1,15,-1,-1,-1,17,-1,-1,-1,-1],"loss_changes":[1.1838934E1,5.944042E0,0E0,3.6118622E0,1.4430213E0,2.7617579E0,2.7269226E-1,2.8054285E-1,0E0,0E0,1.3691856E0,0E0,0E0,0E0,3.3047915E-2,0E0,0E0,0E0,0E0],"parents":[2147483647,0,0,1,1,3,3,4,4,5,5,6,6,7,7,10,10,14,14],"right_children":[2,4,-1,6,8,10,12,14,-1,-1,16,-1,-1,-1,18,-1,-1,-1,-1],"split_conditions":[6.4E1,3.1678076E3,-9.172074E-2,5.696E4,4.272018E0,1.4803719E7,3.1561E-1,1.9479278E9,3.0270878E-2,9.889654E-2,3.148742E0,-6.1759926E-2,-6.276782E-5,-9.892445E-3,3.789124E0,4.0087212E-2,-4.717115E-2,-8.534782E-2,-2.256596E-2],"split_indices":[10,18,0,35,7,20,4,37,0,0,3,0,0,0,3,0,0,0,0],"split_type":[0,0,0,0,0,0,0,0,0,0,0,0,0,0,0,0,0,0,0],"sum_hessian":[3.8213146E1,2.8408833E1,9.804313E0,2.1738333E1,6.6705003E0,1.9224417E1,2.5139158E0,5.3479643E0,1.3225362E0,1.1663755E1,7.560661E0,1.5082893E0,1.0056264E0,1.055911E0,4.292053E0,6.0688424E0,1.4918183E0,3.279555E0,1.012498E0],"tree_param":{"num_deleted":"0","num_feature":"43","num_nodes":"19","size_leaf_vector":"1"}},{"base_weights":[-2.5595648E-2,2.8949124E-1,-9.085735E-2,6.374326E-1,-2.5348318E-1,8.00237E-1,-3.6604092E-1,1.7665593E-1,-6.369625E-1,9.327032E-1,1.05755426E-1,-5.3561248E-2,-5.659159E-4,5.5292016E-1,-3.4195632E-1,-5.5013667E-3,-7.483163E-2,9.886679E-2,1.4957388E-2,5.997188E-2,-5.309577E-2,9.525772E-2,-7.079165E-3,-6.533671E-4,-5.163039E-2],"categories":[],"categories_nodes":[],"categories_segments":[],"categories_sizes":[],"default_left":[0,0,0,0,0,0,0,0,0,0,0,0,0,0,0,0,0,0,0,0,0,0,0,0,0],"id":47,"left_children":[1,3,-1,5,7,9,11,13,15,17,19,-1,-1,21,23,-1,-1,-1,-1,-1,-1,-1,-1,-1,-1],"loss_changes":[1.0544226E1,5.4502454E0,0E0,3.1266527E0,2.0338957E0,1.3031883E0,1.8686718E-1,1.4131572E0,3.7196302E-1,4.0738297E-1,1.440865E0,0E0,0E0,1.068892E0,1.8700564E-1,0E0,0E0,0E0,0E0,0E0,0E0,0E0,0E0,0E0,0E0],"parents":[2147483647,0,0,1,1,3,3,4,4,5,5,6,6,7,7,8,8,9,9,10,10,13,13,14,14],"right_children":[2,4,-1,6,8,10,12,14,16,18,20,-1,-1,22,24,-1,-1,-1,-1,-1,-1,-1,-1,-1,-1],"split_conditions":[6.4E1,1.8578375E1,-9.085735E-2,5.696E4,2.2382782E1,2.5753797E9,2.99205E-1,5.391054E5,1.114459E0,1.267223E0,1.4791002E7,-5.3561248E-2,-5.659159E-4,1.9654522E5,1.5065422E7,-5.5013667E-3,-7.483163E-2,9.886679E-2,1.4957388E-2,5.997188E-2,-5.309577E-2,9.525772E-2,-7.079165E-3,-6.533671E-4,-5.163039E-2],"split_indices":[10,16,0,35,33,37,2,0,29,7,20,0,0,42,20,0,0,0,0,0,0,0,0,0,0],"split_type":[0,0,0,0,0,0,0,0,0,0,0,0,0,0,0,0,0,0,0,0,0,0,0,0,0],"sum_hessian":[3.5954197E1,2.6993738E1,8.960459E0,1.6345488E1,1.0648252E1,1.4238029E1,2.1074584E0,5.2729964E0,5.3752546E0,1.166921E1,2.5688183E0,1.1024723E0,1.004986E0,3.017548E0,2.2554486E0,1.1033027E0,4.2719517E0,1.0645961E1,1.0232496E0,1.4792867E0,1.0895318E0,1.517747E0,1.4998009E0,1.1262196E0,1.129229E0],"tree_param":{"num_deleted":"0","num_feature":"43","num_nodes":"25","size_leaf_vector":"1"}},{"base_weights":[-2.6330678E-2,2.7658764E-1,-8.994837E-2,4.3964672E-1,-7.8269735E-2,8.2331175E-1,-1.809445E-3,1.0232904E-1,-8.911037E-3,2.663411E-1,-7.298412E-2,5.548903E-2,-5.618733E-2,5.557636E-2,-3.1259514E-2],"categories":[],"categories_nodes":[],"categories_segments":[],"categories_sizes":[],"default_left":[0,0,0,0,0,0,0,0,0,0,0,0,0,0,0],"id":48,"left_children":[1,3,-1,5,-1,7,9,-1,11,13,-1,-1,-1,-1,-1],"loss_changes":[9.449771E0,4.9372215E0,0E0,4.013032E0,0E0,2.1184244E0,2.5391634E0,0E0,1.3863688E0,1.7672653E0,0E0,0E0,0E0,0E0,0E0],"parents":[2147483647,0,0,1,1,3,3,5,5,6,6,8,8,9,9],"right_children":[2,4,-1,6,-1,8,10,-1,12,14,-1,-1,-1,-1,-1],"split_conditions":[6.4E1,5.368707E3,-8.994837E-2,4.2322322E9,-7.8269735E-2,1.4791002E7,5.6832E4,1.0232904E-1,2.5753797E9,4.5443085E1,-7.298412E-2,5.548903E-2,-5.618733E-2,5.557636E-2,-3.1259514E-2],"split_indices":[10,18,0,38,0,20,35,0,37,16,0,0,0,0,0],"split_type":[0,0,0,0,0,0,0,0,0,0,0,0,0,0,0],"sum_hessian":[3.378712E1,2.5591892E1,8.195228E0,2.2684895E1,2.906998E0,1.1674079E1,1.1010815E1,9.227237E0,2.4468427E0,8.510404E0,2.5004108E0,1.2098207E0,1.2370219E0,5.7005863E0,2.8098178E0],"tree_param":{"num_deleted":"0","num_feature":"43","num_nodes":"15","size_leaf_vector":"1"}},{"base_weights":[-2.8815415E-2,3.7316048E-1,-6.572269E-1,-4.8018876E-1,5.9260595E-1,1.8634325E-2,-7.8057694E-1,-7.029972E-2,-1.8442192E-4,7.253228E-1,-3.9143085E-2,-2.1652242E-2,-8.3996855E-2,8.269633E-1,-4.818357E-3,1.8458707E-2,9.871317E-2],"categories":[],"categories_nodes":[],"categories_segments":[],"categories_sizes":[],"default_left":[0,0,0,0,0,0,0,0,0,0,0,0,0,0,0,0,0],"id":49,"left_children":[1,3,5,7,9,-1,11,-1,-1,13,-1,-1,-1,15,-1,-1,-1],"loss_changes":[8.489992E0,4.131613E0,1.5080695E0,5.054524E-1,2.4765048E0,0E0,2.0731115E-1,0E0,0E0,1.2304716E0,0E0,0E0,0E0,1.2006407E0,0E0,0E0,0E0],"parents":[2147483647,0,0,1,1,2,2,3,3,4,4,6,6,9,9,13,13],"right_children":[2,4,6,8,10,-1,12,-1,-1,14,-1,-1,-1,16,-1,-1,-1],"split_conditions":[2.8628594E3,1.9039205E6,2.2001E-2,3.1243522E5,3.256224E0,1.8634325E-2,3.1549765E1,-7.029972E-2,-1.8442192E-4,4.5443085E1,-3.9143085E-2,-2.1652242E-2,-8.3996855E-2,1.2370595E4,-4.818357E-3,1.8458707E-2,9.871317E-2],"split_indices":[18,20,39,23,3,0,32,0,0,16,0,0,0,17,0,0,0],"split_type":[0,0,0,0,0,0,0,0,0,0,0,0,0,0,0,0,0],"sum_hessian":[3.1638702E1,1.9543499E1,1.2095203E1,3.7546687E0,1.578883E1,1.4778373E0,1.0617366E1,2.2411265E0,1.5135424E0,1.4144126E1,1.6447042E0,1.4540079E0,9.163358E0,1.2440328E1,1.7037979E0,2.9123638E0,9.527964E0],"tree_param":{"num_deleted":"0","num_feature":"43","num_nodes":"17","size_leaf_vector":"1"}},{"base_weights":[-2.979567E-2,2.567284E-1,-8.831246E-2,6.1957425E-1,-2.0006365E-1,7.9446954E-1,-3.1276107E-2,1.2122889E-1,-6.102481E-1,9.402361E-2,7.15312E-2,3.3011103E-1,-5.6657072E-2,2.3950327E-3,-7.827853E-2,5.1317383E-2,-4.133448E-2,-1.865019E-2,6.55899E-2],"categories":[],"categories_nodes":[],"categories_segments":[],"categories_sizes":[],"default_left":[0,0,0,0,0,0,0,0,0,0,0,0,0,0,0,0,0,0,0],"id":50,"left_children":[1,3,-1,5,7,9,-1,11,13,-1,15,17,-1,-1,-1,-1,-1,-1,-1],"loss_changes":[7.8215084E0,4.1066756E0,0E0,2.4719448E0,1.5755074E0,1.1724763E0,0E0,1.2247896E0,5.844803E-1,0E0,8.6661625E-1,1.1611886E0,0E0,0E0,0E0,0E0,0E0,0E0,0E0],"parents":[2147483647,0,0,1,1,3,3,4,4,5,5,7,7,8,8,10,10,11,11],"right_children":[2,4,-1,6,8,10,-1,12,14,-1,16,18,-1,-1,-1,-1,-1,-1,-1],"split_conditions":[6.4E1,2.1134746E4,-8.831246E-2,5.696E4,1.5948167E4,2.5753797E9,-3.1276107E-2,5.368707E3,4.166136E4,9.402361E-2,9.823439E6,5.3314977E4,-5.6657072E-2,2.3950327E-3,-7.827853E-2,5.1317383E-2,-4.133448E-2,-1.865019E-2,6.55899E-2],"split_indices":[10,17,0,35,24,37,0,18,17,0,20,17,0,0,0,0,0,0,0],"split_type":[0,0,0,0,0,0,0,0,0,0,0,0,0,0,0,0,0,0,0],"sum_hessian":[3.006261E1,2.3029194E1,7.0334167E0,1.2635787E1,1.0393406E1,1.0764385E1,1.8714018E0,6.2232566E0,4.1701493E0,8.708008E0,2.0563776E0,5.1724505E0,1.050806E0,1.076056E0,3.0940933E0,1.0456244E0,1.0107534E0,2.1657248E0,3.006726E0],"tree_param":{"num_deleted":"0","num_feature":"43","num_nodes":"19","size_leaf_vector":"1"}},{"base_weights":[-3.188358E-2,2.4311829E-1,-8.7271005E-2,9.1020055E-2,-1.5147033E-2,6.6657007E-1,-2.5321585E-1,8.3694145E-2,1.0135835E-3,9.178315E-2,-6.186976E-1,-5.309672E-2,2.7187183E-2,3.3033937E-3,-7.4711174E-2],"categories":[],"categories_nodes":[],"categories_segments":[],"categories_sizes":[],"default_left":[0,0,0,0,0,0,0,0,0,0,0,0,0,0,0],"id":51,"left_children":[1,3,-1,-1,5,7,9,-1,-1,11,13,-1,-1,-1,-1],"loss_changes":[6.995235E0,3.9568958E0,0E0,0E0,3.0062034E0,5.2838635E-1,1.7820339E0,0E0,0E0,1.0313892E0,5.915432E-1,0E0,0E0,0E0,0E0],"parents":[2147483647,0,0,1,1,4,4,5,5,6,6,9,9,10,10],"right_children":[2,4,-1,-1,6,8,10,-1,-1,12,14,-1,-1,-1,-1],"split_conditions":[6.4E1,2.1901E-2,-8.7271005E-2,9.1020055E-2,1.9479278E9,1.5194427E4,1.2749468E3,8.3694145E-2,1.0135835E-3,2.2741204E9,1.6010286E1,-5.309672E-2,2.7187183E-2,3.3033937E-3,-7.4711174E-2],"split_indices":[10,39,0,0,37,24,22,0,0,38,33,0,0,0,0],"split_type":[0,0,0,0,0,0,0,0,0,0,0,0,0,0,0],"sum_hessian":[2.8334848E1,2.1887236E1,6.447612E0,5.404217E0,1.648302E1,3.8004408E0,1.2682579E1,2.7990043E0,1.0014365E0,6.909335E0,5.773244E0,1.1128192E0,5.796516E0,1.0725513E0,4.7006927E0],"tree_param":{"num_deleted":"0","num_feature":"43","num_nodes":"15","size_leaf_vector":"1"}},{"base_weights":[-3.0755293E-2,3.416167E-1,-6.1619365E-1,-4.3781614E-1,5.4948604E-1,1.6225493E-2,-7.4090844E-1,-6.5829724E-2,-1.1472642E-4,8.85794E-1,9.636686E-2,-1.3870204E-2,-7.9729164E-1,9.456523E-2,2.4948748E-2,2.8927815E-1,-5.181515E-2,-2.8370356E-2,-8.662801E-2,7.143252E-2,-5.6447703E-3],"categories":[],"categories_nodes":[],"categories_segments":[],"categories_sizes":[],"default_left":[0,0,0,0,0,0,0,0,0,0,0,0,0,0,0,0,0,0,0,0,0],"id":52,"left_children":[1,3,5,7,9,-1,11,-1,-1,13,15,-1,17,-1,-1,19,-1,-1,-1,-1,-1],"loss_changes":[6.3018494E0,3.1119142E0,1.2094731E0,4.1206378E-1,2.1142468E0,0E0,2.2386742E-1,0E0,0E0,7.498503E-2,1.0118848E0,0E0,6.5897465E-2,0E0,0E0,9.4785E-1,0E0,0E0,0E0,0E0,0E0],"parents":[2147483647,0,0,1,1,2,2,3,3,4,4,6,6,9,9,10,10,12,12,15,15],"right_children":[2,4,6,8,10,-1,12,-1,-1,14,16,-1,18,-1,-1,20,-1,-1,-1,-1,-1],"split_conditions":[2.8628594E3,1.9039205E6,2.2001E-2,2.9845616E5,1.4803719E7,1.6225493E-2,1.6584211E5,-6.5829724E-2,-1.1472642E-4,4.2322322E9,3.148742E0,-1.3870204E-2,1.1949644E4,9.456523E-2,2.4948748E-2,1.9654522E5,-5.181515E-2,-2.8370356E-2,-8.662801E-2,7.143252E-2,-5.6447703E-3],"split_indices":[18,20,39,25,20,0,42,0,0,38,3,0,24,0,0,42,0,0,0,0,0],"split_type":[0,0,0,0,0,0,0,0,0,0,0,0,0,0,0,0,0,0,0,0,0],"sum_hessian":[2.6941853E1,1.6722115E1,1.0219737E1,3.287816E0,1.34342985E1,1.369644E0,8.850093E0,1.8474605E0,1.4403555E0,7.1629963E0,6.2713027E0,1.0538915E0,7.796201E0,6.102744E0,1.0602518E0,5.1757708E0,1.095532E0,1.5286232E0,6.267578E0,1.8433425E0,3.3324285E0],"tree_param":{"num_deleted":"0","num_feature":"43","num_nodes":"21","size_leaf_vector":"1"}},{"base_weights":[-3.0651482E-2,2.2752808E-1,-8.544888E-2,8.245267E-1,-3.4907985E-2,9.3309574E-2,1.7783122E-2,1.6172959E-1,-7.263301E-2,4.4514725E-1,-3.6085832E-1,5.876217E-2,-3.2144286E-2,1.6168576E-2,-5.7195533E-2],"categories":[],"categories_nodes":[],"categories_segments":[],"categories_sizes":[],"default_left":[0,0,0,0,0,0,0,0,0,0,0,0,0,0,0],"id":53,"left_children":[1,3,-1,5,7,-1,-1,9,-1,11,13,-1,-1,-1,-1],"loss_changes":[5.876849E0,3.339459E0,0E0,2.8995848E-1,2.2435822E0,0E0,0E0,2.0850563E0,0E0,1.1578859E0,6.573722E-1,0E0,0E0,0E0,0E0],"parents":[2147483647,0,0,1,1,3,3,4,4,7,7,9,9,10,10],"right_children":[2,4,-1,6,8,-1,-1,10,-1,12,14,-1,-1,-1,-1],"split_conditions":[6.4E1,2.067E-3,-8.544888E-2,4.2322322E9,5.696E4,9.3309574E-2,1.7783122E-2,1.5788673E7,-7.263301E-2,2.5753797E9,1.5347912E1,5.876217E-2,-3.2144286E-2,1.6168576E-2,-5.7195533E-2],"split_indices":[10,40,0,38,35,0,0,20,0,37,33,0,0,0,0],"split_type":[0,0,0,0,0,0,0,0,0,0,0,0,0,0,0],"sum_hessian":[2.5715954E1,2.0130991E1,5.5849633E0,5.4931545E0,1.4637836E1,4.32431E0,1.1688445E0,1.1993132E1,2.6447053E0,7.8720374E0,4.1210938E0,6.835152E0,1.0368854E0,1.2531495E0,2.8679445E0],"tree_param":{"num_deleted":"0","num_feature":"43","num_nodes":"15","size_leaf_vector":"1"}},{"base_weights":[-3.1676497E-2,2.1467936E-1,-8.427834E-2,5.7805365E-1,-2.0249778E-1,7.476864E-1,-2.4995318E-2,2.1527264E-2,-7.1668565E-2,9.023829E-2,2.3199713E-3,2.6464546E-1,-5.6848284E-2,-2.2441773E-2,6.038123E-2],"categories":[],"categories_nodes":[],"categories_segments":[],"categories_sizes":[],"default_left":[0,0,0,0,0,0,0,0,0,0,0,0,0,0,0],"id":54,"left_children":[1,3,-1,5,7,9,-1,11,-1,-1,-1,13,-1,-1,-1],"loss_changes":[5.2674947E0,3.197733E0,0E0,1.7489023E0,1.1905252E0,1.0416026E0,0E0,1.3089359E0,0E0,0E0,0E0,1.1974167E0,0E0,0E0,0E0],"parents":[2147483647,0,0,1,1,3,3,4,4,5,5,7,7,11,11],"right_children":[2,4,-1,6,8,10,-1,12,-1,-1,-1,14,-1,-1,-1],"split_conditions":[6.4E1,2.1134746E4,-8.427834E-2,5.696E4,5.368707E3,2.5753797E9,-2.4995318E-2,2.000061E4,-7.1668565E-2,9.023829E-2,2.3199713E-3,1.4224263E4,-5.6848284E-2,-2.2441773E-2,6.038123E-2],"split_indices":[10,17,0,35,18,37,0,1,0,0,0,1,0,0,0],"split_type":[0,0,0,0,0,0,0,0,0,0,0,0,0,0,0],"sum_hessian":[2.4455624E1,1.9322243E1,5.1333804E0,1.012095E1,9.201294E0,8.480554E0,1.6403958E0,7.076352E0,2.124942E0,6.7860174E0,1.6945362E0,5.40191E0,1.6744424E0,2.3506727E0,3.0512369E0],"tree_param":{"num_deleted":"0","num_feature":"43","num_nodes":"15","size_leaf_vector":"1"}},{"base_weights":[-3.4368627E-2,2.0089303E-1,-8.30621E-2,8.57697E-2,-3.7653454E-2,6.211047E-1,-2.4638006E-1,7.549384E-2,1.1542386E-2,6.0946103E-2,-5.72709E-1,5.7713985E-2,-1.3775785E-2,-7.103521E-2,-2.4886732E-3],"categories":[],"categories_nodes":[],"categories_segments":[],"categories_sizes":[],"default_left":[0,0,0,0,0,0,0,0,0,0,0,0,0,0,0],"id":55,"left_children":[1,3,-1,-1,5,7,9,-1,-1,11,13,-1,-1,-1,-1],"loss_changes":[4.7078085E0,3.0902202E0,0E0,0E0,2.253378E0,1.8082356E-1,1.270051E0,0E0,0E0,8.2276696E-1,4.3998027E-1,0E0,0E0,0E0,0E0],"parents":[2147483647,0,0,1,1,4,4,5,5,6,6,9,9,10,10],"right_children":[2,4,-1,-1,6,8,10,-1,-1,12,14,-1,-1,-1,-1],"split_conditions":[6.4E1,2.1901E-2,-8.30621E-2,8.57697E-2,1.9479278E9,2.3644043E3,1.2749468E3,7.549384E-2,1.1542386E-2,1.9654522E5,7.37823E1,5.7713985E-2,-1.3775785E-2,-7.103521E-2,-2.4886732E-3],"split_indices":[10,39,0,0,37,18,22,0,0,42,32,0,0,0,0],"split_type":[0,0,0,0,0,0,0,0,0,0,0,0,0,0,0],"sum_hessian":[2.3240643E1,1.8517223E1,4.723419E0,4.241991E0,1.4275233E1,2.9594097E0,1.1315824E1,1.9503219E0,1.0090878E0,6.2464004E0,5.069423E0,1.2068139E0,5.039586E0,3.814362E0,1.255061E0],"tree_param":{"num_deleted":"0","num_feature":"43","num_nodes":"15","size_leaf_vector":"1"}},{"base_weights":[-2.9901823E-2,2.962508E-1,-5.953902E-1,-4.382506E-1,4.7575653E-1,-1.8300906E-1,-8.330873E-2,4.342441E-4,-6.1654758E-2,8.029995E-1,6.659462E-2,2.4452342E-2,-5.555662E-2,1.6831597E-2,9.431996E-2,2.651537E-1,-3.4062285E-2,5.5194795E-2,6.980632E-4],"categories":[],"categories_nodes":[],"categories_segments":[],"categories_sizes":[],"default_left":[0,0,0,0,0,0,0,0,0,0,0,0,0,0,0,0,0,0,0],"id":56,"left_children":[1,3,5,7,9,11,-1,-1,-1,13,15,-1,-1,-1,-1,17,-1,-1,-1],"loss_changes":[4.468063E0,2.2422915E0,7.14432E-1,2.8281605E-1,1.6704793E0,8.5503656E-1,0E0,0E0,0E0,4.697652E-1,6.411125E-1,0E0,0E0,0E0,0E0,3.7683478E-1,0E0,0E0,0E0],"parents":[2147483647,0,0,1,1,2,2,3,3,4,4,5,5,9,9,10,10,15,15],"right_children":[2,4,6,8,10,12,-1,-1,-1,14,16,-1,-1,-1,-1,18,-1,-1,-1],"split_conditions":[3.1678076E3,4.728174E3,5.368707E3,2.8261045E3,1.4803719E7,1.6028328E4,-8.330873E-2,4.342441E-4,-6.1654758E-2,5.702813E5,4.5443085E1,2.4452342E-2,-5.555662E-2,1.6831597E-2,9.431996E-2,1.9654522E5,-3.4062285E-2,5.5194795E-2,6.980632E-4],"split_indices":[18,1,18,1,20,24,0,0,0,0,16,0,0,0,0,42,0,0,0],"split_type":[0,0,0,0,0,0,0,0,0,0,0,0,0,0,0,0,0,0,0],"sum_hessian":[2.2269258E1,1.4425363E1,7.843896E0,2.5499697E0,1.1875393E1,3.515234E0,4.328662E0,1.012428E0,1.5375415E0,6.063405E0,5.8119884E0,1.7968729E0,1.7183613E0,1.4952E0,4.568205E0,4.1414723E0,1.6705159E0,1.4229143E0,2.7185583E0],"tree_param":{"num_deleted":"0","num_feature":"43","num_nodes":"19","size_leaf_vector":"1"}},{"base_weights":[-2.9946877E-2,1.913919E-1,-8.098637E-2,5.246227E-1,-2.1809885E-1,6.7466325E-1,-2.1114172E-2,1.2657255E-1,-5.457002E-1,8.4215313E-1,-3.5812703E-3,5.514267E-2,-2.7453974E-1,-7.1947523E-3,-6.5599E-2,9.1127515E-2,2.2314375E-2,1.6530486E-2,-5.7115864E-2],"categories":[],"categories_nodes":[],"categories_segments":[],"categories_sizes":[],"default_left":[0,0,0,0,0,0,0,0,0,0,0,0,0,0,0,0,0,0,0],"id":57,"left_children":[1,3,-1,5,7,9,-1,11,13,15,-1,-1,17,-1,-1,-1,-1,-1,-1],"loss_changes":[4.00954E0,2.5981264E0,0E0,1.2827058E0,1.0709348E0,1.0794492E0,0E0,1.0265422E0,2.0032728E-1,1.0371065E-1,0E0,0E0,5.261472E-1,0E0,0E0,0E0,0E0,0E0,0E0],"parents":[2147483647,0,0,1,1,3,3,4,4,5,5,7,7,8,8,9,9,12,12],"right_children":[2,4,-1,6,8,10,-1,12,14,16,-1,-1,18,-1,-1,-1,-1,-1,-1],"split_conditions":[6.4E1,1.8578375E1,-8.098637E-2,5.696E4,2.2382782E1,2.5753797E9,-2.1114172E-2,1.9654522E5,1.631266E0,1.9985448E3,-3.5812703E-3,5.514267E-2,1.4787905E7,-7.1947523E-3,-6.5599E-2,9.1127515E-2,2.2314375E-2,1.6530486E-2,-5.7115864E-2],"split_indices":[10,16,0,35,33,37,0,42,29,18,0,0,20,0,0,0,0,0,0],"split_type":[0,0,0,0,0,0,0,0,0,0,0,0,0,0,0,0,0,0,0],"sum_hessian":[2.1328861E1,1.7201664E1,4.127197E0,9.328921E0,7.8727436E0,7.817736E0,1.5111854E0,4.1354494E0,3.737294E0,6.1763635E0,1.6413726E0,1.8263031E0,2.3091464E0,1.0177733E0,2.7195206E0,5.1312313E0,1.0451323E0,1.1083381E0,1.2008084E0],"tree_param":{"num_deleted":"0","num_feature":"43","num_nodes":"19","size_leaf_vector":"1"}},{"base_weights":[-3.0515382E-2,1.8297976E-1,-8.108025E-2,7.9645735E-1,-3.410596E-2,1.2665303E-2,9.473681E-2,-5.67022E-1,2.2218283E-1,-9.295373E-3,-6.681638E-2,7.295349E-2,-8.166399E-2,2.562486E-2,-3.2102183E-2],"categories":[],"categories_nodes":[],"categories_segments":[],"categories_sizes":[],"default_left":[0,0,0,0,0,0,0,0,0,0,0,0,0,0,0],"id":58,"left_children":[1,3,-1,5,7,-1,-1,9,11,-1,-1,-1,13,-1,-1],"loss_changes":[3.7065606E0,2.3692954E0,0E0,3.4879422E-1,2.031126E0,0E0,0E0,1.6858578E-1,1.622354E0,0E0,0E0,0E0,6.678234E-1,0E0,0E0],"parents":[2147483647,0,0,1,1,3,3,4,4,7,7,8,8,12,12],"right_children":[2,4,