{"learner":{"attributes":{"scikit_learn":"{\"_estimator_type\": \"classifier\"}"},"feature_names":["X","Seq","Dur","RunTime","Mean","Sum","Min","Max","sTos","dTos","sTtl","dTtl","sHops","dHops","TotPkts","SrcPkts","DstPkts","TotBytes","SrcBytes","DstBytes","Offset","sMeanPktSz","dMeanPktSz","Load","SrcLoad","DstLoad","Loss","SrcLoss","DstLoss","pLoss","SrcGap","DstGap","Rate","SrcRate","DstRate","SrcWin","DstWin","sVid","dVid","SrcTCPBase","DstTCPBase","TcpRtt","SynAck","AckDat","UniqueID"],"feature_types":["int","int","float","float","float","float","float","float","float","float","float","float","float","float","int","int","int","int","int","int","int","float","float","float","float","float","int","int","int","float","float","float","float","float","float","float","float","float","float","float","float","float","float","float","int"],"gradient_booster":{"model":{"cats":{"enc":[],"feature_segments":[],"sorted_idx":[]},"gbtree_model_param":{"num_parallel_tree":"1","num_trees":"100"},"iteration_indptr":[0,1,2,3,4,5,6,7,8,9,10,11,12,13,14,15,16,17,18,19,20,21,22,23,24,25,26,27,28,29,30,31,32,33,34,35,36,37,38,39,40,41,42,43,44,45,46,47,48,49,50,51,52,53,54,55,56,57,58,59,60,61,62,63,64,65,66,67,68,69,70,71,72,73,74,75,76,77,78,79,80,81,82,83,84,85,86,87,88,89,90,91,92,93,94,95,96,97,98,99,100],"tree_info":[0,0,0,0,0,0,0,0,0,0,0,0,0,0,0,0,0,0,0,0,0,0,0,0,0,0,0,0,0,0,0,0,0,0,0,0,0,0,0,0,0,0,0,0,0,0,0,0,0,0,0,0,0,0,0,0,0,0,0,0,0,0,0,0,0,0,0,0,0,0,0,0,0,0,0,0,0,0,0,0,0,0,0,0,0,0,0,0,0,0,0,0,0,0,0,0,0,0,0,0],"trees":[{"base_weights":[1.18244984E-7,7.964095E-1,-2.5307646E0,1.489803E0,-2.4263349E0,-9.616065E-1,-2.5522512E-1,-2.3959963E-2,1.6346717E-1,1.21326484E-1,-2.5410485E-1,-1.603327E-1,1.3922095E-2,1.5758829E-1,-2.3670231E-1],"categories":[],"categories_nodes":[],"categories_segments":[],"categories_sizes":[],"default_left":[0,0,0,0,0,0,0,0,0,0,0,0,0,0,0],"id":0,"left_children":[1,3,5,7,9,11,-1,13,-1,-1,-1,-1,-1,-1,-1],"loss_changes":[1.5503702E3,1.3110771E3,3.753662E0,1.0576526E2,4.6494568E1,3.1136806E0,0E0,1.6527138E2,0E0,0E0,0E0,0E0,0E0,0E0,0E0],"parents":[2147483647,0,0,1,1,2,2,3,3,4,4,5,5,7,7],"right_children":[2,4,6,8,10,12,-1,14,-1,-1,-1,-1,-1,-1,-1],"split_conditions":[6.6824E4,6.4E1,6.8398E4,6.3E1,5.8E1,6.2E1,-2.5522512E-1,6E1,1.6346717E-1,1.21326484E-1,-2.5410485E-1,-1.603327E-1,1.3922095E-2,1.5758829E-1,-2.3670231E-1],"split_indices":[1,10,1,10,21,10,0,18,0,0,0,0,0,0,0],"split_type":[0,0,0,0,0,0,0,0,0,0,0,0,0,0,0],"sum_hessian":[7.6721423E2,5.840912E2,1.8312305E2,4.811142E2,1.0297699E2,3.091688E0,1.8003136E2,4.209452E1,4.3901968E2,2.8538656E0,1.0012312E2,1.664755E0,1.4269328E0,2.5209146E1,1.6885372E1],"tree_param":{"num_deleted":"0","num_feature":"45","num_nodes":"15","size_leaf_vector":"1"}},{"base_weights":[3.6881443E-3,7.38714E-1,-2.1850147E0,1.398061E0,-2.0975397E0,-8.904202E-1,-2.2018337E-1,-1.9761011E-2,1.5384656E-1,1.1500875E-1,-2.1938948E-1,-1.474283E-1,1.3128841E-2,1.4840102E-1,-2.0618217E-1],"categories":[],"categories_nodes":[],"categories_segments":[],"categories_sizes":[],"default_left":[0,0,0,0,0,0,0,0,0,0,0,0,0,0,0],"id":1,"left_children":[1,3,5,7,9,11,-1,13,-1,-1,-1,-1,-1,-1,-1],"loss_changes":[1.2262374E3,1.0699983E3,2.211853E0,9.231323E1,3.632782E1,2.661184E0,0E0,1.3435977E2,0E0,0E0,0E0,0E0,0E0,0E0,0E0],"parents":[2147483647,0,0,1,1,2,2,3,3,4,4,5,5,7,7],"right_children":[2,4,6,8,10,12,-1,14,-1,-1,-1,-1,-1,-1,-1],"split_conditions":[6.6824E4,6.4E1,6.8398E4,6.3E1,5.8E1,6.2E1,-2.2018337E-1,6E1,1.5384656E-1,1.1500875E-1,-2.1938948E-1,-1.474283E-1,1.3128841E-2,1.4840102E-1,-2.0618217E-1],"split_indices":[1,10,1,10,21,10,0,18,0,0,0,0,0,0,0],"split_type":[0,0,0,0,0,0,0,0,0,0,0,0,0,0,0],"sum_hessian":[7.6022516E2,5.696004E2,1.9062477E2,4.6257266E2,1.07027725E2,3.1365833E0,1.8748819E2,4.1757698E1,4.2081497E2,2.7688417E0,1.0425889E2,1.7140937E0,1.4224895E0,2.4205832E1,1.7551868E1],"tree_param":{"num_deleted":"0","num_feature":"45","num_nodes":"15","size_leaf_vector":"1"}},{"base_weights":[5.7619875E-3,6.9355744E-1,-1.9491105E0,1.3245689E0,-1.8720385E0,-3.5910316E-2,-1.9573383E-1,-1.694395E-2,1.4611632E-1,1.0946273E-1,-1.9570093E-1,1.4090016E-1,-1.8456133E-1],"categories":[],"categories_nodes":[],"categories_segments":[],"categories_sizes":[],"default_left":[0,0,0,0,0,0,0,0,0,0,0,0,0],"id":2,"left_children":[1,3,5,7,9,-1,-1,11,-1,-1,-1,-1,-1],"loss_changes":[9.989916E2,8.922556E2,1.8269653E0,8.0963745E1,2.9595642E1,0E0,0E0,1.11615715E2,0E0,0E0,0E0,0E0,0E0],"parents":[2147483647,0,0,1,1,2,2,3,3,4,4,7,7],"right_children":[2,4,6,8,10,-1,-1,12,-1,-1,-1,-1,-1],"split_conditions":[6.6824E4,6.4E1,2.32752E5,6.3E1,5.8E1,-3.5910316E-2,-1.9573383E-1,6E1,1.4611632E-1,1.0946273E-1,-1.9570093E-1,1.4090016E-1,-1.8456133E-1],"split_indices":[1,10,0,10,21,0,0,18,0,0,0,0,0],"split_type":[0,0,0,0,0,0,0,0,0,0,0,0,0],"sum_hessian":[7.4098663E2,5.4861066E2,1.9237602E2,4.4070294E2,1.07907715E2,1.2202084E0,1.911558E2,4.080701E1,3.9989594E2,2.6737616E0,1.05233955E2,2.3057165E1,1.7749844E1],"tree_param":{"num_deleted":"0","num_feature":"45","num_nodes":"13","size_leaf_vector":"1"}},{"base_weights":[7.112051E-3,6.573415E-1,-1.7767935E0,1.2645502E0,-1.7076247E0,-7.0844823E-1,-1.7912427E-1,-1.4939244E-2,1.3979243E-1,1.0453551E-1,-1.7850332E-1,-1.2680343E-1,2.0560509E-2,1.3466194E-1,-1.6839804E-1],"categories":[],"categories_nodes":[],"categories_segments":[],"categories_sizes":[],"default_left":[0,0,0,0,0,0,0,0,0,0,0,0,0,0,0],"id":3,"left_children":[1,3,5,7,9,11,-1,13,-1,-1,-1,-1,-1,-1,-1],"loss_changes":[8.299669E2,7.5517816E2,1.6815186E0,7.132251E1,2.4786224E1,2.41148E0,0E0,9.4148705E1,0E0,0E0,0E0,0E0,0E0,0E0,0E0],"parents":[2147483647,0,0,1,1,2,2,3,3,4,4,5,5,7,7],"right_children":[2,4,6,8,10,12,-1,14,-1,-1,-1,-1,-1,-1,-1],"split_conditions":[6.6824E4,6.4E1,6.8398E4,6.3E1,5.8E1,6.2E1,-1.7912427E-1,6E1,1.3979243E-1,1.0453551E-1,-1.7850332E-1,-1.2680343E-1,2.0560509E-2,1.3466194E-1,-1.6839804E-1],"split_indices":[1,10,1,10,21,10,0,18,0,0,0,0,0,0,0],"split_type":[0,0,0,0,0,0,0,0,0,0,0,0,0,0,0],"sum_hessian":[7.13514E2,5.233761E2,1.9013786E2,4.1682178E2,1.0655432E2,3.2048905E0,1.8693297E2,3.9431744E1,3.7739E2,2.5721765E0,1.0398215E2,1.7476866E0,1.4572039E0,2.182262E1,1.7609125E1],"tree_param":{"num_deleted":"0","num_feature":"45","num_nodes":"15","size_leaf_vector":"1"}},{"base_weights":[7.844587E-3,6.2773126E-1,-1.6468582E0,1.2147607E0,-1.5825225E0,-6.6500694E-1,-1.660362E-1,-1.3444523E-2,1.3454323E-1,1.0011081E-1,-1.654702E-1,-1.19097106E-1,1.9383278E-2,1.2939088E-1,-1.5582619E0,-4.837071E-2,-1.6064511E-1],"categories":[],"categories_nodes":[],"categories_segments":[],"categories_sizes":[],"default_left":[0,0,0,0,0,0,0,0,0,0,0,0,0,0,0,0,0],"id":4,"left_children":[1,3,5,7,9,11,-1,13,-1,-1,-1,-1,-1,-1,15,-1,-1],"loss_changes":[7.001413E2,6.4618713E2,1.3623047E0,6.3076965E1,2.1170044E1,2.1243825E0,0E0,8.032307E1,0E0,0E0,0E0,0E0,0E0,0E0,1.6673279E-1,0E0,0E0],"parents":[2147483647,0,0,1,1,2,2,3,3,4,4,5,5,7,7,14,14],"right_children":[2,4,6,8,10,12,-1,14,-1,-1,-1,-1,-1,-1,16,-1,-1],"split_conditions":[6.6824E4,6.4E1,6.8398E4,6.3E1,5.8E1,6.2E1,-1.660362E-1,6E1,1.3454323E-1,1.0011081E-1,-1.654702E-1,-1.19097106E-1,1.9383278E-2,1.2939088E-1,2.6802E4,-4.837071E-2,-1.6064511E-1],"split_indices":[1,10,1,10,21,10,0,18,0,0,0,0,0,0,0,0,0],"split_type":[0,0,0,0,0,0,0,0,0,0,0,0,0,0,0,0,0],"sum_hessian":[6.805719E2,4.955493E2,1.8502261E2,3.919107E2,1.03638596E2,3.19184E0,1.8183076E2,3.7773003E1,3.541377E2,2.4669075E0,1.0117169E2,1.739703E0,1.4521369E0,2.054691E1,1.7226091E1,1.213105E0,1.6012987E1],"tree_param":{"num_deleted":"0","num_feature":"45","num_nodes":"17","size_leaf_vector":"1"}},{"base_weights":[8.19186E-3,6.0301393E-1,-1.5451691E0,1.172739E0,-1.4842684E0,-2.555257E-2,-1.552508E-1,-1.3718026E-2,1.3013342E-1,9.609889E-2,-1.5527585E-1,1.24874294E-1,-1.4596078E0,-4.1554574E-2,-1.5089944E-1],"categories":[],"categories_nodes":[],"categories_segments":[],"categories_sizes":[],"default_left":[0,0,0,0,0,0,0,0,0,0,0,0,0,0,0],"id":5,"left_children":[1,3,5,7,9,-1,-1,11,-1,-1,-1,-1,13,-1,-1],"loss_changes":[5.972019E2,5.5751733E2,1.2972107E0,5.6119873E1,1.8349426E1,0E0,0E0,6.926423E1,0E0,0E0,0E0,0E0,2.8474045E-1,0E0,0E0],"parents":[2147483647,0,0,1,1,2,2,3,3,4,4,7,7,12,12],"right_children":[2,4,6,8,10,-1,-1,12,-1,-1,-1,-1,14,-1,-1],"split_conditions":[6.6824E4,6.4E1,2.32752E5,6.3E1,5.8E1,-2.555257E-2,-1.552508E-1,6E1,1.3013342E-1,9.609889E-2,-1.5527585E-1,1.24874294E-1,5.3E1,-4.1554574E-2,-1.5089944E-1],"split_indices":[1,10,0,10,21,0,0,18,0,0,0,0,10,0,0],"split_type":[0,0,0,0,0,0,0,0,0,0,0,0,0,0,0],"sum_hessian":[6.4433264E2,4.6636227E2,1.7797037E2,3.667074E2,9.965489E1,1.2097083E0,1.7676065E2,3.5946594E1,3.307608E2,2.3601694E0,9.729472E1,1.9263369E1,1.6683226E1,1.1787097E0,1.5504515E1],"tree_param":{"num_deleted":"0","num_feature":"45","num_nodes":"15","size_leaf_vector":"1"}},{"base_weights":[8.474945E-3,5.8220255E-1,-1.4626602E0,1.1370004E0,-1.4051782E0,-5.4060656E-1,-1.4767797E-1,-1.404158E-2,1.2639117E-1,9.242973E-2,-1.4710584E-1,-1.06448986E-1,2.4803614E-2,1.20954715E-1,-1.3781545E0,-1.4264286E-1,-3.8513567E-2],"categories":[],"categories_nodes":[],"categories_segments":[],"categories_sizes":[],"default_left":[0,0,0,0,0,0,0,0,0,0,0,0,0,0,0,0,0],"id":6,"left_children":[1,3,5,7,9,11,-1,13,-1,-1,-1,-1,-1,-1,15,-1,-1],"loss_changes":[5.135323E2,4.8421533E2,1.4240723E0,5.0085144E1,1.6088165E1,1.9795024E0,0E0,6.012896E1,0E0,0E0,0E0,0E0,0E0,0E0,2.6696777E-1,0E0,0E0],"parents":[2147483647,0,0,1,1,2,2,3,3,4,4,5,5,7,7,14,14],"right_children":[2,4,6,8,10,12,-1,14,-1,-1,-1,-1,-1,-1,16,-1,-1],"split_conditions":[6.6824E4,6.4E1,6.8398E4,6.3E1,5.8E1,6.2E1,-1.4767797E-1,6E1,1.2639117E-1,9.242973E-2,-1.4710584E-1,-1.06448986E-1,2.4803614E-2,1.20954715E-1,7E0,-1.4264286E-1,-3.8513567E-2],"split_indices":[1,10,1,10,21,10,0,18,0,0,0,0,0,0,12,0,0],"split_type":[0,0,0,0,0,0,0,0,0,0,0,0,0,0,0,0,0],"sum_hessian":[6.0641943E2,4.367109E2,1.6970851E2,3.4173886E2,9.4972046E1,3.152106E0,1.6655641E2,3.4025795E1,3.0771304E2,2.2536788E0,9.271837E1,1.6838055E0,1.4683007E0,1.7996506E1,1.6029287E1,1.486995E1,1.1593363E0],"tree_param":{"num_deleted":"0","num_feature":"45","num_nodes":"17","size_leaf_vector":"1"}},{"base_weights":[8.5136015E-3,5.6447935E-1,-1.3959031E0,1.1063093E0,-1.3402395E0,-5.1178765E-1,-1.4100233E-1,-1.4467064E-2,1.2318796E-1,8.904807E-2,-1.404305E-1,-1.01229385E-1,2.3376655E-2,1.1751292E-1,-1.3098683E0,-3.3875998E-2,-1.3596337E-1],"categories":[],"categories_nodes":[],"categories_segments":[],"categories_sizes":[],"default_left":[0,0,0,0,0,0,0,0,0,0,0,0,0,0,0,0,0],"id":7,"left_children":[1,3,5,7,9,11,-1,13,-1,-1,-1,-1,-1,-1,15,-1,-1],"loss_changes":[4.4496747E2,4.228121E2,1.2960205E0,4.482614E1,1.4236389E1,1.7704632E0,0E0,5.2493973E1,0E0,0E0,0E0,0E0,0E0,0E0,3.2724E-1,0E0,0E0],"parents":[2147483647,0,0,1,1,2,2,3,3,4,4,5,5,7,7,14,14],"right_children":[2,4,6,8,10,12,-1,14,-1,-1,-1,-1,-1,-1,16,-1,-1],"split_conditions":[6.6824E4,6.4E1,6.8398E4,6.3E1,5.8E1,6.2E1,-1.4100233E-1,6E1,1.2318796E-1,8.904807E-2,-1.404305E-1,-1.01229385E-1,2.3376655E-2,1.1751292E-1,2.6802E4,-3.3875998E-2,-1.3596337E-1],"split_indices":[1,10,1,10,21,10,0,18,0,0,0,0,0,0,0,0,0],"split_type":[0,0,0,0,0,0,0,0,0,0,0,0,0,0,0,0,0],"sum_hessian":[5.6787195E2,4.0725153E2,1.6062039E2,3.1738507E2,8.9866455E1,3.110423E0,1.5750996E2,3.2065907E1,2.8531915E2,2.1487422E0,8.771772E1,1.6469903E0,1.4634327E0,1.6763996E1,1.530191E1,1.1265126E0,1.4175398E1],"tree_param":{"num_deleted":"0","num_feature":"45","num_nodes":"17","size_leaf_vector":"1"}},{"base_weights":[8.46356E-3,5.492394E-1,-1.3404206E0,1.0797247E0,-1.2860353E0,-4.8560876E-1,-1.3547288E-1,-1.4909421E-2,1.2042564E-1,8.5909985E-2,-1.3488959E-1,1.8444112E-2,-1.030929E-1,1.14456646E-1,-1.2513782E0,-1.3016427E-1,-3.1255584E-2],"categories":[],"categories_nodes":[],"categories_segments":[],"categories_sizes":[],"default_left":[0,0,0,0,0,0,0,0,0,0,0,0,0,0,0,0,0],"id":8,"left_children":[1,3,5,7,9,11,-1,13,-1,-1,-1,-1,-1,-1,15,-1,-1],"loss_changes":[3.877765E2,3.7082712E2,1.2028503E0,4.022003E1,1.2694092E1,1.6748395E0,0E0,4.603625E1,0E0,0E0,0E0,0E0,0E0,0E0,3.2619667E-1,0E0,0E0],"parents":[2147483647,0,0,1,1,2,2,3,3,4,4,5,5,7,7,14,14],"right_children":[2,4,6,8,10,12,-1,14,-1,-1,-1,-1,-1,-1,16,-1,-1],"split_conditions":[6.6824E4,6.4E1,6.8398E4,6.3E1,5.8E1,3.32701E5,-1.3547288E-1,6E1,1.2042564E-1,8.5909985E-2,-1.3488959E-1,1.8444112E-2,-1.030929E-1,1.14456646E-1,7E0,-1.3016427E-1,-3.1255584E-2],"split_indices":[1,10,1,10,21,0,0,18,0,0,0,0,0,0,12,0,0],"split_type":[0,0,0,0,0,0,0,0,0,0,0,0,0,0,0,0,0],"sum_hessian":[5.2959625E2,3.7846155E2,1.5113472E2,2.9391675E2,8.4544815E1,3.0632932E0,1.4807143E2,3.0112051E1,2.638047E2,2.0463362E0,8.2498474E1,1.671388E0,1.3919053E0,1.5578203E1,1.4533848E1,1.3428428E1,1.1054205E0],"tree_param":{"num_deleted":"0","num_feature":"45","num_nodes":"17","size_leaf_vector":"1"}},{"base_weights":[8.325767E-3,5.3601635E-1,-1.2935297E0,1.0565137E0,-1.2401487E0,-4.6131206E-1,-1.3083328E-1,-1.5398917E-2,1.1802784E-1,8.298026E-2,-1.3022907E-1,-9.4583474E-2,2.338623E-2,1.117134E-1,-1.2006278E0,-2.720186E-2,-1.2534331E-1],"categories":[],"categories_nodes":[],"categories_segments":[],"categories_sizes":[],"default_left":[0,0,0,0,0,0,0,0,0,0,0,0,0,0,0,0,0],"id":9,"left_children":[1,3,5,7,9,11,-1,13,-1,-1,-1,-1,-1,-1,15,-1,-1],"loss_changes":[3.395291E2,3.2642932E2,1.1526184E0,3.6171204E1,1.1391777E1,1.5806258E0,0E0,4.053007E1,0E0,0E0,0E0,0E0,0E0,0E0,3.8219833E-1,0E0,0E0],"parents":[2147483647,0,0,1,1,2,2,3,3,4,4,5,5,7,7,14,14],"right_children":[2,4,6,8,10,12,-1,14,-1,-1,-1,-1,-1,-1,16,-1,-1],"split_conditions":[6.6824E4,6.4E1,6.8398E4,6.3E1,5.8E1,6.2E1,-1.3083328E-1,6E1,1.1802784E-1,8.298026E-2,-1.3022907E-1,-9.4583474E-2,2.338623E-2,1.117134E-1,2.6802E4,-2.720186E-2,-1.2534331E-1],"split_indices":[1,10,1,10,21,10,0,18,0,0,0,0,0,0,0,0,0],"split_type":[0,0,0,0,0,0,0,0,0,0,0,0,0,0,0,0,0],"sum_hessian":[4.9222733E2,3.5067426E2,1.4155309E2,2.7151358E2,7.916069E1,3.0359824E0,1.385171E2,2.8195038E1,2.4331853E2,1.9471669E0,7.7213524E1,1.5765713E0,1.4594109E0,1.4447416E1,1.37476225E1,1.0706685E0,1.2676954E1],"tree_param":{"num_deleted":"0","num_feature":"45","num_nodes":"17","size_leaf_vector":"1"}},{"base_weights":[8.158696E-3,5.244531E-1,-1.2536594E0,1.0361015E0,-1.2008202E0,-4.3900594E-1,-1.2689759E-1,-1.5866691E-2,1.15934215E-1,8.02305E-2,-1.2626432E-1,1.9084277E-2,-9.664828E-2,1.09225094E-1,-1.1557773E0,-2.4196338E-2,-1.2107047E-1],"categories":[],"categories_nodes":[],"categories_segments":[],"categories_sizes":[],"default_left":[0,0,0,0,0,0,0,0,0,0,0,0,0,0,0,0,0],"id":10,"left_children":[1,3,5,7,9,11,-1,13,-1,-1,-1,-1,-1,-1,15,-1,-1],"loss_changes":[2.984774E2,2.882359E2,1.1028595E0,3.2596985E1,1.0279518E1,1.5080469E0,0E0,3.5795265E1,0E0,0E0,0E0,0E0,0E0,0E0,4.0784454E-1,0E0,0E0],"parents":[2147483647,0,0,1,1,2,2,3,3,4,4,5,5,7,7,14,14],"right_children":[2,4,6,8,10,12,-1,14,-1,-1,-1,-1,-1,-1,16,-1,-1],"split_conditions":[6.6824E4,6.4E1,6.8398E4,6.3E1,5.8E1,3.32701E5,-1.2689759E-1,6E1,1.15934215E-1,8.02305E-2,-1.2626432E-1,1.9084277E-2,-9.664828E-2,1.09225094E-1,5.3E1,-2.4196338E-2,-1.2107047E-1],"split_indices":[1,10,1,10,21,0,0,18,0,0,0,0,0,0,10,0,0],"split_type":[0,0,0,0,0,0,0,0,0,0,0,0,0,0,0,0,0],"sum_hessian":[4.5615085E2,3.2411716E2,1.320337E2,2.5029033E2,7.382683E1,2.9839814E0,1.2904973E2,2.6338577E1,2.2395175E2,1.8517265E0,7.1975105E1,1.6508884E0,1.333093E0,1.3376738E1,1.296184E1,1.0414023E0,1.1920437E1],"tree_param":{"num_deleted":"0","num_feature":"45","num_nodes":"17","size_leaf_vector":"1"}},{"base_weights":[7.929924E-3,5.142643E-1,-1.2191659E0,1.0180253E0,-1.166734E0,-4.1828948E-1,-1.2352735E-1,-1.6324619E-2,1.14096425E-1,7.7637754E-2,-1.2285767E-1,-8.899578E-2,2.3282446E-2,1.0694474E-1,-1.1156706E0,-2.1383353E-2,-1.1733196E-1],"categories":[],"categories_nodes":[],"categories_segments":[],"categories_sizes":[],"default_left":[0,0,0,0,0,0,0,0,0,0,0,0,0,0,0,0,0],"id":11,"left_children":[1,3,5,7,9,11,-1,13,-1,-1,-1,-1,-1,-1,15,-1,-1],"loss_changes":[2.632601E2,2.5517805E2,1.0799103E0,2.9432358E1,9.320435E0,1.4209538E0,0E0,3.1700068E1,0E0,0E0,0E0,0E0,0E0,0E0,4.348011E-1,0E0,0E0],"parents":[2147483647,0,0,1,1,2,2,3,3,4,4,5,5,7,7,14,14],"right_children":[2,4,6,8,10,12,-1,14,-1,-1,-1,-1,-1,-1,16,-1,-1],"split_conditions":[6.6824E4,6.4E1,6.8398E4,6.3E1,5.8E1,6.2E1,-1.2352735E-1,6E1,1.14096425E-1,7.7637754E-2,-1.2285767E-1,-8.899578E-2,2.3282446E-2,1.0694474E-1,2.6802E4,-2.1383353E-2,-1.1733196E-1],"split_indices":[1,10,1,10,21,10,0,18,0,0,0,0,0,0,0,0,0],"split_type":[0,0,0,0,0,0,0,0,0,0,0,0,0,0,0,0,0],"sum_hessian":[4.217013E2,2.9893372E2,1.2276757E2,2.3030914E2,6.862457E1,2.9521692E0,1.1981541E2,2.4557909E1,2.0575124E2,1.7603369E0,6.6864235E1,1.4992709E0,1.4528984E0,1.2368915E1,1.2188994E1,1.0152992E0,1.1173696E1],"tree_param":{"num_deleted":"0","num_feature":"45","num_nodes":"17","size_leaf_vector":"1"}},{"base_weights":[7.6879035E-3,5.052214E-1,-1.1892767E0,1.0019089E0,-1.1368853E0,-3.9908516E-1,-1.2061727E-1,-1.676163E-2,1.1247523E-1,7.518329E-2,-1.199042E-1,1.9534742E-2,-9.120452E-2,1.0483374E-1,-1.0793282E0,-2.0404479E-2,-1.138505E-1],"categories":[],"categories_nodes":[],"categories_segments":[],"categories_sizes":[],"default_left":[0,0,0,0,0,0,0,0,0,0,0,0,0,0,0,0,0],"id":12,"left_children":[1,3,5,7,9,11,-1,13,-1,-1,-1,-1,-1,-1,15,-1,-1],"loss_changes":[2.3286946E2,2.264159E2,1.0515137E0,2.6622269E1,8.486572E0,1.3667634E0,0E0,2.813879E1,0E0,0E0,0E0,0E0,0E0,0E0,4.1197395E-1,0E0,0E0],"parents":[2147483647,0,0,1,1,2,2,3,3,4,4,5,5,7,7,14,14],"right_children":[2,4,6,8,10,12,-1,14,-1,-1,-1,-1,-1,-1,16,-1,-1],"split_conditions":[6.6824E4,6.4E1,6.8398E4,6.3E1,5.8E1,3.32701E5,-1.2061727E-1,6E1,1.1247523E-1,7.518329E-2,-1.199042E-1,1.9534742E-2,-9.120452E-2,1.0483374E-1,2.6802E4,-2.0404479E-2,-1.138505E-1],"split_indices":[1,10,1,10,21,0,0,18,0,0,0,0,0,0,0,0,0],"split_type":[0,0,0,0,0,0,0,0,0,0,0,0,0,0,0,0,0],"sum_hessian":[3.8901996E2,2.752053E2,1.1381466E2,2.1159431E2,6.3610992E1,2.8980615E0,1.10916595E2,2.286354E1,1.8873077E2,1.6731834E0,6.193781E1,1.6292346E0,1.268827E0,1.1424851E1,1.1438688E1,1.0060625E0,1.0432626E1],"tree_param":{"num_deleted":"0","num_feature":"45","num_nodes":"17","size_leaf_vector":"1"}},{"base_weights":[7.3884437E-3,4.9713334E-1,-1.1628978E0,9.874374E-1,-1.1104913E0,-3.8127565E-1,-1.18085675E-1,-1.7232126E-2,1.1103838E-1,7.285181E-2,-1.173224E-1,-8.420961E-2,2.3091795E-2,1.0286013E-1,-1.0461457E0,-2.3294402E-2,-1.10906355E-1],"categories":[],"categories_nodes":[],"categories_segments":[],"categories_sizes":[],"default_left":[0,0,0,0,0,0,0,0,0,0,0,0,0,0,0,0,0],"id":13,"left_children":[1,3,5,7,9,11,-1,13,-1,-1,-1,-1,-1,-1,15,-1,-1],"loss_changes":[2.0648021E2,2.0127826E2,1.0417175E0,2.4122986E1,7.7564163E0,1.2845571E0,0E0,2.5030838E1,0E0,0E0,0E0,0E0,0E0,0E0,3.4116077E-1,0E0,0E0],"parents":[2147483647,0,0,1,1,2,2,3,3,4,4,5,5,7,7,14,14],"right_children":[2,4,6,8,10,12,-1,14,-1,-1,-1,-1,-1,-1,16,-1,-1],"split_conditions":[6.6824E4,6.4E1,6.8398E4,6.3E1,5.8E1,6.2E1,-1.18085675E-1,6E1,1.1103838E-1,7.285181E-2,-1.173224E-1,-8.420961E-2,2.3091795E-2,1.0286013E-1,5.4E1,-2.3294402E-2,-1.10906355E-1],"split_indices":[1,10,1,10,21,10,0,18,0,0,0,0,0,0,10,0,0],"split_type":[0,0,0,0,0,0,0,0,0,0,0,0,0,0,0,0,0],"sum_hessian":[3.5825162E2,2.529652E2,1.0528643E2,1.9414066E2,5.882454E1,2.864084E0,1.0242235E2,2.1261307E1,1.7287935E2,1.5903486E0,5.723419E1,1.4198054E0,1.4442785E0,1.0544109E1,1.0717197E1,1.1073431E0,9.609855E0],"tree_param":{"num_deleted":"0","num_feature":"45","num_nodes":"17","size_leaf_vector":"1"}},{"base_weights":[7.0682764E-3,4.898189E-1,-1.1396712E0,9.742996E-1,-1.0869318E0,-3.6461E-1,-1.15868166E-1,-1.7893992E-2,1.0975915E-1,7.063078E-2,-1.1504785E-1,1.9832311E-2,-8.651894E-2,1.009972E-1,-1.0152609E0,-2.221169E-2,-1.0802523E-1],"categories":[],"categories_nodes":[],"categories_segments":[],"categories_sizes":[],"default_left":[0,0,0,0,0,0,0,0,0,0,0,0,0,0,0,0,0],"id":14,"left_children":[1,3,5,7,9,11,-1,13,-1,-1,-1,-1,-1,-1,15,-1,-1],"loss_changes":[1.8346652E2,1.7921594E2,1.0242233E0,2.1907944E1,7.1130676E0,1.2451544E0,0E0,2.2308275E1,0E0,0E0,0E0,0E0,0E0,0E0,3.2890034E-1,0E0,0E0],"parents":[2147483647,0,0,1,1,2,2,3,3,4,4,5,5,7,7,14,14],"right_children":[2,4,6,8,10,12,-1,14,-1,-1,-1,-1,-1,-1,16,-1,-1],"split_conditions":[6.6824E4,6.4E1,6.8398E4,6.3E1,5.8E1,3.32701E5,-1.15868166E-1,6E1,1.0975915E-1,7.063078E-2,-1.1504785E-1,1.9832311E-2,-8.651894E-2,1.009972E-1,5.4E1,-2.221169E-2,-1.0802523E-1],"split_indices":[1,10,1,10,21,0,0,18,0,0,0,0,0,0,10,0,0],"split_type":[0,0,0,0,0,0,0,0,0,0,0,0,0,0,0,0,0],"sum_hessian":[3.294044E2,2.3221861E2,9.718577E1,1.7792923E2,5.428939E1,2.8097765E0,9.437599E1,1.9760565E1,1.5816867E2,1.5118334E0,5.2777557E1,1.6067256E0,1.203051E0,9.7252655E0,1.0035298E1,1.0946013E0,8.940697E0],"tree_param":{"num_deleted":"0","num_feature":"45","num_nodes":"17","size_leaf_vector":"1"}},{"base_weights":[6.691016E-3,4.8317614E-1,-1.1187844E0,9.62329E-1,-1.0657077E0,-3.4920612E-1,-1.139132E-1,-1.8569786E-2,1.08615115E-1,6.850981E-2,-1.13028884E-1,-8.00434E-2,2.2834813E-2,9.9222526E-2,-9.864363E-1,-2.1180887E-2,-1.0537689E-1],"categories":[],"categories_nodes":[],"categories_segments":[],"categories_sizes":[],"default_left":[0,0,0,0,0,0,0,0,0,0,0,0,0,0,0,0,0],"id":15,"left_children":[1,3,5,7,9,11,-1,13,-1,-1,-1,-1,-1,-1,15,-1,-1],"loss_changes":[1.6330342E2,1.5979507E2,1.0205536E0,1.9928467E1,6.543007E0,1.1666332E0,0E0,1.9914286E1,0E0,0E0,0E0,0E0,0E0,0E0,3.1867123E-1,0E0,0E0],"parents":[2147483647,0,0,1,1,2,2,3,3,4,4,5,5,7,7,14,14],"right_children":[2,4,6,8,10,12,-1,14,-1,-1,-1,-1,-1,-1,16,-1,-1],"split_conditions":[6.6824E4,6.4E1,6.8398E4,6.3E1,5.8E1,6.2E1,-1.139132E-1,6E1,1.08615115E-1,6.850981E-2,-1.13028884E-1,-8.00434E-2,2.2834813E-2,9.9222526E-2,5.4E1,-2.1180887E-2,-1.0537689E-1],"split_indices":[1,10,1,10,21,10,0,18,0,0,0,0,0,0,10,0,0],"split_type":[0,0,0,0,0,0,0,0,0,0,0,0,0,0,0,0,0],"sum_hessian":[3.0250787E2,2.1293126E2,8.957661E1,1.629124E2,5.001885E1,2.7752233E0,8.6801384E1,1.8355246E1,1.4455716E2,1.4375765E0,4.8581272E1,1.3413552E0,1.433868E0,8.966197E0,9.389049E0,1.0823915E0,8.306657E0],"tree_param":{"num_deleted":"0","num_feature":"45","num_nodes":"17","size_leaf_vector":"1"}},{"base_weights":[6.3056345E-3,4.7709766E-1,-1.1001201E0,9.513407E-1,-1.0464112E0,-3.346564E-1,-1.1217898E-1,-1.9254362E-2,1.0758736E-1,6.648032E-2,-1.1122338E-1,2.0006116E-2,-8.242007E-2,9.7517096E-2,-9.5927376E-1,-1.9573478E-2,-1.033533E-1],"categories":[],"categories_nodes":[],"categories_segments":[],"categories_sizes":[],"default_left":[0,0,0,0,0,0,0,0,0,0,0,0,0,0,0,0,0],"id":16,"left_children":[1,3,5,7,9,11,-1,13,-1,-1,-1,-1,-1,-1,15,-1,-1],"loss_changes":[1.4558795E2,1.4264986E2,1.008461E0,1.8156174E1,6.0353737E0,1.1391836E0,0E0,1.7802843E1,0E0,0E0,0E0,0E0,0E0,0E0,3.5222435E-1,0E0,0E0],"parents":[2147483647,0,0,1,1,2,2,3,3,4,4,5,5,7,7,14,14],"right_children":[2,4,6,8,10,12,-1,14,-1,-1,-1,-1,-1,-1,16,-1,-1],"split_conditions":[6.6824E4,6.4E1,6.8398E4,6.3E1,5.8E1,3.32701E5,-1.1217898E-1,6E1,1.0758736E-1,6.648032E-2,-1.1122338E-1,2.0006116E-2,-8.242007E-2,9.7517096E-2,2.8362E4,-1.9573478E-2,-1.033533E-1],"split_indices":[1,10,1,10,21,0,0,18,0,0,0,0,0,0,0,0,0],"split_type":[0,0,0,0,0,0,0,0,0,0,0,0,0,0,0,0,0],"sum_hessian":[2.7748743E2,1.9505775E2,8.242967E1,1.4903972E2,4.6018032E1,2.7219718E0,7.97077E1,1.7044249E1,1.3199547E2,1.3674722E0,4.465056E1,1.5835882E0,1.1383835E0,8.264269E0,8.779979E0,1.1004895E0,7.679489E0],"tree_param":{"num_deleted":"0","num_feature":"45","num_nodes":"17","size_leaf_vector":"1"}},{"base_weights":[5.861496E-3,4.7148228E-1,-1.0830137E0,9.411515E-1,-1.0287054E0,-3.212745E-1,-1.1063112E-1,-1.9918226E-2,1.066597E-1,6.453517E-2,-1.0959667E-1,-7.6366626E-2,2.252755E-2,9.5864885E-2,-9.330297E-1,-1.9512756E-2,-1.0176485E-1],"categories":[],"categories_nodes":[],"categories_segments":[],"categories_sizes":[],"default_left":[0,0,0,0,0,0,0,0,0,0,0,0,0,0,0,0,0],"id":17,"left_children":[1,3,5,7,9,11,-1,13,-1,-1,-1,-1,-1,-1,15,-1,-1],"loss_changes":[1.2996083E2,1.2747296E2,1.0071793E0,1.656926E1,5.581257E0,1.0637237E0,0E0,1.5931812E1,0E0,0E0,0E0,0E0,0E0,0E0,3.7665653E-1,0E0,0E0],"parents":[2147483647,0,0,1,1,2,2,3,3,4,4,5,5,7,7,14,14],"right_children":[2,4,6,8,10,12,-1,14,-1,-1,-1,-1,-1,-1,16,-1,-1],"split_conditions":[6.6824E4,6.4E1,6.8398E4,6.3E1,5.8E1,6.2E1,-1.1063112E-1,6E1,1.066597E-1,6.453517E-2,-1.0959667E-1,-7.6366626E-2,2.252755E-2,9.5864885E-2,9.4752E4,-1.9512756E-2,-1.0176485E-1],"split_indices":[1,10,1,10,21,10,0,18,0,0,0,0,0,0,20,0,0],"split_type":[0,0,0,0,0,0,0,0,0,0,0,0,0,0,0,0,0],"sum_hessian":[2.5432439E2,1.7854333E2,7.5781044E1,1.3625739E2,4.2285954E1,2.687875E0,7.309317E1,1.5828963E1,1.2042842E2,1.3013828E0,4.098457E1,1.265941E0,1.4219341E0,7.6165533E0,8.21241E0,1.1849798E0,7.02743E0],"tree_param":{"num_deleted":"0","num_feature":"45","num_nodes":"17","size_leaf_vector":"1"}},{"base_weights":[5.4035787E-3,4.6622643E-1,-1.0675015E0,9.31572E-1,-1.0123081E0,-3.0851454E-1,-1.0924106E-1,-2.0640269E-2,1.05818264E-1,6.266834E-2,-1.081198E-1,2.0079471E-2,-7.878491E-2,9.42524E-2,-9.071062E-1,-1.4767939E-2,-9.900542E-2],"categories":[],"categories_nodes":[],"categories_segments":[],"categories_sizes":[],"default_left":[0,0,0,0,0,0,0,0,0,0,0,0,0,0,0,0,0],"id":18,"left_children":[1,3,5,7,9,11,-1,13,-1,-1,-1,-1,-1,-1,15,-1,-1],"loss_changes":[1.1614741E2,1.1400398E2,9.9742126E-1,1.5153175E1,5.173317E0,1.0459629E0,0E0,1.4268827E1,0E0,0E0,0E0,0E0,0E0,0E0,4.0123415E-1,0E0,0E0],"parents":[2147483647,0,0,1,1,2,2,3,3,4,4,5,5,7,7,14,14],"right_children":[2,4,6,8,10,12,-1,14,-1,-1,-1,-1,-1,-1,16,-1,-1],"split_conditions":[6.6824E4,6.4E1,6.8398E4,6.3E1,5.8E1,3.32701E5,-1.0924106E-1,6E1,1.05818264E-1,6.266834E-2,-1.081198E-1,2.0079471E-2,-7.878491E-2,9.42524E-2,2.8362E4,-1.4767939E-2,-9.900542E-2],"split_indices":[1,10,1,10,21,0,0,18,0,0,0,0,0,0,0,0,0],"split_type":[0,0,0,0,0,0,0,0,0,0,0,0,0,0,0,0,0],"sum_hessian":[2.3291022E2,1.6332573E2,6.958449E1,1.2450855E2,3.881718E1,2.6364586E0,6.694803E1,1.47105465E1,1.09798004E2,1.2391467E0,3.7578033E1,1.5600014E0,1.0764573E0,7.019966E0,7.690581E0,1.0310677E0,6.659513E0],"tree_param":{"num_deleted":"0","num_feature":"45","num_nodes":"17","size_leaf_vector":"1"}},{"base_weights":[4.8974813E-3,4.6134675E-1,-1.0529962E0,9.2266506E-1,-9.969811E-1,-2.968524E-1,-1.0798483E-1,-2.1112103E-2,1.0505098E-1,6.0874652E-2,-1.0676833E-1,-7.3084086E-2,2.2182642E-2,9.266817E-2,-8.827376E-1,-1.4750726E-2,-9.757613E-2],"categories":[],"categories_nodes":[],"categories_segments":[],"categories_sizes":[],"default_left":[0,0,0,0,0,0,0,0,0,0,0,0,0,0,0,0,0],"id":19,"left_children":[1,3,5,7,9,11,-1,13,-1,-1,-1,-1,-1,-1,15,-1,-1],"loss_changes":[1.0390485E2,1.02043655E2,9.9637604E-1,1.386277E1,4.805435E0,9.7325873E-1,0E0,1.2794306E1,0E0,0E0,0E0,0E0,0E0,0E0,4.1648436E-1,0E0,0E0],"parents":[2147483647,0,0,1,1,2,2,3,3,4,4,5,5,7,7,14,14],"right_children":[2,4,6,8,10,12,-1,14,-1,-1,-1,-1,-1,-1,16,-1,-1],"split_conditions":[6.6824E4,6.4E1,6.8398E4,6.3E1,5.8E1,6.2E1,-1.0798483E-1,6E1,1.0505098E-1,6.0874652E-2,-1.0676833E-1,-7.3084086E-2,2.2182642E-2,9.266817E-2,9.4752E4,-1.4750726E-2,-9.757613E-2],"split_indices":[1,10,1,10,21,10,0,18,0,0,0,0,0,0,20,0,0],"split_type":[0,0,0,0,0,0,0,0,0,0,0,0,0,0,0,0,0],"sum_hessian":[2.1317363E2,1.4931332E2,6.3860306E1,1.1371025E2,3.5603073E1,2.6034508E0,6.1256855E1,1.3665264E1,1.0004498E2,1.1805866E0,3.4422485E1,1.1947434E0,1.4087075E0,6.471294E0,7.19397E0,1.0983831E0,6.0955873E0],"tree_param":{"num_deleted":"0","num_feature":"45","num_nodes":"17","size_leaf_vector":"1"}},{"base_weights":[4.376006E-3,4.5669666E-1,-1.039642E0,9.1414076E-1,-9.8252016E-1,-2.8562337E-1,-1.0684203E-1,-2.163589E-2,1.0434735E-1,5.9149843E-2,-1.0552143E-1,2.0071233E-2,-7.5523816E-2,9.110268E-2,-8.583982E-1,-1.4057996E-2,-9.545637E-2],"categories":[],"categories_nodes":[],"categories_segments":[],"categories_sizes":[],"default_left":[0,0,0,0,0,0,0,0,0,0,0,0,0,0,0,0,0],"id":20,"left_children":[1,3,5,7,9,11,-1,13,-1,-1,-1,-1,-1,-1,15,-1,-1],"loss_changes":[9.303444E1,9.139023E1,9.871292E-1,1.270829E1,4.4724846E0,9.6335614E-1,0E0,1.1479467E1,0E0,0E0,0E0,0E0,0E0,0E0,4.00095E-1,0E0,0E0],"parents":[2147483647,0,0,1,1,2,2,3,3,4,4,5,5,7,7,14,14],"right_children":[2,4,6,8,10,12,-1,14,-1,-1,-1,-1,-1,-1,16,-1,-1],"split_conditions":[6.6824E4,6.4E1,6.8398E4,6.3E1,5.8E1,3.32701E5,-1.0684203E-1,6E1,1.0434735E-1,5.9149843E-2,-1.0552143E-1,2.0071233E-2,-7.5523816E-2,9.110268E-2,9.4752E4,-1.4057996E-2,-9.545637E-2],"split_indices":[1,10,1,10,21,0,0,18,0,0,0,0,0,0,20,0,0],"split_type":[0,0,0,0,0,0,0,0,0,0,0,0,0,0,0,0,0],"sum_hessian":[1.9500505E2,1.3645047E2,5.855459E1,1.0381765E2,3.2632816E1,2.5543106E0,5.600028E1,1.2707342E1,9.1110306E1,1.1255207E0,3.1507296E1,1.5361093E0,1.0182014E0,5.96734E0,6.7400026E0,1.0871239E0,5.6528783E0],"tree_param":{"num_deleted":"0","num_feature":"45","num_nodes":"17","size_leaf_vector":"1"}},{"base_weights":[3.7816977E-3,4.522554E-1,-1.0268863E0,9.0598184E-1,-9.687493E-1,-2.7543718E-1,-1.0579522E-1,-2.2138415E-2,1.0369804E-1,5.74901E-2,-1.0436112E-1,-7.0125185E-2,2.1810068E-2,8.954821E-2,-8.3476454E-1,-1.3397842E-2,-9.341573E-2],"categories":[],"categories_nodes":[],"categories_segments":[],"categories_sizes":[],"default_left":[0,0,0,0,0,0,0,0,0,0,0,0,0,0,0,0,0],"id":21,"left_children":[1,3,5,7,9,11,-1,13,-1,-1,-1,-1,-1,-1,15,-1,-1],"loss_changes":[8.3356865E1,8.189238E1,9.850502E-1,1.1665604E1,4.170122E0,8.932682E-1,0E0,1.030956E1,0E0,0E0,0E0,0E0,0E0,0E0,3.8457966E-1,0E0,0E0],"parents":[2147483647,0,0,1,1,2,2,3,3,4,4,5,5,7,7,14,14],"right_children":[2,4,6,8,10,12,-1,14,-1,-1,-1,-1,-1,-1,16,-1,-1],"split_conditions":[6.6824E4,6.4E1,6.8398E4,6.3E1,5.8E1,6.2E1,-1.0579522E-1,6E1,1.0369804E-1,5.74901E-2,-1.0436112E-1,-7.0125185E-2,2.1810068E-2,8.954821E-2,9.4752E4,-1.3397842E-2,-9.341573E-2],"split_indices":[1,10,1,10,21,10,0,18,0,0,0,0,0,0,20,0,0],"split_type":[0,0,0,0,0,0,0,0,0,0,0,0,0,0,0,0,0],"sum_hessian":[1.7833255E2,1.2465342E2,5.3679134E1,9.4759254E1,2.989417E1,2.5227447E0,5.1156387E1,1.1823212E1,8.293604E1,1.0737604E0,2.882041E1,1.128355E0,1.3943897E0,5.5049925E0,6.318219E0,1.0764545E0,5.2417645E0],"tree_param":{"num_deleted":"0","num_feature":"45","num_nodes":"17","size_leaf_vector":"1"}},{"base_weights":[3.1728614E-3,4.479728E-1,-1.0149578E0,8.981018E-1,-9.555153E-1,-2.6552856E-1,-1.0482925E-1,-2.261652E-2,1.0309483E-1,5.589215E-2,-1.0327176E-1,-6.7814484E-2,2.058216E-2,8.7998375E-2,-8.117195E-1,-1.276873E-2,-9.143882E-2],"categories":[],"categories_nodes":[],"categories_segments":[],"categories_sizes":[],"default_left":[0,0,0,0,0,0,0,0,0,0,0,0,0,0,0,0,0],"id":22,"left_children":[1,3,5,7,9,11,-1,13,-1,-1,-1,-1,-1,-1,15,-1,-1],"loss_changes":[7.47363E1,7.341362E1,9.751892E-1,1.0722664E1,3.8946438E0,8.156303E-1,0E0,9.267192E0,0E0,0E0,0E0,0E0,0E0,0E0,3.6973143E-1,0E0,0E0],"parents":[2147483647,0,0,1,1,2,2,3,3,4,4,5,5,7,7,14,14],"right_children":[2,4,6,8,10,12,-1,14,-1,-1,-1,-1,-1,-1,16,-1,-1],"split_conditions":[6.6824E4,6.4E1,6.8398E4,6.3E1,5.8E1,6.2E1,-1.0482925E-1,6E1,1.0309483E-1,5.589215E-2,-1.0327176E-1,-6.7814484E-2,2.058216E-2,8.7998375E-2,9.4752E4,-1.276873E-2,-9.143882E-2],"split_indices":[1,10,1,10,21,10,0,18,0,0,0,0,0,0,20,0,0],"split_type":[0,0,0,0,0,0,0,0,0,0,0,0,0,0,0,0,0],"sum_hessian":[1.6302617E2,1.1384826E2,4.9177914E1,8.6474205E1,2.7374056E1,2.476091E0,4.670182E1,1.1008367E1,7.5465836E1,1.0251197E0,2.6348936E1,1.0863662E0,1.3897247E0,5.081183E0,5.9271836E0,1.066342E0,4.8608413E0],"tree_param":{"num_deleted":"0","num_feature":"45","num_nodes":"17","size_leaf_vector":"1"}},{"base_weights":[2.5171712E-3,4.438074E-1,-1.0035365E0,8.904238E-1,-9.426846E-1,-2.5628456E-1,-1.0393094E-1,-2.3065867E-2,1.0253036E-1,-1.02210425E-1,4.1522693E-2,-6.562769E-2,1.942493E-2,8.644824E-2,-7.8917336E-1,-1.2169215E-2,-8.9513086E-2],"categories":[],"categories_nodes":[],"categories_segments":[],"categories_sizes":[],"default_left":[0,0,0,0,0,0,0,0,0,0,0,0,0,0,0,0,0],"id":23,"left_children":[1,3,5,7,9,11,-1,13,-1,-1,-1,-1,-1,-1,15,-1,-1],"loss_changes":[6.704276E1,6.583612E1,9.644432E-1,9.868828E0,3.2347336E0,7.457483E-1,0E0,8.337385E0,0E0,0E0,0E0,0E0,0E0,0E0,3.5539865E-1,0E0,0E0],"parents":[2147483647,0,0,1,1,2,2,3,3,4,4,5,5,7,7,14,14],"right_children":[2,4,6,8,10,12,-1,14,-1,-1,-1,-1,-1,-1,16,-1,-1],"split_conditions":[6.6824E4,6.4E1,6.8398E4,6.3E1,3.2256E4,6.2E1,-1.0393094E-1,6E1,1.0253036E-1,-1.02210425E-1,4.1522693E-2,-6.562769E-2,1.942493E-2,8.644824E-2,9.4752E4,-1.2169215E-2,-8.9513086E-2],"split_indices":[1,10,1,10,36,10,0,18,0,0,0,0,0,0,20,0,0],"split_type":[0,0,0,0,0,0,0,0,0,0,0,0,0,0,0,0,0],"sum_hessian":[1.490071E2,1.039638E2,4.504329E1,7.89048E1,2.5059002E1,2.4308128E0,4.2612476E1,1.0258293E1,6.864651E1,2.3908E1,1.1510009E0,1.0457299E0,1.385083E0,4.692984E0,5.5653086E0,1.0567555E0,4.508553E0],"tree_param":{"num_deleted":"0","num_feature":"45","num_nodes":"17","size_leaf_vector":"1"}},{"base_weights":[1.7177123E-3,4.3944147E-1,-9.9249756E-1,8.828764E-1,-9.294314E-1,-2.4764696E-1,-1.03088595E-1,-2.3480445E-2,1.0199795E-1,-1.0122136E-1,3.981889E-2,-6.35539E-2,1.833401E-2,8.489418E-2,-7.6705945E-1,-9.33452E-3,-8.7832026E-2],"categories":[],"categories_nodes":[],"categories_segments":[],"categories_sizes":[],"default_left":[0,0,0,0,0,0,0,0,0,0,0,0,0,0,0,0,0],"id":24,"left_children":[1,3,5,7,9,11,-1,13,-1,-1,-1,-1,-1,-1,15,-1,-1],"loss_changes":[6.0150444E1,5.9070427E1,9.5282364E-1,9.094669E0,3.0371304E0,6.8274903E-1,0E0,7.5071664E0,0E0,0E0,0E0,0E0,0E0,0E0,3.850708E-1,0E0,0E0],"parents":[2147483647,0,0,1,1,2,2,3,3,4,4,5,5,7,7,14,14],"right_children":[2,4,6,8,10,12,-1,14,-1,-1,-1,-1,-1,-1,16,-1,-1],"split_conditions":[6.6824E4,6.4E1,6.8398E4,6.3E1,3.2256E4,6.2E1,-1.03088595E-1,6E1,1.0199795E-1,-1.0122136E-1,3.981889E-2,-6.35539E-2,1.833401E-2,8.489418E-2,3.4931E4,-9.33452E-3,-8.7832026E-2],"split_indices":[1,10,1,10,36,10,0,18,0,0,0,0,0,0,0,0,0],"split_type":[0,0,0,0,0,0,0,0,0,0,0,0,0,0,0,0,0],"sum_hessian":[1.3621379E2,9.496257E1,4.125123E1,7.199532E1,2.2967249E1,2.3870153E0,3.8864212E1,9.568554E0,6.242677E1,2.1842838E1,1.1244107E0,1.0065231E0,1.3804922E0,4.3376284E0,5.2309256E0,1.0020742E0,4.2288513E0],"tree_param":{"num_deleted":"0","num_feature":"45","num_nodes":"17","size_leaf_vector":"1"}},{"base_weights":[8.677522E-4,4.3511522E-1,-9.8173004E-1,8.754451E-1,-9.163007E-1,-2.3956372E-1,-1.022919E-1,-2.3673441E-2,1.0149151E-1,-1.00266375E-1,3.8174864E-2,-1.4538029E-3,-3.3258315E-2,-7.99843E-2,7.812401E-1,9.1020115E-2,1.3397138E-2],"categories":[],"categories_nodes":[],"categories_segments":[],"categories_sizes":[],"default_left":[0,0,0,0,0,0,0,0,0,0,0,0,0,0,0,0,0],"id":25,"left_children":[1,3,5,7,9,11,-1,13,-1,-1,-1,-1,-1,-1,15,-1,-1],"loss_changes":[5.398592E1,5.3015472E1,9.4034576E-1,8.387131E0,2.8548603E0,6.517674E-2,0E0,6.83054E0,0E0,0E0,0E0,0E0,0E0,0E0,3.2731795E-1,0E0,0E0],"parents":[2147483647,0,0,1,1,2,2,3,3,4,4,5,5,7,7,14,14],"right_children":[2,4,6,8,10,12,-1,14,-1,-1,-1,-1,-1,-1,16,-1,-1],"split_conditions":[6.6824E4,6.4E1,6.8398E4,6.3E1,3.2256E4,1.58956E5,-1.022919E-1,7E0,1.0149151E-1,-1.00266375E-1,3.8174864E-2,-1.4538029E-3,-3.3258315E-2,-7.99843E-2,7.503E3,9.1020115E-2,1.3397138E-2],"split_indices":[1,10,1,10,36,44,0,12,0,0,0,0,0,0,1,0,0],"split_type":[0,0,0,0,0,0,0,0,0,0,0,0,0,0,0,0,0],"sum_hessian":[1.24521286E2,8.674329E1,3.7777992E1,6.569137E1,2.1051924E1,2.344767E0,3.5433228E1,8.933057E0,5.6758312E1,1.9952019E1,1.0999049E0,1.0239626E0,1.3208046E0,4.5509367E0,4.38212E0,3.3153543E0,1.0667657E0],"tree_param":{"num_deleted":"0","num_feature":"45","num_nodes":"17","size_leaf_vector":"1"}},{"base_weights":[3.5552995E-4,4.308526E-1,-9.6991044E-1,8.6765397E-1,-9.0319824E-1,-2.2646606E-1,-1.015315E-1,-1.9839175E-2,1.0100551E-1,-9.933573E-2,3.658943E-2,-1.3804059E-3,-3.145701E-2,8.207829E-2,-7.266541E-1,-1.1849277E-2,-8.415274E-2],"categories":[],"categories_nodes":[],"categories_segments":[],"categories_sizes":[],"default_left":[0,0,0,0,0,0,0,0,0,0,0,0,0,0,0,0,0],"id":26,"left_children":[1,3,5,7,9,11,-1,13,-1,-1,-1,-1,-1,-1,15,-1,-1],"loss_changes":[4.843122E1,4.7583447E1,9.729347E-1,7.730877E0,2.6862144E0,5.820225E-2,0E0,6.1915975E0,0E0,0E0,0E0,0E0,0E0,0E0,2.9472256E-1,0E0,0E0],"parents":[2147483647,0,0,1,1,2,2,3,3,4,4,5,5,7,7,14,14],"right_children":[2,4,6,8,10,12,-1,14,-1,-1,-1,-1,-1,-1,16,-1,-1],"split_conditions":[6.6824E4,6.4E1,6.8398E4,6.3E1,3.2256E4,1.58956E5,-1.015315E-1,6E1,1.0100551E-1,-9.933573E-2,3.658943E-2,-1.3804059E-3,-3.145701E-2,8.207829E-2,1.13976E5,-1.1849277E-2,-8.415274E-2],"split_indices":[1,10,1,10,36,44,0,18,0,0,0,0,0,0,20,0,0],"split_type":[0,0,0,0,0,0,0,0,0,0,0,0,0,0,0,0,0],"sum_hessian":[1.13947845E2,7.931329E1,3.4634552E1,6.001312E1,1.9300177E1,2.338137E0,3.2296417E1,8.416879E0,5.159624E1,1.8222855E1,1.0773219E0,1.0237437E0,1.314393E0,3.7708852E0,4.645993E0,1.0608987E0,3.5850945E0],"tree_param":{"num_deleted":"0","num_feature":"45","num_nodes":"17","size_leaf_vector":"1"}},{"base_weights":[-5.5428105E-4,4.263859E-1,-9.5802593E-1,8.600785E-1,-8.900407E-1,-2.1410085E-1,-1.00799E-1,-2.0421023E-2,1.00534774E-1,-9.8420665E-2,3.50615E-2,-1.3107226E-3,-2.9755225E-2,-7.628412E-2,7.537703E-1,8.829693E-2,1.3585503E-2],"categories":[],"categories_nodes":[],"categories_segments":[],"categories_sizes":[],"default_left":[0,0,0,0,0,0,0,0,0,0,0,0,0,0,0,0,0],"id":27,"left_children":[1,3,5,7,9,11,-1,13,-1,-1,-1,-1,-1,-1,15,-1,-1],"loss_changes":[4.3429054E1,4.271551E1,1.0019817E0,7.1550217E0,2.5297127E0,5.1982656E-2,0E0,5.6786184E0,0E0,0E0,0E0,0E0,0E0,0E0,2.6721048E-1,0E0,0E0],"parents":[2147483647,0,0,1,1,2,2,3,3,4,4,5,5,7,7,14,14],"right_children":[2,4,6,8,10,12,-1,14,-1,-1,-1,-1,-1,-1,16,-1,-1],"split_conditions":[6.6824E4,6.4E1,6.8398E4,6.3E1,3.2256E4,1.58956E5,-1.00799E-1,7E0,1.00534774E-1,-9.8420665E-2,3.50615E-2,-1.3107226E-3,-2.9755225E-2,-7.628412E-2,7.317E3,8.829693E-2,1.3585503E-2],"split_indices":[1,10,1,10,36,44,0,12,0,0,0,0,0,0,1,0,0],"split_type":[0,0,0,0,0,0,0,0,0,0,0,0,0,0,0,0,0],"sum_hessian":[1.04240555E2,7.2477325E1,3.1763233E1,5.4777653E1,1.7699669E1,2.331668E0,2.9431566E1,7.879317E0,4.689834E1,1.6643156E1,1.0565132E0,1.0235355E0,1.3081324E0,4.029673E0,3.8496432E0,2.8291514E0,1.0204921E0],"tree_param":{"num_deleted":"0","num_feature":"45","num_nodes":"17","size_leaf_vector":"1"}},{"base_weights":[-1.1259908E-3,4.2202145E-1,-9.4598705E-1,8.521492E-1,-8.767551E-1,-2.0242502E-1,-1.00086726E-1,-1.626912E-2,1.0007449E-1,-9.751319E-2,3.3589885E-2,-1.2445486E-3,-2.8147155E-2,7.9288885E-2,-6.878469E-1,-9.446517E-3,-8.0921665E-2],"categories":[],"categories_nodes":[],"categories_segments":[],"categories_sizes":[],"default_left":[0,0,0,0,0,0,0,0,0,0,0,0,0,0,0,0,0],"id":28,"left_children":[1,3,5,7,9,11,-1,13,-1,-1,-1,-1,-1,-1,15,-1,-1],"loss_changes":[3.896252E1,3.8349068E1,1.0274334E0,6.606674E0,2.3840666E0,4.6434775E-2,0E0,5.13505E0,0E0,0E0,0E0,0E0,0E0,0E0,2.945137E-1,0E0,0E0],"parents":[2147483647,0,0,1,1,2,2,3,3,4,4,5,5,7,7,14,14],"right_children":[2,4,6,8,10,12,-1,14,-1,-1,-1,-1,-1,-1,16,-1,-1],"split_conditions":[6.6824E4,6.4E1,6.8398E4,6.3E1,3.2256E4,1.58956E5,-1.00086726E-1,6E1,1.0007449E-1,-9.751319E-2,3.3589885E-2,-1.2445486E-3,-2.8147155E-2,7.9288885E-2,1.13976E5,-9.446517E-3,-8.0921665E-2],"split_indices":[1,10,1,10,36,44,0,18,0,0,0,0,0,0,20,0,0],"split_type":[0,0,0,0,0,0,0,0,0,0,0,0,0,0,0,0,0],"sum_hessian":[9.5452705E1,6.6309814E1,2.9142895E1,5.0071167E1,1.6238644E1,2.3253696E0,2.6817526E1,7.446004E0,4.2625164E1,1.5201304E1,1.0373397E0,1.0233372E0,1.3020324E0,3.2951589E0,4.150845E0,1.0068139E0,3.1440308E0],"tree_param":{"num_deleted":"0","num_feature":"45","num_nodes":"17","size_leaf_vector":"1"}},{"base_weights":[-2.148287E-3,3.9230224E-1,-9.938761E-2,9.594938E-1,-5.797813E-1,1.00457445E-1,-3.218149E-3,-9.603653E-1,4.2932785E-1,-9.968146E-3,-1.0098877E-1,7.518148E-2,-5.9820503E-2],"categories":[],"categories_nodes":[],"categories_segments":[],"categories_sizes":[],"default_left":[0,0,0,0,0,0,0,0,0,0,0,0,0],"id":29,"left_children":[1,3,-1,5,7,-1,-1,9,11,-1,-1,-1,-1],"loss_changes":[3.4965668E1,3.5816925E1,0E0,1.8546906E0,9.701921E0,0E0,0E0,6.6114235E-1,2.8738036E0,0E0,0E0,0E0,0E0],"parents":[2147483647,0,0,1,1,3,3,4,4,7,7,8,8],"right_children":[2,4,-1,6,8,-1,-1,10,12,-1,-1,-1,-1],"split_conditions":[6.8398E4,7.4E1,-9.938761E-2,6.4E1,1.2932917E7,1.00457445E-1,-3.218149E-3,2.8362E4,6.8096E4,-9.968146E-3,-1.0098877E-1,7.518148E-2,-5.9820503E-2],"split_indices":[1,21,0,10,39,0,0,0,35,0,0,0,0],"split_type":[0,0,0,0,0,0,0,0,0,0,0,0,0],"sum_hessian":[8.738667E1,6.2952377E1,2.4434298E1,3.9763885E1,2.318849E1,3.8022415E1,1.7414684E0,1.6873121E1,6.315369E0,1.0819547E0,1.5791167E1,5.0110135E0,1.3043556E0],"tree_param":{"num_deleted":"0","num_feature":"45","num_nodes":"13","size_leaf_vector":"1"}},{"base_weights":[-3.2464913E-3,3.86033E-1,-9.8695144E-2,9.500027E-1,-5.690177E-1,9.98782E-2,-3.0143643E-3,-9.4630706E-1,4.1097215E-1,-9.48777E-3,-9.993898E-2,7.2846964E-2,-5.8245447E-2],"categories":[],"categories_nodes":[],"categories_segments":[],"categories_sizes":[],"default_left":[0,0,0,0,0,0,0,0,0,0,0,0,0],"id":30,"left_children":[1,3,-1,5,7,-1,-1,9,11,-1,-1,-1,-1],"loss_changes":[3.1420631E1,3.22081E1,0E0,1.8153687E0,8.691014E0,0E0,0E0,6.515999E-1,2.6128802E0,0E0,0E0,0E0,0E0],"parents":[2147483647,0,0,1,1,3,3,4,4,7,7,8,8],"right_children":[2,4,-1,6,8,-1,-1,10,12,-1,-1,-1,-1],"split_conditions":[6.8398E4,7.4E1,-9.8695144E-2,6.4E1,1.2932917E7,9.98782E-2,-3.0143643E-3,2.8362E4,6.8096E4,-9.48777E-3,-9.993898E-2,7.2846964E-2,-5.8245447E-2],"split_indices":[1,21,0,10,39,0,0,0,35,0,0,0,0],"split_type":[0,0,0,0,0,0,0,0,0,0,0,0,0],"sum_hessian":[8.005695E1,5.7793873E1,2.2263077E1,3.6339954E1,2.1453922E1,3.4599033E1,1.7409172E0,1.5515089E1,5.9388328E0,1.0741073E0,1.4440982E1,4.7026E0,1.2362328E0],"tree_param":{"num_deleted":"0","num_feature":"45","num_nodes":"13","size_leaf_vector":"1"}},{"base_weights":[-4.420826E-3,3.7948802E-1,-9.800326E-2,8.039276E-1,-8.57273E-1,-1.4670075E-1,9.983037E-2,-9.729451E-2,3.3846814E-2,-7.8474574E-2,6.926857E-1,8.213431E-2,1.6525662E-2],"categories":[],"categories_nodes":[],"categories_segments":[],"categories_sizes":[],"default_left":[0,0,0,0,0,0,0,0,0,0,0,0,0],"id":31,"left_children":[1,3,-1,5,7,9,-1,-1,-1,-1,11,-1,-1],"loss_changes":[2.8235025E1,2.9090767E1,0E0,7.684986E0,2.3083029E0,4.719745E0,0E0,0E0,0E0,0E0,1.2882161E-1,0E0,0E0],"parents":[2147483647,0,0,1,1,3,3,4,4,5,5,10,10],"right_children":[2,4,-1,6,8,10,-1,-1,-1,-1,12,-1,-1],"split_conditions":[6.8398E4,6.4E1,-9.800326E-2,6.3E1,3.2256E4,7E0,9.983037E-2,-9.729451E-2,3.3846814E-2,-7.8474574E-2,5.2E1,8.213431E-2,1.6525662E-2],"split_indices":[1,10,0,10,36,12,0,0,0,0,10,0,0],"split_type":[0,0,0,0,0,0,0,0,0,0,0,0,0],"sum_hessian":[7.33917E1,5.3105434E1,2.0286268E1,3.979746E1,1.3307975E1,6.797657E0,3.29998E1,1.2304046E1,1.0039288E0,3.8989978E0,2.8986592E0,1.8822571E0,1.0164022E0],"tree_param":{"num_deleted":"0","num_feature":"45","num_nodes":"13","size_leaf_vector":"1"}},{"base_weights":[-4.8502823E-3,3.7492898E-1,-9.7306326E-2,9.436647E-1,-5.4432625E-1,9.9262886E-2,1.6953395E-3,-9.2039365E-1,3.8977784E-1,-6.8689184E-3,-9.79911E-2,6.979336E-1,-5.5438068E-2,7.7192836E-2,2.126666E-2],"categories":[],"categories_nodes":[],"categories_segments":[],"categories_sizes":[],"default_left":[0,0,0,0,0,0,0,0,0,0,0,0,0,0,0],"id":32,"left_children":[1,3,-1,5,7,-1,-1,9,11,-1,-1,13,-1,-1,-1],"loss_changes":[2.5435774E1,2.6494522E1,0E0,1.3928127E0,7.253868E0,0E0,0E0,6.5715504E-1,2.230518E0,0E0,0E0,2.3271322E-2,0E0,0E0,0E0],"parents":[2147483647,0,0,1,1,3,3,4,4,7,7,8,8,11,11],"right_children":[2,4,-1,6,8,-1,-1,10,12,-1,-1,14,-1,-1,-1],"split_conditions":[6.8398E4,7.1E1,-9.7306326E-2,6.4E1,1.2932917E7,9.9262886E-2,1.6953395E-3,2.8362E4,6.8096E4,-6.8689184E-3,-9.79911E-2,8.410097E0,-5.5438068E-2,7.7192836E-2,2.126666E-2],"split_indices":[1,21,0,10,39,0,0,0,35,0,0,32,0,0,0],"split_type":[0,0,0,0,0,0,0,0,0,0,0,0,0,0,0],"sum_hessian":[6.7181816E1,4.8694336E1,1.8487478E1,3.0066118E1,1.8628218E1,2.8489697E1,1.5764233E0,1.3291699E1,5.3365192E0,1.0088582E0,1.2282841E1,4.2199826E0,1.1165364E0,3.1490753E0,1.0709075E0],"tree_param":{"num_deleted":"0","num_feature":"45","num_nodes":"15","size_leaf_vector":"1"}},{"base_weights":[-5.608825E-3,3.689742E-1,-9.659905E-2,9.34079E-1,-5.3152454E-1,9.8726474E-2,1.5915622E-3,-9.056336E-1,3.76033E-1,-6.5410375E-3,-9.69195E-2,6.7947507E-1,-5.398209E-2,7.568194E-2,2.0266054E-2],"categories":[],"categories_nodes":[],"categories_segments":[],"categories_sizes":[],"default_left":[0,0,0,0,0,0,0,0,0,0,0,0,0,0,0],"id":33,"left_children":[1,3,-1,5,7,-1,-1,9,11,-1,-1,13,-1,-1,-1],"loss_changes":[2.288902E1,2.3794786E1,0E0,1.3757038E0,6.5506682E0,0E0,0E0,6.439676E-1,2.046889E0,0E0,0E0,3.0416489E-2,0E0,0E0,0E0],"parents":[2147483647,0,0,1,1,3,3,4,4,7,7,8,8,11,11],"right_children":[2,4,-1,6,8,-1,-1,10,12,-1,-1,14,-1,-1,-1],"split_conditions":[6.8398E4,7.1E1,-9.659905E-2,6.4E1,1.2932917E7,9.8726474E-2,1.5915622E-3,2.8362E4,6.8096E4,-6.5410375E-3,-9.69195E-2,8.410097E0,-5.398209E-2,7.568194E-2,2.0266054E-2],"split_indices":[1,21,0,10,39,0,0,0,35,0,0,32,0,0,0],"split_type":[0,0,0,0,0,0,0,0,0,0,0,0,0,0,0],"sum_hessian":[6.1635315E1,4.4783833E1,1.6851484E1,2.749325E1,1.7290583E1,2.591673E1,1.5765196E0,1.2245089E1,5.045493E0,1.0038747E0,1.1241214E1,3.9837034E0,1.0617898E0,2.9224162E0,1.0612872E0],"tree_param":{"num_deleted":"0","num_feature":"45","num_nodes":"15","size_leaf_vector":"1"}},{"base_weights":[-6.421613E-3,3.627908E-1,-9.587649E-2,7.834115E-1,-8.095535E-1,-1.3341154E-1,9.83269E-2,-9.445028E-2,3.0367678E-2,6.0163987E-1,-7.682299E-2,7.835912E-2,7.927878E-3],"categories":[],"categories_nodes":[],"categories_segments":[],"categories_sizes":[],"default_left":[0,0,0,0,0,0,0,0,0,0,0,0,0],"id":34,"left_children":[1,3,-1,5,7,9,-1,-1,-1,11,-1,-1,-1],"loss_changes":[2.059789E1,2.145689E1,0E0,5.9186707E0,2.035768E0,3.51088E0,0E0,0E0,0E0,2.789464E-1,0E0,0E0,0E0],"parents":[2147483647,0,0,1,1,3,3,4,4,5,5,9,9],"right_children":[2,4,-1,6,8,10,-1,-1,-1,12,-1,-1,-1],"split_conditions":[6.8398E4,6.4E1,-9.587649E-2,6.3E1,1.128E-3,3.2822E4,9.83269E-2,-9.445028E-2,3.0367678E-2,5.3E1,-7.682299E-2,7.835912E-2,7.927878E-3],"split_indices":[1,10,0,10,42,0,0,0,0,10,0,0,0],"split_type":[0,0,0,0,0,0,0,0,0,0,0,0,0],"sum_hessian":[5.6591248E1,4.1227055E1,1.5364194E1,3.058525E1,1.0641804E1,5.533487E0,2.5051764E1,9.626424E0,1.0153794E0,2.5885215E0,2.9449654E0,1.5489049E0,1.0396166E0],"tree_param":{"num_deleted":"0","num_feature":"45","num_nodes":"13","size_leaf_vector":"1"}},{"base_weights":[-7.183989E-3,3.576753E-1,-9.513404E-2,9.193937E-1,-5.171664E-1,9.7633265E-2,3.4507052E-3,-7.8053737E-1,6.202638E-2,2.7589519E-2,-9.577685E-2],"categories":[],"categories_nodes":[],"categories_segments":[],"categories_sizes":[],"default_left":[0,0,0,0,0,0,0,0,0,0,0],"id":35,"left_children":[1,3,-1,5,7,-1,-1,9,-1,-1,-1],"loss_changes":[1.8556879E1,1.9575893E1,0E0,1.1770535E0,5.2286983E0,0E0,0E0,2.7550201E0,0E0,0E0,0E0],"parents":[2147483647,0,0,1,1,3,3,4,4,7,7],"right_children":[2,4,-1,6,8,-1,-1,10,-1,-1,-1],"split_conditions":[6.8398E4,7.1E1,-9.513404E-2,6.4E1,3.2256E4,9.7633265E-2,3.4507052E-3,2.6802E4,6.202638E-2,2.7589519E-2,-9.577685E-2],"split_indices":[1,21,0,10,36,0,0,0,0,0,0],"split_type":[0,0,0,0,0,0,0,0,0,0,0],"sum_hessian":[5.188082E1,3.7868217E1,1.4012603E1,2.3030113E1,1.4838103E1,2.1540714E1,1.4893992E0,1.2303102E1,2.5350018E0,1.6875172E0,1.0615584E1],"tree_param":{"num_deleted":"0","num_feature":"45","num_nodes":"11","size_leaf_vector":"1"}},{"base_weights":[-7.088901E-3,3.5264057E-1,-9.436743E-2,9.087141E-1,-5.00783E-1,9.704723E-2,3.2441732E-3,-8.6253726E-1,3.4546646E-1,-7.4324E-3,-9.36526E-2,-9.49509E-3,5.985875E-2],"categories":[],"categories_nodes":[],"categories_segments":[],"categories_sizes":[],"default_left":[0,0,0,0,0,0,0,0,0,0,0,0,0],"id":36,"left_children":[1,3,-1,5,7,-1,-1,9,11,-1,-1,-1,-1],"loss_changes":[1.6738655E1,1.7496439E1,0E0,1.1643791E0,4.832328E0,0E0,0E0,5.521927E-1,6.309057E-1,0E0,0E0,0E0,0E0],"parents":[2147483647,0,0,1,1,3,3,4,4,7,7,8,8],"right_children":[2,4,-1,6,8,-1,-1,10,12,-1,-1,-1,-1],"split_conditions":[6.8398E4,7.1E1,-9.436743E-2,6.4E1,1.2932917E7,9.704723E-2,3.2441732E-3,3.0485E4,3.2256E4,-7.4324E-3,-9.36526E-2,-9.49509E-3,5.985875E-2],"split_indices":[1,21,0,10,39,0,0,0,36,0,0,0,0],"split_type":[0,0,0,0,0,0,0,0,0,0,0,0,0],"sum_hessian":[4.7694073E1,3.4909355E1,1.2784718E1,2.1097721E1,1.3811636E1,1.9608263E1,1.4894572E0,9.662058E0,4.149578E0,1.0011525E0,8.660905E0,1.742536E0,2.4070423E0],"tree_param":{"num_deleted":"0","num_feature":"45","num_nodes":"13","size_leaf_vector":"1"}},{"base_weights":[-7.84932E-3,3.45261E-1,-9.357267E-2,7.627639E-1,-7.606941E-1,-1.20366275E-1,9.672234E-2,2.7948705E-2,-9.158172E-2,-6.832149E-2,6.066541E-2],"categories":[],"categories_nodes":[],"categories_segments":[],"categories_sizes":[],"default_left":[0,0,0,0,0,0,0,0,0,0,0],"id":37,"left_children":[1,3,-1,5,7,9,-1,-1,-1,-1,-1],"loss_changes":[1.50617E1,1.5962746E1,0E0,4.5734396E0,1.8098879E0,2.67725E0,0E0,0E0,0E0,0E0,0E0],"parents":[2147483647,0,0,1,1,3,3,4,4,5,5],"right_children":[2,4,-1,6,8,10,-1,-1,-1,-1,-1],"split_conditions":[6.8398E4,6.4E1,-9.357267E-2,6.3E1,6.4E1,7E0,9.672234E-2,2.7948705E-2,-9.158172E-2,-6.832149E-2,6.066541E-2],"split_indices":[1,10,0,10,21,12,0,0,0,0,0],"split_type":[0,0,0,0,0,0,0,0,0,0,0],"sum_hessian":[4.3983795E1,3.2314274E1,1.1669524E1,2.3683834E1,8.630439E0,4.529721E0,1.9154114E1,1.0159888E0,7.6144505E0,2.587088E0,1.9426326E0],"tree_param":{"num_deleted":"0","num_feature":"45","num_nodes":"11","size_leaf_vector":"1"}},{"base_weights":[-9.211487E-3,3.390575E-1,-9.274617E-2,8.8960993E-1,-4.8206478E-1,9.583232E-2,3.6594395E-3,-8.317211E-1,3.0811143E-1,-1.0006107E-2,-9.1123395E-2,-1.0292512E-2,5.5822313E-2],"categories":[],"categories_nodes":[],"categories_segments":[],"categories_sizes":[],"default_left":[0,0,0,0,0,0,0,0,0,0,0,0,0],"id":38,"left_children":[1,3,-1,5,7,-1,-1,9,11,-1,-1,-1,-1],"loss_changes":[1.3559892E1,1.4335091E1,0E0,1.064867E0,3.8467228E0,0E0,0E0,4.4864702E-1,5.422967E-1,0E0,0E0,0E0,0E0],"parents":[2147483647,0,0,1,1,3,3,4,4,7,7,8,8],"right_children":[2,4,-1,6,8,-1,-1,10,12,-1,-1,-1,-1],"split_conditions":[6.8398E4,7.1E1,-9.274617E-2,6.4E1,1.2932917E7,9.583232E-2,3.6594395E-3,2.08032E5,3.2256E4,-1.0006107E-2,-9.1123395E-2,-1.0292512E-2,5.5822313E-2],"split_indices":[1,21,0,10,39,0,0,20,36,0,0,0,0],"split_type":[0,0,0,0,0,0,0,0,0,0,0,0,0],"sum_hessian":[4.0418106E1,2.9761196E1,1.0656909E1,1.7765942E1,1.19952545E1,1.6327272E1,1.4386697E0,8.279128E0,3.716126E0,1.032913E0,7.2462153E0,1.6284293E0,2.0876966E0],"tree_param":{"num_deleted":"0","num_feature":"45","num_nodes":"13","size_leaf_vector":"1"}},{"base_weights":[-1.0153854E-2,3.310728E-1,-9.1884665E-2,7.4453205E-1,-7.276969E-1,-1.1469767E-1,9.5547915E-2,2.6538162E-2,-8.949514E-2,5.3320166E-2,-6.845974E-2],"categories":[],"categories_nodes":[],"categories_segments":[],"categories_sizes":[],"default_left":[0,0,0,0,0,0,0,0,0,0,0],"id":39,"left_children":[1,3,-1,5,7,9,-1,-1,-1,-1,-1],"loss_changes":[1.2199042E1,1.3072254E1,0E0,3.9303217E0,1.6567178E0,2.2289126E0,0E0,0E0,0E0,0E0,0E0],"parents":[2147483647,0,0,1,1,3,3,4,4,5,5],"right_children":[2,4,-1,6,8,10,-1,-1,-1,-1,-1],"split_conditions":[6.8398E4,6.4E1,-9.1884665E-2,6.3E1,6.4E1,3.2822E4,9.5547915E-2,2.6538162E-2,-8.949514E-2,5.3320166E-2,-6.845974E-2],"split_indices":[1,10,0,10,21,0,0,0,0,0,0],"split_type":[0,0,0,0,0,0,0,0,0,0,0],"sum_hessian":[3.736176E1,2.7624163E1,9.737595E0,2.0079664E1,7.544498E0,4.0479255E0,1.603174E1,1.0029222E0,6.541576E0,1.9244634E0,2.123462E0],"tree_param":{"num_deleted":"0","num_feature":"45","num_nodes":"11","size_leaf_vector":"1"}},{"base_weights":[-1.1913424E-2,3.2420605E-1,-9.0985276E-2,8.687704E-1,-4.6322522E-1,9.450634E-2,3.9657652E-3,-8.00435E-1,2.8211203E-1,-8.223646E-3,-8.896416E-2,-9.7978255E-3,5.1848557E-2],"categories":[],"categories_nodes":[],"categories_segments":[],"categories_sizes":[],"default_left":[0,0,0,0,0,0,0,0,0,0,0,0,0],"id":40,"left_children":[1,3,-1,5,7,-1,-1,9,11,-1,-1,-1,-1],"loss_changes":[1.0977585E1,1.1762159E1,0E0,9.751549E-1,3.1118484E0,0E0,0E0,4.5005512E-1,4.3858737E-1,0E0,0E0,0E0,0E0],"parents":[2147483647,0,0,1,1,3,3,4,4,7,7,8,8],"right_children":[2,4,-1,6,8,-1,-1,10,12,-1,-1,-1,-1],"split_conditions":[6.8398E4,7.1E1,-9.0985276E-2,6.4E1,1.2932917E7,9.450634E-2,3.9657652E-3,3.4931E4,3.2256E4,-8.223646E-3,-8.896416E-2,-9.7978255E-3,5.1848557E-2],"split_indices":[1,21,0,10,39,0,0,0,36,0,0,0,0],"split_type":[0,0,0,0,0,0,0,0,0,0,0,0,0],"sum_hessian":[3.4394558E1,2.549146E1,8.903099E0,1.5008634E1,1.0482826E1,1.3615883E1,1.3927503E0,7.1665645E0,3.3162622E0,1.0041394E0,6.162425E0,1.496068E0,1.8201941E0],"tree_param":{"num_deleted":"0","num_feature":"45","num_nodes":"13","size_leaf_vector":"1"}},{"base_weights":[-1.2932387E-2,3.1597182E-1,-9.004559E-2,7.2501314E-1,-6.9433135E-1,-1.10422574E-1,9.427346E-2,-8.7208666E-2,2.4158198E-2,-6.2500075E-2,5.420462E-2],"categories":[],"categories_nodes":[],"categories_segments":[],"categories_sizes":[],"default_left":[0,0,0,0,0,0,0,0,0,0,0],"id":41,"left_children":[1,3,-1,5,7,9,-1,-1,-1,-1,-1],"loss_changes":[9.877822E0,1.0718346E1,0E0,3.3934126E0,1.4807594E0,1.8945146E0,0E0,0E0,0E0,0E0,0E0],"parents":[2147483647,0,0,1,1,3,3,4,4,5,5],"right_children":[2,4,-1,6,8,10,-1,-1,-1,-1,-1],"split_conditions":[6.8398E4,6.4E1,-9.004559E-2,6.3E1,9.53E-4,7E0,9.427346E-2,-8.7208666E-2,2.4158198E-2,-6.2500075E-2,5.420462E-2],"split_indices":[1,10,0,10,42,12,0,0,0,0,0],"split_type":[0,0,0,0,0,0,0,0,0,0,0],"sum_hessian":[3.186388E1,2.3718216E1,8.145664E0,1.7083857E1,6.634359E0,3.6336656E0,1.3450191E1,5.6327453E0,1.0016135E0,2.0550342E0,1.5786314E0],"tree_param":{"num_deleted":"0","num_feature":"45","num_nodes":"11","size_leaf_vector":"1"}},{"base_weights":[-1.4686947E-2,3.089881E-1,-8.90636E-2,8.430169E-1,-4.558154E-1,9.2575245E-2,4.375784E-3,-7.649652E-1,2.20957E-1,-9.2249885E-3,-8.616879E-2,-1.095883E-2,4.4950712E-2],"categories":[],"categories_nodes":[],"categories_segments":[],"categories_sizes":[],"default_left":[0,0,0,0,0,0,0,0,0,0,0,0,0],"id":42,"left_children":[1,3,-1,5,7,-1,-1,9,11,-1,-1,-1,-1],"loss_changes":[8.892502E0,9.751737E0,0E0,8.7576485E-1,2.2778416E0,0E0,0E0,3.852725E-1,3.4663847E-1,0E0,0E0,0E0,0E0],"parents":[2147483647,0,0,1,1,3,3,4,4,7,7,8,8],"right_children":[2,4,-1,6,8,-1,-1,10,12,-1,-1,-1,-1],"split_conditions":[6.8398E4,7.4E1,-8.90636E-2,6.4E1,1.2932917E7,9.2575245E-2,4.375784E-3,3.7167E4,3.2256E4,-9.2249885E-3,-8.616879E-2,-1.095883E-2,4.4950712E-2],"split_indices":[1,21,0,10,39,0,0,0,36,0,0,0,0],"split_type":[0,0,0,0,0,0,0,0,0,0,0,0,0],"sum_hessian":[2.9393696E1,2.1935488E1,7.458207E0,1.2856258E1,9.079229E0,1.150686E1,1.3493992E0,6.142857E0,2.936372E0,1.0177902E0,5.1250668E0,1.4131219E0,1.5232502E0],"tree_param":{"num_deleted":"0","num_feature":"45","num_nodes":"13","size_leaf_vector":"1"}},{"base_weights":[-1.6010495E-2,2.9991874E-1,-8.80378E-2,7.038859E-1,-6.610782E-1,-1.0644896E-1,9.2887186E-2,-8.490295E-2,2.153046E-2,4.6962664E-2,-6.2493887E-2],"categories":[],"categories_nodes":[],"categories_segments":[],"categories_sizes":[],"default_left":[0,0,0,0,0,0,0,0,0,0,0],"id":43,"left_children":[1,3,-1,5,7,9,-1,-1,-1,-1,-1],"loss_changes":[7.9973936E0,8.805982E0,0E0,2.944911E0,1.3151021E0,1.574726E0,0E0,0E0,0E0,0E0,0E0],"parents":[2147483647,0,0,1,1,3,3,4,4,5,5],"right_children":[2,4,-1,6,8,10,-1,-1,-1,-1,-1],"split_conditions":[6.8398E4,6.4E1,-8.80378E-2,6.3E1,3.1104E4,3.2822E4,9.2887186E-2,-8.490295E-2,2.153046E-2,4.6962664E-2,-6.2493887E-2],"split_indices":[1,10,0,10,36,0,0,0,0,0,0],"split_type":[0,0,0,0,0,0,0,0,0,0,0],"sum_hessian":[2.7319105E1,2.0484844E1,6.834261E0,1.4610628E1,5.874216E0,3.2895336E0,1.1321095E1,4.862585E0,1.0116309E0,1.6028763E0,1.6866572E0],"tree_param":{"num_deleted":"0","num_feature":"45","num_nodes":"11","size_leaf_vector":"1"}},{"base_weights":[-1.8246677E-2,2.9214573E-1,-8.696719E-2,8.3007693E-1,-4.3061352E-1,9.146258E-2,6.952633E-3,-7.3493934E-1,2.0582613E-1,-1.0909429E-2,-8.339467E-2,-1.09021375E-2,4.1994825E-2],"categories":[],"categories_nodes":[],"categories_segments":[],"categories_sizes":[],"default_left":[0,0,0,0,0,0,0,0,0,0,0,0,0],"id":44,"left_children":[1,3,-1,5,7,-1,-1,9,11,-1,-1,-1,-1],"loss_changes":[7.1947765E0,8.131458E0,0E0,6.95508E-1,1.9312903E0,0E0,0E0,3.0782485E-1,2.9887283E-1,0E0,0E0,0E0,0E0],"parents":[2147483647,0,0,1,1,3,3,4,4,7,7,8,8],"right_children":[2,4,-1,6,8,-1,-1,10,12,-1,-1,-1,-1],"split_conditions":[6.8398E4,7.1E1,-8.696719E-2,6.4E1,1.2932917E7,9.146258E-2,6.952633E-3,2.73528E5,3.2256E4,-1.0909429E-2,-8.339467E-2,-1.09021375E-2,4.1994825E-2],"split_indices":[1,21,0,10,39,0,0,20,36,0,0,0,0],"split_type":[0,0,0,0,0,0,0,0,0,0,0,0,0],"sum_hessian":[2.5263103E1,1.899517E1,6.267934E0,1.0804887E1,8.190284E0,9.541584E0,1.2633023E0,5.436128E0,2.7541559E0,1.0296142E0,4.4065137E0,1.3135469E0,1.4406089E0],"tree_param":{"num_deleted":"0","num_feature":"45","num_nodes":"13","size_leaf_vector":"1"}},{"base_weights":[-1.9602213E-2,2.8298277E-1,-8.585134E-2,8.1519544E-1,-4.132237E-1,9.057998E-2,6.565901E-3,8.890524E-2,-8.178123E-2,-4.3307912E-1,6.4125925E-2,-1.0115091E-2,-5.45527E-2],"categories":[],"categories_nodes":[],"categories_segments":[],"categories_sizes":[],"default_left":[0,0,0,0,0,0,0,0,0,0,0,0,0],"id":45,"left_children":[1,3,-1,5,7,-1,-1,9,-1,11,-1,-1,-1],"loss_changes":[6.4731402E0,7.29902E0,0E0,6.86563E-1,1.8613445E0,0E0,0E0,1.6704527E0,0E0,5.979508E-2,0E0,0E0,0E0],"parents":[2147483647,0,0,1,1,3,3,4,4,7,7,9,9],"right_children":[2,4,-1,6,8,-1,-1,10,-1,12,-1,-1,-1],"split_conditions":[6.8398E4,7.1E1,-8.585134E-2,6.4E1,6.4E1,9.057998E-2,6.565901E-3,6.3E1,-8.178123E-2,4.775E3,6.4125925E-2,-1.0115091E-2,-5.45527E-2],"split_indices":[1,21,0,10,10,0,0,10,0,1,0,0,0],"split_type":[0,0,0,0,0,0,0,0,0,0,0,0,0],"sum_hessian":[2.3543604E1,1.7789742E1,5.7538633E0,9.985471E0,7.80427E0,8.722599E0,1.2628723E0,3.830522E0,3.9737477E0,2.0804238E0,1.7500983E0,1.0071154E0,1.0733083E0],"tree_param":{"num_deleted":"0","num_feature":"45","num_nodes":"13","size_leaf_vector":"1"}},{"base_weights":[-2.189081E-2,3.028855E-1,-7.75003E-1,7.0085037E-1,-5.8670515E-1,-1.9955695E-2,-8.422644E-2,-2.4752732E-2,8.9851946E-2,-7.944726E-2,1.7719831E-2,-5.02267E-2,4.783035E-2],"categories":[],"categories_nodes":[],"categories_segments":[],"categories_sizes":[],"default_left":[0,0,0,0,0,0,0,0,0,0,0,0,0],"id":46,"left_children":[1,3,5,7,9,-1,-1,11,-1,-1,-1,-1,-1],"loss_changes":[5.828102E0,6.322265E0,1.0948849E-1,1.742199E0,1.0462517E0,0E0,0E0,1.0907379E0,0E0,0E0,0E0,0E0,0E0],"parents":[2147483647,0,0,1,1,2,2,3,3,4,4,7,7],"right_children":[2,4,6,8,10,-1,-1,12,-1,-1,-1,-1,-1],"split_conditions":[6.6824E4,6.4E1,7.0619E4,6.3E1,5.549E3,-1.9955695E-2,-8.422644E-2,7E0,8.9851946E-2,-7.944726E-2,1.7719831E-2,-5.02267E-2,4.783035E-2],"split_indices":[1,10,1,10,36,0,0,12,0,0,0,0,0],"split_type":[0,0,0,0,0,0,0,0,0,0,0,0,0],"sum_hessian":[2.1868048E1,1.5696727E1,6.171322E0,1.0991682E1,4.7050443E0,1.0609953E0,5.110327E0,2.5405636E0,8.451118E0,3.667528E0,1.0375164E0,1.304175E0,1.2363886E0],"tree_param":{"num_deleted":"0","num_feature":"45","num_nodes":"13","size_leaf_vector":"1"}},{"base_weights":[-2.4571694E-2,2.6554084E-1,-8.35241E-2,7.94425E-1,-4.0806526E-1,8.88597E-2,7.798962E-3,6.449279E-2,-7.921284E-2,-4.1213863E-2,6.0452748E-2],"categories":[],"categories_nodes":[],"categories_segments":[],"categories_sizes":[],"default_left":[0,0,0,0,0,0,0,0,0,0,0],"id":47,"left_children":[1,3,-1,5,7,-1,-1,9,-1,-1,-1],"loss_changes":[5.250322E0,6.2042007E0,0E0,5.7738066E-1,1.4884852E0,0E0,0E0,1.4011496E0,0E0,0E0,0E0],"parents":[2147483647,0,0,1,1,3,3,4,4,7,7],"right_children":[2,4,-1,6,8,-1,-1,10,-1,-1,-1],"split_conditions":[6.8398E4,7.1E1,-8.35241E-2,6.4E1,6.4E1,8.88597E-2,7.798962E-3,6.3E1,-7.921284E-2,-4.1213863E-2,6.0452748E-2],"split_indices":[1,21,0,10,10,0,0,10,0,0,0],"split_type":[0,0,0,0,0,0,0,0,0,0,0],"sum_hessian":[2.0381144E1,1.5504886E1,4.8762584E0,8.58499E0,6.919896E0,7.3752465E0,1.2097433E0,3.4755702E0,3.4443257E0,1.9719596E0,1.5036105E0],"tree_param":{"num_deleted":"0","num_feature":"45","num_nodes":"11","size_leaf_vector":"1"}},{"base_weights":[-2.5884913E-2,2.8772464E-1,-7.4838424E-1,6.751596E-1,-5.4947156E-1,-2.1883352E-2,-8.145019E-2,-2.4895547E-2,8.804134E-2,-7.684713E-2,1.8208954E-2,-4.7921427E-2,4.5294117E-2],"categories":[],"categories_nodes":[],"categories_segments":[],"categories_sizes":[],"default_left":[0,0,0,0,0,0,0,0,0,0,0,0,0],"id":48,"left_children":[1,3,5,7,9,-1,-1,11,-1,-1,-1,-1,-1],"loss_changes":[4.7406116E0,5.122547E0,4.3136835E-2,1.5253735E0,9.707614E-1,0E0,0E0,9.431695E-1,0E0,0E0,0E0,0E0,0E0],"parents":[2147483647,0,0,1,1,2,2,3,3,4,4,7,7],"right_children":[2,4,6,8,10,-1,-1,12,-1,-1,-1,-1,-1],"split_conditions":[6.6824E4,6.4E1,7.1182E4,6.3E1,5.549E3,-2.1883352E-2,-8.145019E-2,7E0,8.804134E-2,-7.684713E-2,1.8208954E-2,-4.7921427E-2,4.5294117E-2],"split_indices":[1,10,1,10,36,0,0,12,0,0,0,0,0],"split_type":[0,0,0,0,0,0,0,0,0,0,0,0,0],"sum_hessian":[1.8971882E1,1.3649094E1,5.322789E0,9.463263E0,4.185831E0,1.0691873E0,4.253602E0,2.3447566E0,7.118506E0,3.1826274E0,1.0032037E0,1.2004793E0,1.1442773E0],"tree_param":{"num_deleted":"0","num_feature":"45","num_nodes":"13","size_leaf_vector":"1"}},{"base_weights":[-2.8741237E-2,2.496165E-1,-8.105321E-2,7.72604E-1,-4.0025246E-1,8.69778E-2,8.826886E-3,4.7308963E-2,-7.6566204E-2,-3.856118E-2,6.1297696E-2],"categories":[],"categories_nodes":[],"categories_segments":[],"categories_sizes":[],"default_left":[0,0,0,0,0,0,0,0,0,0,0],"id":49,"left_children":[1,3,-1,5,7,-1,-1,9,-1,-1,-1],"loss_changes":[4.280589E0,5.2661085E0,0E0,4.8331022E-1,1.207533E0,0E0,0E0,1.2553513E0,0E0,0E0,0E0],"parents":[2147483647,0,0,1,1,3,3,4,4,7,7],"right_children":[2,4,-1,6,8,-1,-1,10,-1,-1,-1],"split_conditions":[6.8398E4,7.1E1,-8.105321E-2,6.4E1,6.4E1,8.69778E-2,8.826886E-3,1.02E2,-7.6566204E-2,-3.856118E-2,6.1297696E-2],"split_indices":[1,21,0,10,10,0,0,18,0,0,0],"split_type":[0,0,0,0,0,0,0,0,0,0,0],"sum_hessian":[1.7740524E1,1.3584467E1,4.156057E0,7.422382E0,6.162085E0,6.262184E0,1.1601976E0,3.1609805E0,3.0011048E0,1.970903E0,1.1900773E0],"tree_param":{"num_deleted":"0","num_feature":"45","num_nodes":"11","size_leaf_vector":"1"}},{"base_weights":[-2.9630633E-2,2.717581E-1,-7.2099455E-2,6.455303E-1,-5.132293E-1,-3.4974143E-2,8.613392E-2,-7.3967166E-2,1.6759876E-2,4.075579E-2,-4.9305003E-2],"categories":[],"categories_nodes":[],"categories_segments":[],"categories_sizes":[],"default_left":[0,0,0,0,0,0,0,0,0,0,0],"id":50,"left_children":[1,3,-1,5,7,9,-1,-1,-1,-1,-1],"loss_changes":[3.8656206E0,4.1429667E0,0E0,1.3876224E0,8.558843E-1,8.4690976E-1,0E0,0E0,0E0,0E0,0E0],"parents":[2147483647,0,0,1,1,3,3,4,4,5,5],"right_children":[2,4,-1,6,8,10,-1,-1,-1,-1,-1],"split_conditions":[6.6824E4,6.4E1,-7.2099455E-2,6.3E1,6.37E2,3.2822E4,8.613392E-2,-7.3967166E-2,1.6759876E-2,4.075579E-2,-4.9305003E-2],"split_indices":[1,10,0,10,36,0,0,0,0,0,0],"split_type":[0,0,0,0,0,0,0,0,0,0,0],"sum_hessian":[1.6611446E1,1.1991063E1,4.6203823E0,8.243548E0,3.7475145E0,2.1865861E0,6.0569625E0,2.7473283E0,1.0001863E0,1.1682557E0,1.0183305E0],"tree_param":{"num_deleted":"0","num_feature":"45","num_nodes":"11","size_leaf_vector":"1"}},{"base_weights":[-3.1221168E-2,2.3592176E-1,-7.849776E-2,8.531239E-2,-2.8900418E-1,-5.8018416E-1,4.7079217E-2,2.8220793E-2,-8.091108E-2],"categories":[],"categories_nodes":[],"categories_segments":[],"categories_sizes":[],"default_left":[0,0,0,0,0,0,0,0,0],"id":51,"left_children":[1,3,-1,-1,5,7,-1,-1,-1],"loss_changes":[3.525173E0,4.4634056E0,0E0,0E0,1.9944897E0,1.4272637E0,0E0,0E0,0E0],"parents":[2147483647,0,0,1,1,4,4,5,5],"right_children":[2,4,-1,-1,6,8,-1,-1,-1],"split_conditions":[6.8398E4,6E1,-7.849776E-2,8.531239E-2,1.128E-3,2.6802E4,4.7079217E-2,2.8220793E-2,-8.091108E-2],"split_indices":[1,21,0,0,42,0,0,0,0],"split_type":[0,0,0,0,0,0,0,0,0],"sum_hessian":[1.55870495E1,1.2015556E1,3.5714931E0,5.235034E0,6.7805223E0,5.0728335E0,1.7076885E0,1.0153087E0,4.057525E0],"tree_param":{"num_deleted":"0","num_feature":"45","num_nodes":"9","size_leaf_vector":"1"}},{"base_weights":[-3.0117285E-2,2.3287465E-1,-7.7105366E-2,7.417457E-1,-3.719432E-1,8.3870314E-2,9.304055E-3,4.8413105E-2,-7.2473146E-2,-3.5651553E-2,5.7135206E-2],"categories":[],"categories_nodes":[],"categories_segments":[],"categories_sizes":[],"default_left":[0,0,0,0,0,0,0,0,0,0,0],"id":52,"left_children":[1,3,-1,5,7,-1,-1,9,-1,-1,-1],"loss_changes":[3.2087E0,4.043342E0,0E0,3.6109638E-1,9.633079E-1,0E0,0E0,1.0069767E0,0E0,0E0,0E0],"parents":[2147483647,0,0,1,1,3,3,4,4,7,7],"right_children":[2,4,-1,6,8,-1,-1,10,-1,-1,-1],"split_conditions":[6.8398E4,7.1E1,-7.7105366E-2,6.4E1,6.4E1,8.3870314E-2,9.304055E-3,1.02E2,-7.2473146E-2,-3.5651553E-2,5.7135206E-2],"split_indices":[1,21,0,10,10,0,0,18,0,0,0],"split_type":[0,0,0,0,0,0,0,0,0,0,0],"sum_hessian":[1.4545193E1,1.1240967E1,3.3042264E0,5.9817505E0,5.259216E0,4.9491477E0,1.0326028E0,2.793481E0,2.4657347E0,1.7537454E0,1.0397357E0],"tree_param":{"num_deleted":"0","num_feature":"45","num_nodes":"11","size_leaf_vector":"1"}},{"base_weights":[-3.098399E-2,2.254216E-1,-7.56832E-2,8.294654E-2,-2.699473E-1,1.9517523E-1,-7.45254E-2,-3.4531154E-2,6.405433E-2],"categories":[],"categories_nodes":[],"categories_segments":[],"categories_sizes":[],"default_left":[0,0,0,0,0,0,0,0,0],"id":53,"left_children":[1,3,-1,-1,5,7,-1,-1,-1],"loss_changes":[2.9023576E0,3.7000077E0,0E0,0E0,1.7233021E0,1.2802565E0,0E0,0E0,0E0],"parents":[2147483647,0,0,1,1,4,4,5,5],"right_children":[2,4,-1,-1,6,8,-1,-1,-1],"split_conditions":[6.8398E4,6E1,-7.56832E-2,8.294654E-2,6.4E1,6.3E1,-7.45254E-2,-3.4531154E-2,6.405433E-2],"split_indices":[1,21,0,0,10,10,0,0,0],"split_type":[0,0,0,0,0,0,0,0,0],"sum_hessian":[1.3678036E1,1.0617015E1,3.0610201E0,4.479885E0,6.1371303E0,3.3996716E0,2.7374585E0,1.637322E0,1.7623497E0],"tree_param":{"num_deleted":"0","num_feature":"45","num_nodes":"9","size_leaf_vector":"1"}},{"base_weights":[-3.2357126E-2,2.2010857E-1,-7.423528E-2,8.160611E-2,-2.6251927E-1,1.8957843E-1,-7.2978996E-2,-3.2972436E-2,6.255212E-2],"categories":[],"categories_nodes":[],"categories_segments":[],"categories_sizes":[],"default_left":[0,0,0,0,0,0,0,0,0],"id":54,"left_children":[1,3,-1,-1,5,7,-1,-1,-1],"loss_changes":[2.630877E0,3.3568096E0,0E0,0E0,1.5735152E0,1.1676345E0,0E0,0E0,0E0],"parents":[2147483647,0,0,1,1,4,4,5,5],"right_children":[2,4,-1,-1,6,8,-1,-1,-1],"split_conditions":[6.8398E4,6E1,-7.423528E-2,8.160611E-2,6.4E1,6.3E1,-7.2978996E-2,-3.2972436E-2,6.255212E-2],"split_indices":[1,21,0,0,10,10,0,0,0],"split_type":[0,0,0,0,0,0,0,0,0],"sum_hessian":[1.2765605E1,9.926021E0,2.839584E0,4.1324143E0,5.7936068E0,3.2466578E0,2.5469487E0,1.5928631E0,1.6537948E0],"tree_param":{"num_deleted":"0","num_feature":"45","num_nodes":"9","size_leaf_vector":"1"}},{"base_weights":[-3.3666115E-2,2.148361E-1,-7.276587E-2,8.023151E-2,-2.5506672E-1,1.842817E-1,-7.1424626E-2,-3.1475652E-2,6.1063707E-2],"categories":[],"categories_nodes":[],"categories_segments":[],"categories_sizes":[],"default_left":[0,0,0,0,0,0,0,0,0],"id":55,"left_children":[1,3,-1,-1,5,7,-1,-1,-1],"loss_changes":[2.386689E0,3.04663E0,0E0,0E0,1.4386121E0,1.0657611E0,0E0,0E0,0E0],"parents":[2147483647,0,0,1,1,4,4,5,5],"right_children":[2,4,-1,-1,6,8,-1,-1,-1],"split_conditions":[6.8398E4,6E1,-7.276587E-2,8.023151E-2,6.4E1,6.3E1,-7.1424626E-2,-3.1475652E-2,6.1063707E-2],"split_indices":[1,21,0,0,10,10,0,0,0],"split_type":[0,0,0,0,0,0,0,0,0],"sum_hessian":[1.1932729E1,9.294887E0,2.637843E0,3.8162951E0,5.478591E0,3.1056957E0,2.3728952E0,1.5514791E0,1.5542166E0],"tree_param":{"num_deleted":"0","num_feature":"45","num_nodes":"9","size_leaf_vector":"1"}},{"base_weights":[-3.4897428E-2,2.3826504E-1,-6.4454846E-2,5.733764E-1,-4.5060527E-1,-3.874622E-3,7.966503E-2,-6.129337E-2,-1.9270916E-3],"categories":[],"categories_nodes":[],"categories_segments":[],"categories_sizes":[],"default_left":[0,0,0,0,0,0,0,0,0],"id":56,"left_children":[1,3,-1,5,7,-1,-1,-1,-1],"loss_changes":[2.1806319E0,2.3673627E0,0E0,9.3099284E-1,2.3673576E-1,0E0,0E0,0E0,0E0],"parents":[2147483647,0,0,1,1,3,3,4,4],"right_children":[2,4,-1,6,8,-1,-1,-1,-1],"split_conditions":[6.6824E4,6.4E1,-6.4454846E-2,6.3E1,1.7287281E1,-3.874622E-3,7.966503E-2,-6.129337E-2,-1.9270916E-3],"split_indices":[1,10,0,10,32,0,0,0,0],"split_type":[0,0,0,0,0,0,0,0,0],"sum_hessian":[1.1172057E1,8.135854E0,3.0362027E0,5.5860786E0,2.5497756E0,1.7138603E0,3.8722184E0,1.5466801E0,1.0030955E0],"tree_param":{"num_deleted":"0","num_feature":"45","num_nodes":"9","size_leaf_vector":"1"}},{"base_weights":[-3.7014723E-2,2.0148303E-1,-6.992583E-2,7.803725E-2,-2.5561333E-1,1.609785E-1,-6.881682E-2,-2.9489217E-2,5.7649363E-2],"categories":[],"categories_nodes":[],"categories_segments":[],"categories_sizes":[],"default_left":[0,0,0,0,0,0,0,0,0],"id":57,"left_children":[1,3,-1,-1,5,7,-1,-1,-1],"loss_changes":[1.9769424E0,2.6664333E0,0E0,0E0,1.1852732E0,8.988733E-1,0E0,0E0,0E0],"parents":[2147483647,0,0,1,1,4,4,5,5],"right_children":[2,4,-1,-1,6,8,-1,-1,-1],"split_conditions":[6.8398E4,6E1,-6.992583E-2,7.803725E-2,6.4E1,6.3E1,-6.881682E-2,-2.9489217E-2,5.7649363E-2],"split_indices":[1,21,0,0,10,10,0,0,0],"split_type":[0,0,0,0,0,0,0,0,0],"sum_hessian":[1.06247425E1,8.323065E0,2.3016784E0,3.3602452E0,4.962819E0,2.84788E0,2.1149392E0,1.4964212E0,1.3514588E0],"tree_param":{"num_deleted":"0","num_feature":"45","num_nodes":"9","size_leaf_vector":"1"}},{"base_weights":[-3.8134765E-2,1.9647166E-1,-6.841966E-2,7.6578125E-2,-2.4766833E-1,1.5713099E-1,-6.7260616E-2,-2.8135708E-2,5.6228925E-2],"categories":[],"categories_nodes":[],"categories_segments":[],"categories_sizes":[],"default_left":[0,0,0,0,0,0,0,0,0],"id":58,"left_children":[1,3,-1,-1,5,7,-1,-1,-1],"loss_changes":[1.7980942E0,2.4221275E0,0E0,0E0,1.0888205E0,8.222308E-1,0E0,0E0,0E0],"parents":[2147483647,0,0,1,1,4,4,5,5],"right_children":[2,4,-1,-1,6,8,-1,-1,-1],"split_conditions":[6.8398E4,6E1,-6.841966E-2,7.6578125E-2,6.4E1,6.3E1,-6.7260616E-2,-2.8135708E-2,5.6228925E-2],"split_indices":[1,21,0,0,10,10,0,0,0],"split_type":[0,0,0,0,0,0,0,0,0],"sum_hessian":[9.976223E0,7.829108E0,2.147115E0,3.1137009E0,4.7154074E0,2.7376885E0,1.9777186E0,1.461511E0,1.2761776E0],"tree_param":{"num_deleted":"0","num_feature":"45","num_nodes":"9","size_leaf_vector":"1"}},{"base_weights":[-3.9184198E-2,1.9153558E-1,-6.690978E-2,7.50953E-2,-2.3979129E-1,1.5352644E-1,-6.571069E-2,-2.683922E-2,5.4834634E-2],"categories":[],"categories_nodes":[],"categories_segments":[],"categories_sizes":[],"default_left":[0,0,0,0,0,0,0,0,0],"id":59,"left_children":[1,3,-1,-1,5,7,-1,-1,-1],"loss_changes":[1.6370664E0,2.2012568E0,0E0,0E0,1.0016239E0,7.5281304E-1,0E0,0E0,0E0],"parents":[2147483647,0,0,1,1,4,4,5,5],"right_children":[2,4,-1,-1,6,8,-1,-1,-1],"split_conditions":[6.8398E4,6E1,-6.690978E-2,7.50953E-2,6.4E1,6.3E1,-6.571069E-2,-2.683922E-2,5.4834634E-2],"split_indices":[1,21,0,0,10,10,0,0,0],"split_type":[0,0,0,0,0,0,0,0,0],"sum_hessian":[9.382396E0,7.3765173E0,2.0058787E0,2.8888018E0,4.4877152E0,2.635696E0,1.8520194E0,1.4289187E0,1.2067772E0],"tree_param":{"num_deleted":"0","num_feature":"45","num_nodes":"9","size_leaf_vector":"1"}},{"base_weights":[-4.01021E-2,2.1392757E-1,-5.908177E-2,5.202501E-1,-4.1216594E-1,-3.1294175E-3,7.457869E-2,-5.076443E-2,-1.1042157E-2],"categories":[],"categories_nodes":[],"categories_segments":[],"categories_sizes":[],"default_left":[0,0,0,0,0,0,0,0,0],"id":60,"left_children":[1,3,-1,5,7,-1,-1,-1,-1],"loss_changes":[1.5028107E0,1.6465286E0,0E0,7.0203507E-1,3.0695379E-2,0E0,0E0,0E0,0E0],"parents":[2147483647,0,0,1,1,3,3,4,4],"right_children":[2,4,-1,6,8,-1,-1,-1,-1],"split_conditions":[6.6824E4,6.4E1,-5.908177E-2,6.3E1,8.532E3,-3.1294175E-3,7.457869E-2,-5.076443E-2,-1.1042157E-2],"split_indices":[1,10,0,10,1,0,0,0,0],"split_type":[0,0,0,0,0,0,0,0,0],"sum_hessian":[8.838722E0,6.467152E0,2.3715699E0,4.4560423E0,2.0111096E0,1.5432675E0,2.9127748E0,1.0093609E0,1.0017488E0],"tree_param":{"num_deleted":"0","num_feature":"45","num_nodes":"9","size_leaf_vector":"1"}},{"base_weights":[-4.2414088E-2,1.7835173E-1,-6.4043134E-2,7.280632E-2,-2.3991671E-1,1.3472615E-1,-6.3282974E-2,-2.5121568E-2,5.1603217E-2],"categories":[],"categories_nodes":[],"categories_segments":[],"categories_sizes":[],"default_left":[0,0,0,0,0,0,0,0,0],"id":61,"left_children":[1,3,-1,-1,5,7,-1,-1,-1],"loss_changes":[1.3636607E0,1.9438114E0,0E0,0E0,8.391878E-1,6.367988E-1,0E0,0E0,0E0],"parents":[2147483647,0,0,1,1,4,4,5,5],"right_children":[2,4,-1,-1,6,8,-1,-1,-1],"split_conditions":[6.8398E4,6E1,-6.4043134E-2,7.280632E-2,6.4E1,6.3E1,-6.3282974E-2,-2.5121568E-2,5.1603217E-2],"split_indices":[1,21,0,0,10,10,0,0,0],"split_type":[0,0,0,0,0,0,0,0,0],"sum_hessian":[8.463883E0,6.694342E0,1.7695415E0,2.5726125E0,4.12173E0,2.446295E0,1.6754347E0,1.3853115E0,1.0609835E0],"tree_param":{"num_deleted":"0","num_feature":"45","num_nodes":"9","size_leaf_vector":"1"}},{"base_weights":[-4.3173343E-2,1.7387536E-1,-6.254716E-2,6.343233E-2,-2.965293E-1,-5.104068E-2,1.5025075E-2],"categories":[],"categories_nodes":[],"categories_segments":[],"categories_sizes":[],"default_left":[0,0,0,0,0,0,0],"id":62,"left_children":[1,3,-1,-1,5,-1,-1],"loss_changes":[1.2457427E0,1.7770132E0,0E0,0E0,4.8854825E-1,0E0,0E0],"parents":[2147483647,0,0,1,1,4,4],"right_children":[2,4,-1,-1,6,-1,-1],"split_conditions":[6.8398E4,7.1E1,-6.254716E-2,6.343233E-2,9.814286E1,-5.104068E-2,1.5025075E-2],"split_indices":[1,21,0,0,21,0,0],"split_type":[0,0,0,0,0,0,0],"sum_hessian":[7.996082E0,6.335831E0,1.6602505E0,3.0257058E0,3.3101254E0,2.142216E0,1.1679093E0],"tree_param":{"num_deleted":"0","num_feature":"45","num_nodes":"7","size_leaf_vector":"1"}},{"base_weights":[-4.4396743E-2,4.0745693E-1,-3.1072164E-1,5.886547E-2,2.8674805E-3,-6.3005084E-1,4.593602E-2,-1.4844606E-2,-7.274587E-2],"categories":[],"categories_nodes":[],"categories_segments":[],"categories_sizes":[],"default_left":[0,0,0,0,0,0,0,0,0],"id":63,"left_children":[1,3,5,-1,-1,7,-1,-1,-1],"loss_changes":[1.1702465E0,2.3354602E-1,1.7707195E0,0E0,0E0,1.1154735E-1,0E0,0E0,0E0],"parents":[2147483647,0,0,1,1,2,2,5,5],"right_children":[2,4,6,-1,-1,8,-1,-1,-1],"split_conditions":[2.29986E5,6E1,9.71E-4,5.886547E-2,2.8674805E-3,3.32701E5,4.593602E-2,-1.4844606E-2,-7.274587E-2],"split_indices":[0,21,42,0,0,0,0,0,0],"split_type":[0,0,0,0,0,0,0,0,0],"sum_hessian":[7.672442E0,2.648687E0,5.023755E0,1.4168416E0,1.2318454E0,3.6797254E0,1.3440294E0,1.0436525E0,2.6360729E0],"tree_param":{"num_deleted":"0","num_feature":"45","num_nodes":"9","size_leaf_vector":"1"}},{"base_weights":[-3.9412253E-2,1.6785993E-1,-5.9820104E-2,6.8972014E-2,-2.1643852E-1,1.5216029E-1,-6.0578763E-2,-1.2600878E-2,3.6669977E-2],"categories":[],"categories_nodes":[],"categories_segments":[],"categories_sizes":[],"default_left":[0,0,0,0,0,0,0,0,0],"id":64,"left_children":[1,3,-1,-1,5,7,-1,-1,-1],"loss_changes":[1.0688831E0,1.5291065E0,0E0,0E0,7.700604E-1,2.3870817E-1,0E0,0E0,0E0],"parents":[2147483647,0,0,1,1,4,4,5,5],"right_children":[2,4,-1,-1,6,8,-1,-1,-1],"split_conditions":[6.8398E4,6E1,-5.9820104E-2,6.8972014E-2,6.4E1,1.708086E8,-6.0578763E-2,-1.2600878E-2,3.6669977E-2],"split_indices":[1,21,0,0,10,39,0,0,0],"split_type":[0,0,0,0,0,0,0,0,0],"sum_hessian":[7.361748E0,5.8801994E0,1.4815488E0,2.1567192E0,3.72348E0,2.225644E0,1.4978358E0,1.1487912E0,1.076853E0],"tree_param":{"num_deleted":"0","num_feature":"45","num_nodes":"9","size_leaf_vector":"1"}},{"base_weights":[-4.04312E-2,3.8852078E-1,-2.9847813E-1,5.5719674E-2,3.8780873E-3,-6.0798287E-2,4.3413293E-2],"categories":[],"categories_nodes":[],"categories_segments":[],"categories_sizes":[],"default_left":[0,0,0,0,0,0,0],"id":65,"left_children":[1,3,5,-1,-1,-1,-1],"loss_changes":[1.0025903E0,1.8151176E-1,1.5262125E0,0E0,0E0,0E0,0E0],"parents":[2147483647,0,0,1,1,2,2],"right_children":[2,4,6,-1,-1,-1,-1],"split_conditions":[2.29986E5,6E1,9.71E-4,5.5719674E-2,3.8780873E-3,-6.0798287E-2,4.3413293E-2],"split_indices":[0,21,42,0,0,0,0],"split_type":[0,0,0,0,0,0,0],"sum_hessian":[7.0100055E0,2.443143E0,4.566862E0,1.2480477E0,1.1950952E0,3.3301117E0,1.2367506E0],"tree_param":{"num_deleted":"0","num_feature":"45","num_nodes":"7","size_leaf_vector":"1"}},{"base_weights":[-3.238284E-2,1.6544129E-1,-5.688828E-2,6.672761E-2,-2.0172375E-1,1.5285355E-1,-5.833887E-2,-1.0769867E-2,3.4964453E-2],"categories":[],"categories_nodes":[],"categories_segments":[],"categories_sizes":[],"default_left":[0,0,0,0,0,0,0,0,0],"id":66,"left_children":[1,3,-1,-1,5,7,-1,-1,-1],"loss_changes":[9.170839E-1,1.321198E0,0E0,0E0,6.96373E-1,1.9754678E-1,0E0,0E0,0E0],"parents":[2147483647,0,0,1,1,4,4,5,5],"right_children":[2,4,-1,-1,6,8,-1,-1,-1],"split_conditions":[6.8398E4,6E1,-5.688828E-2,6.672761E-2,6.4E1,1.708086E8,-5.833887E-2,-1.0769867E-2,3.4964453E-2],"split_indices":[1,21,0,0,10,39,0,0,0],"split_type":[0,0,0,0,0,0,0,0,0],"sum_hessian":[6.7541394E0,5.439906E0,1.3142333E0,1.9530871E0,3.486819E0,2.1183352E0,1.3684838E0,1.1063061E0,1.0120292E0],"tree_param":{"num_deleted":"0","num_feature":"45","num_nodes":"9","size_leaf_vector":"1"}},{"base_weights":[-3.3582598E-2,3.7067467E-1,-2.8205365E-1,5.266552E-2,4.740799E-3,-5.7968754E-1,4.10362E-2,-1.7486459E-2,-6.6407725E-2],"categories":[],"categories_nodes":[],"categories_segments":[],"categories_sizes":[],"default_left":[0,0,0,0,0,0,0,0,0],"id":67,"left_children":[1,3,5,-1,-1,7,-1,-1,-1],"loss_changes":[8.526994E-1,1.3978577E-1,1.305584E0,0E0,0E0,2.1820784E-2,0E0,0E0,0E0],"parents":[2147483647,0,0,1,1,2,2,5,5],"right_children":[2,4,6,-1,-1,8,-1,-1,-1],"split_conditions":[2.29986E5,6E1,9.71E-4,5.266552E-2,4.740799E-3,3.34558E5,4.10362E-2,-1.7486459E-2,-6.6407725E-2],"split_indices":[0,21,42,0,0,0,0,0,0],"split_type":[0,0,0,0,0,0,0,0,0],"sum_hessian":[6.448257E0,2.2674081E0,4.180849E0,1.1050435E0,1.1623647E0,3.037841E0,1.1430078E0,1.0539726E0,1.9838686E0],"tree_param":{"num_deleted":"0","num_feature":"45","num_nodes":"9","size_leaf_vector":"1"}},{"base_weights":[-2.9406048E-2,1.8434934E-1,-4.8932783E-2,4.637276E-1,-3.7381876E-2,-5.7570584E-4,6.638655E-2],"categories":[],"categories_nodes":[],"categories_segments":[],"categories_sizes":[],"default_left":[0,0,0,0,0,0,0],"id":68,"left_children":[1,3,-1,5,-1,-1,-1],"loss_changes":[8.0090487E-1,1.0562327E0,0E0,4.0028888E-1,0E0,0E0,0E0],"parents":[2147483647,0,0,1,1,3,3],"right_children":[2,4,-1,6,-1,-1,-1],"split_conditions":[6.6824E4,6.4E1,-4.8932783E-2,6.3E1,-3.7381876E-2,-5.7570584E-4,6.638655E-2],"split_indices":[1,10,0,10,0,0,0],"split_type":[0,0,0,0,0,0,0],"sum_hessian":[6.229093E0,4.6616807E0,1.5674121E0,3.219454E0,1.4422266E0,1.25252E0,1.9669341E0],"tree_param":{"num_deleted":"0","num_feature":"45","num_nodes":"7","size_leaf_vector":"1"}},{"base_weights":[-2.9906463E-2,1.5635197E-1,-5.3081434E-2,6.366916E-2,-1.9295584E-1,1.3986506E-2,-5.522528E-2],"categories":[],"categories_nodes":[],"categories_segments":[],"categories_sizes":[],"default_left":[0,0,0,0,0,0,0],"id":69,"left_children":[1,3,-1,-1,5,-1,-1],"loss_changes":[7.37061E-1,1.109898E0,0E0,0E0,5.762962E-1,0E0,0E0],"parents":[2147483647,0,0,1,1,4,4],"right_children":[2,4,-1,-1,6,-1,-1],"split_conditions":[6.8398E4,6E1,-5.3081434E-2,6.366916E-2,6.4E1,1.3986506E-2,-5.522528E-2],"split_indices":[1,21,0,0,10,0,0],"split_type":[0,0,0,0,0,0,0],"sum_hessian":[6.0104923E0,4.882746E0,1.1277459E0,1.7093982E0,3.1733484E0,1.9644145E0,1.2089338E0],"tree_param":{"num_deleted":"0","num_feature":"45","num_nodes":"7","size_leaf_vector":"1"}},{"base_weights":[-3.2314718E-2,3.4399444E-1,-2.6881453E-1,4.2975564E-2,9.061082E-3,-5.5488568E-2,3.8403954E-2],"categories":[],"categories_nodes":[],"categories_segments":[],"categories_sizes":[],"default_left":[0,0,0,0,0,0,0],"id":70,"left_children":[1,3,5,-1,-1,-1,-1],"loss_changes":[6.9648784E-1,2.750963E-2,1.0963008E0,0E0,0E0,0E0,0E0],"parents":[2147483647,0,0,1,1,2,2],"right_children":[2,4,6,-1,-1,-1,-1],"split_conditions":[2.29986E5,6.4E1,9.71E-4,4.2975564E-2,9.061082E-3,-5.5488568E-2,3.8403954E-2],"split_indices":[0,21,42,0,0,0,0],"split_type":[0,0,0,0,0,0,0],"sum_hessian":[5.7869344E0,2.057924E0,3.72901E0,1.0174775E0,1.0404464E0,2.6971986E0,1.0318115E0],"tree_param":{"num_deleted":"0","num_feature":"45","num_nodes":"7","size_leaf_vector":"1"}},{"base_weights":[-2.480814E-2,1.5155405E-1,-5.0375905E-2,6.165377E-2,-1.8250433E-1,1.352613E-2,-5.330183E-2],"categories":[],"categories_nodes":[],"categories_segments":[],"categories_sizes":[],"default_left":[0,0,0,0,0,0,0],"id":71,"left_children":[1,3,-1,-1,5,-1,-1],"loss_changes":[6.353778E-1,9.832779E-1,0E0,0E0,5.213815E-1,0E0,0E0],"parents":[2147483647,0,0,1,1,4,4],"right_children":[2,4,-1,-1,6,-1,-1],"split_conditions":[6.8398E4,6E1,-5.0375905E-2,6.165377E-2,6.4E1,1.352613E-2,-5.330183E-2],"split_indices":[1,21,0,0,10,0,0],"split_type":[0,0,0,0,0,0,0],"sum_hessian":[5.618194E0,4.605792E0,1.0124018E0,1.5720377E0,3.0337543E0,1.9133098E0,1.1204445E0],"tree_param":{"num_deleted":"0","num_feature":"45","num_nodes":"7","size_leaf_vector":"1"}},{"base_weights":[-2.7427204E-2,3.231189E-2,-2.5315252E-1,-5.1942762E-2,3.1256042E-2],"categories":[],"categories_nodes":[],"categories_segments":[],"categories_sizes":[],"default_left":[0,0,0,0,0],"id":72,"left_children":[1,-1,3,-1,-1],"loss_changes":[5.8988565E-1,0E0,8.3519435E-1,0E0,0E0],"parents":[2147483647,0,0,2,2],"right_children":[2,-1,4,-1,-1],"split_conditions":[2.29986E5,3.231189E-2,5E0,-5.1942762E-2,3.1256042E-2],"split_indices":[0,0,13,0,0],"split_type":[0,0,0,0,0],"sum_hessian":[5.4211516E0,1.9544568E0,3.466695E0,2.4128225E0,1.0538725E0],"tree_param":{"num_deleted":"0","num_feature":"45","num_nodes":"5","size_leaf_vector":"1"}},{"base_weights":[-2.3594465E-2,1.6107486E-1,-4.2452544E-2,4.1185257E-1,-3.4391116E-2,-2.3558629E-3,6.1968584E-2],"categories":[],"categories_nodes":[],"categories_segments":[],"categories_sizes":[],"default_left":[0,0,0,0,0,0,0],"id":73,"left_children":[1,3,-1,5,-1,-1,-1],"loss_changes":[5.3505224E-1,7.799386E-1,0E0,3.6054152E-1,0E0,0E0,0E0],"parents":[2147483647,0,0,1,1,3,3],"right_children":[2,4,-1,6,-1,-1,-1],"split_conditions":[6.6824E4,6.4E1,-4.2452544E-2,6.3E1,-3.4391116E-2,-2.3558629E-3,6.1968584E-2],"split_indices":[1,10,0,10,0,0,0],"split_type":[0,0,0,0,0,0,0],"sum_hessian":[5.3029985E0,4.0402856E0,1.262713E0,2.822868E0,1.2174176E0,1.1985499E0,1.6243182E0],"tree_param":{"num_deleted":"0","num_feature":"45","num_nodes":"7","size_leaf_vector":"1"}},{"base_weights":[-2.43253E-2,2.9831013E-2,-2.375068E-1,-4.9131997E-2,2.9396666E-2],"categories":[],"categories_nodes":[],"categories_segments":[],"categories_sizes":[],"default_left":[0,0,0,0,0],"id":74,"left_children":[1,-1,3,-1,-1],"loss_changes":[4.9310392E-1,0E0,7.181909E-1,0E0,0E0],"parents":[2147483647,0,0,2,2],"right_children":[2,-1,4,-1,-1],"split_conditions":[2.29986E5,2.9831013E-2,4E0,-4.9131997E-2,2.9396666E-2],"split_indices":[0,0,13,0,0],"split_type":[0,0,0,0,0],"sum_hessian":[5.139194E0,1.8858166E0,3.2533774E0,2.2529829E0,1.0003946E0],"tree_param":{"num_deleted":"0","num_feature":"45","num_nodes":"5","size_leaf_vector":"1"}},{"base_weights":[-2.0812733E-2,1.507788E-1,-3.9374303E-2,3.9475507E-1,-3.308747E-2,-2.2569417E-3,6.0080003E-2],"categories":[],"categories_nodes":[],"categories_segments":[],"categories_sizes":[],"default_left":[0,0,0,0,0,0,0],"id":75,"left_children":[1,3,-1,5,-1,-1,-1],"loss_changes":[4.4585142E-1,7.0166075E-1,0E0,3.3012903E-1,0E0,0E0,0E0],"parents":[2147483647,0,0,1,1,3,3],"right_children":[2,4,-1,6,-1,-1,-1],"split_conditions":[6.6824E4,6.4E1,-3.9374303E-2,6.3E1,-3.308747E-2,-2.2569417E-3,6.0080003E-2],"split_indices":[1,10,0,10,0,0,0],"split_type":[0,0,0,0,0,0,0],"sum_hessian":[5.0395875E0,3.859471E0,1.1801163E0,2.6815689E0,1.1779023E0,1.180679E0,1.5008898E0],"tree_param":{"num_deleted":"0","num_feature":"45","num_nodes":"7","size_leaf_vector":"1"}},{"base_weights":[-2.1414127E-2,2.7553279E-2,-2.224262E-1,-4.5353178E-2,2.3844302E-2],"categories":[],"categories_nodes":[],"categories_segments":[],"categories_sizes":[],"default_left":[0,0,0,0,0],"id":76,"left_children":[1,-1,3,-1,-1],"loss_changes":[4.1314015E-1,0E0,5.414754E-1,0E0,0E0],"parents":[2147483647,0,0,2,2],"right_children":[2,-1,4,-1,-1],"split_conditions":[2.29986E5,2.7553279E-2,1E0,-4.5353178E-2,2.3844302E-2],"split_indices":[0,0,13,0,0],"split_type":[0,0,0,0,0],"sum_hessian":[4.8947053E0,1.8262029E0,3.0685022E0,2.0542884E0,1.0142139E0],"tree_param":{"num_deleted":"0","num_feature":"45","num_nodes":"5","size_leaf_vector":"1"}},{"base_weights":[-1.868087E-2,1.4056477E-1,-3.6483783E-2,5.4565657E-2,-1.514752E-1,1.0068371E-2,-2.924106E-2],"categories":[],"categories_nodes":[],"categories_segments":[],"categories_sizes":[],"default_left":[0,0,0,0,0,0,0],"id":77,"left_children":[1,3,-1,-1,5,-1,-1],"loss_changes":[3.7198657E-1,6.394583E-1,0E0,0E0,1.5445144E-1,0E0,0E0],"parents":[2147483647,0,0,1,1,4,4],"right_children":[2,4,-1,-1,6,-1,-1],"split_conditions":[6.6824E4,6E1,-3.6483783E-2,5.4565657E-2,2E0,1.0068371E-2,-2.924106E-2],"split_indices":[1,21,0,0,12,0,0],"split_type":[0,0,0,0,0,0,0],"sum_hessian":[4.817852E0,3.7066E0,1.1112522E0,1.1889558E0,2.5176444E0,1.0050435E0,1.5126008E0],"tree_param":{"num_deleted":"0","num_feature":"45","num_nodes":"7","size_leaf_vector":"1"}},{"base_weights":[-1.7259413E-2,1.4644428E-1,-3.452205E-2,3.7882355E-1,-3.275874E-2,-1.3334213E-3,5.7431694E-2],"categories":[],"categories_nodes":[],"categories_segments":[],"categories_sizes":[],"default_left":[0,0,0,0,0,0,0],"id":78,"left_children":[1,3,-1,5,-1,-1,-1],"loss_changes":[3.5600433E-1,6.1948067E-1,0E0,2.7456498E-1,0E0,0E0,0E0],"parents":[2147483647,0,0,1,1,3,3],"right_children":[2,4,-1,6,-1,-1,-1],"split_conditions":[6.4E1,6.6824E4,-3.452205E-2,6.3E1,-3.275874E-2,-1.3334213E-3,5.7431694E-2],"split_indices":[10,1,0,10,0,0,0],"split_type":[0,0,0,0,0,0,0],"sum_hessian":[4.689285E0,3.4971383E0,1.1921465E0,2.4815052E0,1.0156332E0,1.1354983E0,1.3460068E0],"tree_param":{"num_deleted":"0","num_feature":"45","num_nodes":"7","size_leaf_vector":"1"}},{"base_weights":[-1.7636446E-2,2.5455743E-2,-2.0637417E-1,-4.143757E-2,1.9118663E-2],"categories":[],"categories_nodes":[],"categories_segments":[],"categories_sizes":[],"default_left":[0,0,0,0,0],"id":79,"left_children":[1,-1,3,-1,-1],"loss_changes":[3.3851832E-1,0E0,3.9673406E-1,0E0,0E0],"parents":[2147483647,0,0,2,2],"right_children":[2,-1,4,-1,-1],"split_conditions":[2.29986E5,2.5455743E-2,1.2932917E7,-4.143757E-2,1.9118663E-2],"split_indices":[0,0,39,0,0],"split_type":[0,0,0,0,0],"sum_hessian":[4.566792E0,1.7271677E0,2.8396242E0,1.8364888E0,1.0031354E0],"tree_param":{"num_deleted":"0","num_feature":"45","num_nodes":"5","size_leaf_vector":"1"}},{"base_weights":[-1.563372E-2,1.444943E-1,-3.3135213E-2,3.5162973E-1,-2.7241437E-2,-1.7728206E-3,5.4850966E-2],"categories":[],"categories_nodes":[],"categories_segments":[],"categories_sizes":[],"default_left":[0,0,0,0,0,0,0],"id":80,"left_children":[1,3,-1,5,-1,-1,-1],"loss_changes":[3.2638413E-1,4.7156507E-1,0E0,2.5286987E-1,0E0,0E0,0E0],"parents":[2147483647,0,0,1,1,3,3],"right_children":[2,4,-1,6,-1,-1,-1],"split_conditions":[6.4E1,6.0371E4,-3.3135213E-2,6.3E1,-2.7241437E-2,-1.7728206E-3,5.4850966E-2],"split_indices":[10,1,0,10,0,0,0],"split_type":[0,0,0,0,0,0,0],"sum_hessian":[4.5089245E0,3.351448E0,1.1574765E0,2.343627E0,1.007821E0,1.1312646E0,1.2123624E0],"tree_param":{"num_deleted":"0","num_feature":"45","num_nodes":"7","size_leaf_vector":"1"}},{"base_weights":[-1.548481E-2,-1.7442657E-1,2.8914524E-2,1.03868125E-2,-4.4198178E-2],"categories":[],"categories_nodes":[],"categories_segments":[],"categories_sizes":[],"default_left":[0,0,0,0,0],"id":81,"left_children":[1,3,-1,-1,-1],"loss_changes":[3.1215218E-1,3.5683253E-1,0E0,0E0,0E0],"parents":[2147483647,0,0,1,1],"right_children":[2,4,-1,-1,-1],"split_conditions":[1.08E2,2E0,2.8914524E-2,1.03868125E-2,-4.4198178E-2],"split_indices":[18,12,0,0,0],"split_type":[0,0,0,0,0],"sum_hessian":[4.4053283E0,3.1757731E0,1.2295554E0,1.8565208E0,1.3192524E0],"tree_param":{"num_deleted":"0","num_feature":"45","num_nodes":"5","size_leaf_vector":"1"}},{"base_weights":[-1.5126829E-2,1.978185E-1,-2.4405412E-1,3.2468133E-2,-2.7814696E-3,-4.99771E-2,1.3100052E-2],"categories":[],"categories_nodes":[],"categories_segments":[],"categories_sizes":[],"default_left":[0,0,0,0,0,0,0],"id":82,"left_children":[1,3,5,-1,-1,-1,-1],"loss_changes":[3.0953094E-1,1.0431607E-1,3.5610288E-1,0E0,0E0,0E0,0E0],"parents":[2147483647,0,0,1,1,2,2],"right_children":[2,4,6,-1,-1,-1,-1],"split_conditions":[3.32701E5,6E1,5.3E1,3.2468133E-2,-2.7814696E-3,-4.99771E-2,1.3100052E-2],"split_indices":[0,21,11,0,0,0,0],"split_type":[0,0,0,0,0,0,0],"sum_hessian":[4.359136E0,2.3288023E0,2.0303335E0,1.2096789E0,1.1191235E0,1.0095092E0,1.0208243E0],"tree_param":{"num_deleted":"0","num_feature":"45","num_nodes":"7","size_leaf_vector":"1"}},{"base_weights":[-1.53333545E-2,1.4126447E-1,-3.1793892E-2,3.3914518E-1,-2.41726E-2,-2.5228626E-5,5.183318E-2],"categories":[],"categories_nodes":[],"categories_segments":[],"categories_sizes":[],"default_left":[0,0,0,0,0,0,0],"id":83,"left_children":[1,3,-1,5,-1,-1,-1],"loss_changes":[2.9530606E-1,3.9834195E-1,0E0,1.9282311E-1,0E0,0E0,0E0],"parents":[2147483647,0,0,1,1,3,3],"right_children":[2,4,-1,6,-1,-1,-1],"split_conditions":[6.4E1,5.7403E4,-3.1793892E-2,6.3E1,-2.41726E-2,-2.5228626E-5,5.183318E-2],"split_indices":[10,1,0,10,0,0,0],"split_type":[0,0,0,0,0,0,0],"sum_hessian":[4.283951E0,3.174385E0,1.1095656E0,2.168475E0,1.0059104E0,1.094318E0,1.0741568E0],"tree_param":{"num_deleted":"0","num_feature":"45","num_nodes":"7","size_leaf_vector":"1"}},{"base_weights":[-1.4638554E-2,-1.7058186E-1,2.7485091E-2,1.1574793E-2,-4.0112015E-2],"categories":[],"categories_nodes":[],"categories_segments":[],"categories_sizes":[],"default_left":[0,0,0,0,0],"id":84,"left_children":[1,3,-1,-1,-1],"loss_changes":[2.8151333E-1,3.101275E-1,0E0,0E0,0E0],"parents":[2147483647,0,0,1,1],"right_children":[2,4,-1,-1,-1],"split_conditions":[1.08E2,6E1,2.7485091E-2,1.1574793E-2,-4.0112015E-2],"split_indices":[18,21,0,0,0],"split_type":[0,0,0,0,0],"sum_hessian":[4.1973476E0,2.9948301E0,1.2025174E0,1.5578703E0,1.4369597E0],"tree_param":{"num_deleted":"0","num_feature":"45","num_nodes":"5","size_leaf_vector":"1"}},{"base_weights":[-1.3616108E-2,2.4053978E-2,-1.9536576E-1,-3.584656E-2,1.108454E-2],"categories":[],"categories_nodes":[],"categories_segments":[],"categories_sizes":[],"default_left":[0,0,0,0,0],"id":85,"left_children":[1,-1,3,-1,-1],"loss_changes":[2.852219E-1,0E0,2.174704E-1,0E0,0E0],"parents":[2147483647,0,0,2,2],"right_children":[2,-1,4,-1,-1],"split_conditions":[2.29986E5,2.4053978E-2,5.3E1,-3.584656E-2,1.108454E-2],"split_indices":[0,0,11,0,0],"split_type":[0,0,0,0,0],"sum_hessian":[4.1572747E0,1.5984957E0,2.5587792E0,1.5581825E0,1.0005966E0],"tree_param":{"num_deleted":"0","num_feature":"45","num_nodes":"5","size_leaf_vector":"1"}},{"base_weights":[-1.2597209E-2,1.419743E-1,-3.0790789E-2,4.0563338E-2,-1.2400378E-2],"categories":[],"categories_nodes":[],"categories_segments":[],"categories_sizes":[],"default_left":[0,0,0,0,0],"id":86,"left_children":[1,3,-1,-1,-1],"loss_changes":[2.774468E-1,3.3400673E-1,0E0,0E0,0E0],"parents":[2147483647,0,0,1,1],"right_children":[2,4,-1,-1,-1],"split_conditions":[6.4E1,2.29986E5,-3.0790789E-2,4.0563338E-2,-1.2400378E-2],"split_indices":[10,0,0,0,0],"split_type":[0,0,0,0,0],"sum_hessian":[4.120463E0,3.045582E0,1.0748808E0,1.2657775E0,1.7798045E0],"tree_param":{"num_deleted":"0","num_feature":"45","num_nodes":"5","size_leaf_vector":"1"}},{"base_weights":[-1.1933075E-2,1.3546805E-1,-2.947782E-2,3.857143E-2,-1.1624385E-2],"categories":[],"categories_nodes":[],"categories_segments":[],"categories_sizes":[],"default_left":[0,0,0,0,0],"id":87,"left_children":[1,3,-1,-1,-1],"loss_changes":[2.5181884E-1,2.984468E-1,0E0,0E0,0E0],"parents":[2147483647,0,0,1,1],"right_children":[2,4,-1,-1,-1],"split_conditions":[6.4E1,2.29986E5,-2.947782E-2,3.857143E-2,-1.1624385E-2],"split_indices":[10,0,0,0,0],"split_type":[0,0,0,0,0],"sum_hessian":[4.082207E0,3.026196E0,1.0560111E0,1.2505568E0,1.775639E0],"tree_param":{"num_deleted":"0","num_feature":"45","num_nodes":"5","size_leaf_vector":"1"}},{"base_weights":[-1.13271E-2,-1.6487008E-1,2.6330918E-2,9.699282E-3,-4.1465204E-2],"categories":[],"categories_nodes":[],"categories_segments":[],"categories_sizes":[],"default_left":[0,0,0,0,0],"id":88,"left_children":[1,3,-1,-1,-1],"loss_changes":[2.5627854E-1,2.9222253E-1,0E0,0E0,0E0],"parents":[2147483647,0,0,1,1],"right_children":[2,4,-1,-1,-1],"split_conditions":[1.08E2,2E0,2.6330918E-2,9.699282E-3,-4.1465204E-2],"split_indices":[18,12,0,0,0],"split_type":[0,0,0,0,0],"sum_hessian":[4.048007E0,2.8527672E0,1.1952398E0,1.6913275E0,1.1614398E0],"tree_param":{"num_deleted":"0","num_feature":"45","num_nodes":"5","size_leaf_vector":"1"}},{"base_weights":[-1.148004E-2,1.3113746E-1,-2.8527929E-2,3.0709034E-2,-1.8361218E-2],"categories":[],"categories_nodes":[],"categories_segments":[],"categories_sizes":[],"default_left":[0,0,0,0,0],"id":89,"left_children":[1,3,-1,-1,-1],"loss_changes":[2.3305237E-1,2.7676684E-1,0E0,0E0,0E0],"parents":[2147483647,0,0,1,1],"right_children":[2,4,-1,-1,-1],"split_conditions":[6.4E1,1.537826E7,-2.8527929E-2,3.0709034E-2,-1.8361218E-2],"split_indices":[10,20,0,0,0],"split_type":[0,0,0,0,0],"sum_hessian":[4.0102124E0,2.9793587E0,1.0308536E0,1.9266486E0,1.05271E0],"tree_param":{"num_deleted":"0","num_feature":"45","num_nodes":"5","size_leaf_vector":"1"}},{"base_weights":[-1.3681446E-2,1.8478341E-1,-2.1459375E-2,3.7177987E-2,-9.816139E-3],"categories":[],"categories_nodes":[],"categories_segments":[],"categories_sizes":[],"default_left":[0,0,0,0,0],"id":90,"left_children":[1,3,-1,-1,-1],"loss_changes":[2.3800677E-1,1.9732998E-1,0E0,0E0,0E0],"parents":[2147483647,0,0,1,1],"right_children":[2,4,-1,-1,-1],"split_conditions":[7.1E1,3.8006E4,-2.1459375E-2,3.7177987E-2,-9.816139E-3],"split_indices":[21,1,0,0,0],"split_type":[0,0,0,0,0],"sum_hessian":[3.9745016E0,2.039814E0,1.9346875E0,1.0391082E0,1.000706E0],"tree_param":{"num_deleted":"0","num_feature":"45","num_nodes":"5","size_leaf_vector":"1"}},{"base_weights":[-1.1201888E-2,-1.6196361E-1,2.5540054E-2,9.094344E-3,-4.0282264E-2],"categories":[],"categories_nodes":[],"categories_segments":[],"categories_sizes":[],"default_left":[0,0,0,0,0],"id":91,"left_children":[1,3,-1,-1,-1],"loss_changes":[2.3923534E-1,2.6546675E-1,0E0,0E0,0E0],"parents":[2147483647,0,0,1,1],"right_children":[2,4,-1,-1,-1],"split_conditions":[1.08E2,2E0,2.5540054E-2,9.094344E-3,-4.0282264E-2],"split_indices":[18,12,0,0,0],"split_type":[0,0,0,0,0],"sum_hessian":[3.9229362E0,2.756593E0,1.1663432E0,1.6482823E0,1.1083107E0],"tree_param":{"num_deleted":"0","num_feature":"45","num_nodes":"5","size_leaf_vector":"1"}},{"base_weights":[-1.1425758E-2,1.7266665E-1,-2.1481555E-2,2.9212683E-2,-3.2707062E-3],"categories":[],"categories_nodes":[],"categories_segments":[],"categories_sizes":[],"default_left":[0,0,0,0,0],"id":92,"left_children":[1,3,-1,-1,-1],"loss_changes":[2.2012544E-1,8.610831E-2,0E0,0E0,0E0],"parents":[2147483647,0,0,1,1],"right_children":[2,4,-1,-1,-1],"split_conditions":[3.32701E5,6E1,-2.1481555E-2,2.9212683E-2,-3.2707062E-3],"split_indices":[0,21,0,0,0],"split_type":[0,0,0,0,0],"sum_hessian":[3.8883996E0,2.120314E0,1.7680857E0,1.0734829E0,1.0468309E0],"tree_param":{"num_deleted":"0","num_feature":"45","num_nodes":"5","size_leaf_vector":"1"}},{"base_weights":[-9.409082E-3,-1.5886831E-1,2.4949534E-2,8.047417E-3,-3.871131E-2],"categories":[],"categories_nodes":[],"categories_segments":[],"categories_sizes":[],"default_left":[0,0,0,0,0],"id":93,"left_children":[1,3,-1,-1,-1],"loss_changes":[2.2763921E-1,2.3280159E-1,0E0,0E0,0E0],"parents":[2147483647,0,0,1,1],"right_children":[2,4,-1,-1,-1],"split_conditions":[1.08E2,2E0,2.4949534E-2,8.047417E-3,-3.871131E-2],"split_indices":[18,12,0,0,0],"split_type":[0,0,0,0,0],"sum_hessian":[3.8584874E0,2.6912668E0,1.1672206E0,1.629724E0,1.0615426E0],"tree_param":{"num_deleted":"0","num_feature":"45","num_nodes":"5","size_leaf_vector":"1"}},{"base_weights":[-9.820568E-3,-1.526787E-1,2.3618657E-2,9.613733E-3,-3.558978E-2],"categories":[],"categories_nodes":[],"categories_segments":[],"categories_sizes":[],"default_left":[0,0,0,0,0],"id":94,"left_children":[1,3,-1,-1,-1],"loss_changes":[2.057164E-1,2.1934777E-1,0E0,0E0,0E0],"parents":[2147483647,0,0,1,1],"right_children":[2,4,-1,-1,-1],"split_conditions":[1.08E2,6E1,2.3618657E-2,9.613733E-3,-3.558978E-2],"split_indices":[18,21,0,0,0],"split_type":[0,0,0,0,0],"sum_hessian":[3.827429E0,2.6613414E0,1.1660875E0,1.4333338E0,1.2280077E0],"tree_param":{"num_deleted":"0","num_feature":"45","num_nodes":"5","size_leaf_vector":"1"}},{"base_weights":[-9.468342E-3,1.6903989E-1,-2.0733794E-2,2.736253E-2,-2.0961592E-3],"categories":[],"categories_nodes":[],"categories_segments":[],"categories_sizes":[],"default_left":[0,0,0,0,0],"id":95,"left_children":[1,3,-1,-1,-1],"loss_changes":[2.0455247E-1,6.6815585E-2,0E0,0E0,0E0],"parents":[2147483647,0,0,1,1],"right_children":[2,4,-1,-1,-1],"split_conditions":[3.32701E5,6E1,-2.0733794E-2,2.736253E-2,-2.0961592E-3],"split_indices":[0,21,0,0,0],"split_type":[0,0,0,0,0],"sum_hessian":[3.798913E0,2.0737648E0,1.7251482E0,1.0536605E0,1.0201043E0],"tree_param":{"num_deleted":"0","num_feature":"45","num_nodes":"5","size_leaf_vector":"1"}},{"base_weights":[-7.600994E-3,-1.4880998E-1,2.308282E-2,8.3066765E-3,-3.3580136E-2],"categories":[],"categories_nodes":[],"categories_segments":[],"categories_sizes":[],"default_left":[0,0,0,0,0],"id":96,"left_children":[1,3,-1,-1,-1],"loss_changes":[1.9504362E-1,1.8422812E-1,0E0,0E0,0E0],"parents":[2147483647,0,0,1,1],"right_children":[2,4,-1,-1,-1],"split_conditions":[1.08E2,6E1,2.308282E-2,8.3066765E-3,-3.3580136E-2],"split_indices":[18,21,0,0,0],"split_type":[0,0,0,0,0],"sum_hessian":[3.7728531E0,2.6055796E0,1.1672734E0,1.4112928E0,1.194287E0],"tree_param":{"num_deleted":"0","num_feature":"45","num_nodes":"5","size_leaf_vector":"1"}},{"base_weights":[-7.41183E-3,2.0605685E-2,-1.608363E-1,1.8504503E-3,-2.8856134E-2],"categories":[],"categories_nodes":[],"categories_segments":[],"categories_sizes":[],"default_left":[0,0,0,0,0],"id":97,"left_children":[1,-1,3,-1,-1],"loss_changes":[1.8864794E-1,0E0,8.1484936E-2,0E0,0E0],"parents":[2147483647,0,0,2,2],"right_children":[2,-1,4,-1,-1],"split_conditions":[2.29986E5,2.0605685E-2,6.7E1,1.8504503E-3,-2.8856134E-2],"split_indices":[0,0,21,0,0],"split_type":[0,0,0,0,0],"sum_hessian":[3.7480998E0,1.4238964E0,2.3242035E0,1.3224511E0,1.0017524E0],"tree_param":{"num_deleted":"0","num_feature":"45","num_nodes":"5","size_leaf_vector":"1"}},{"base_weights":[-8.082866E-3,-1.454369E-1,2.2194035E-2,7.398918E-3,-3.2159377E-2],"categories":[],"categories_nodes":[],"categories_segments":[],"categories_sizes":[],"default_left":[0,0,0,0,0],"id":98,"left_children":[1,3,-1,-1,-1],"loss_changes":[1.817862E-1,1.6167027E-1,0E0,0E0,0E0],"parents":[2147483647,0,0,1,1],"right_children":[2,4,-1,-1,-1],"split_conditions":[1.08E2,6E1,2.2194035E-2,7.398918E-3,-3.2159377E-2],"split_indices":[18,21,0,0,0],"split_type":[0,0,0,0,0],"sum_hessian":[3.732068E0,2.5669763E0,1.1650919E0,1.4013704E0,1.1656059E0],"tree_param":{"num_deleted":"0","num_feature":"45","num_nodes":"5","size_leaf_vector":"1"}},{"base_weights":[-7.938848E-3,1.291112E-1,-2.3606213E-2,3.760122E-2,-1.1476438E-2],"categories":[],"categories_nodes":[],"categories_segments":[],"categories_sizes":[],"default_left":[0,0,0,0,0],"id":99,"left_children":[1,3,-1,-1,-1],"loss_changes":[1.7772615E-1,2.5923538E-1,0E0,0E0,0E0],"parents":[2147483647,0,0,1,1],"right_children":[2,4,-1,-1,-1],"split_conditions":[1.537826E7,7.4E1,-2.3606213E-2,3.760122E-2,-1.1476438E-2],"split_indices":[20,21,0,0,0],"split_type":[0,0,0,0,0],"sum_hessian":[3.7097762E0,2.5886292E0,1.1211469E0,1.0170958E0,1.5715334E0],"tree_param":{"num_deleted":"0","num_feature":"45","num_nodes":"5","size_leaf_vector":"1"}}]},"name":"gbtree"},"learner_model_param":{"base_score":"[6.1035335E-1]","boost_from_average":"1","num_class":"0","num_feature":"45","num_target":"1"},"objective":{"name":"binary:logistic","reg_loss_param":{"scale_pos_weight":"1"}}},"version":[3,2,0]}